{"layers":[{"out_depth":3,"out_sx":64,"out_sy":64,"layer_type":"input"},{"sx":5,"sy":5,"stride":1,"in_depth":3,"out_depth":32,"out_sx":64,"out_sy":64,"layer_type":"conv","l1_decay_mul":0,"l2_decay_mul":1,"pad":2,"filters":[{"sx":5,"sy":5,"depth":3,"w":{"0":-0.04487329767025328,"1":-0.06441666883802732,"2":-0.006640056367946656,"3":-0.03708247372002432,"4":0.022772115166431368,"5":-0.22969354740379958,"6":-0.051793896357679704,"7":-0.035798385696702,"8":-0.12163090582736376,"9":0.17289304475130032,"10":0.1846987174158875,"11":-0.1151667911870586,"12":0.11015757407613629,"13":-0.03724129104099982,"14":-0.14131281779165428,"15":0.11182211274832632,"16":-0.08306696196328568,"17":0.1732899111279968,"18":-0.08746771748362332,"19":-0.054100733377417616,"20":0.09194591168347599,"21":-0.07766292674628572,"22":0.04834803468615404,"23":0.060393848193747296,"24":-0.04603629653816197,"25":0.02796501402190026,"26":-0.0075153132967957035,"27":-0.06668674113686521,"28":0.2004053296836191,"29":-0.08064053049110725,"30":0.14722717950967598,"31":-0.03881984823146295,"32":0.11794820908116758,"33":0.08002475855836978,"34":0.014624750624568621,"35":-0.1097417916157152,"36":0.05181565083762903,"37":-0.05194020327802156,"38":-0.06587760651551952,"39":-0.10530105203453623,"40":-0.1303112266799169,"41":0.012899509267165718,"42":-0.13203750224871508,"43":-0.27703890953251514,"44":-0.13146653934801852,"45":-0.013323586871106935,"46":0.2636132311192254,"47":-0.10707637698477734,"48":-0.13008598241222316,"49":0.00290787651146923,"50":-0.0944503578599868,"51":0.13234380645540744,"52":0.11427856183756657,"53":0.05893957062358689,"54":0.08097314123625551,"55":0.012458864473884276,"56":-0.26889717588632983,"57":0.007175575069354628,"58":-0.11500182426451246,"59":-0.13335870884013146,"60":0.12709339440453016,"61":-0.10676565565738083,"62":-0.017653531739871043,"63":0.13113395049755713,"64":0.1420326737127863,"65":0.0864085310055152,"66":-0.11432274071883265,"67":0.046874044862802895,"68":0.16205745676475575,"69":0.1462144616895351,"70":-0.1483914273760657,"71":0.11448556888571547,"72":-0.028622141785463802,"73":0.2525746739678028,"74":0.17290325731154255}},{"sx":5,"sy":5,"depth":3,"w":{"0":0.0926808149720437,"1":0.08119839477871932,"2":-0.01117564867813803,"3":0.009437671139524463,"4":0.011061611137585563,"5":0.12921787559197404,"6":-0.12498673772970387,"7":0.06398767444092744,"8":-0.26238962021630774,"9":0.06792510280992659,"10":-0.07487547016046885,"11":-0.004616897550507415,"12":-0.0685799648422447,"13":-0.08520112958028904,"14":-0.02648732297834038,"15":-0.10098864751827101,"16":0.0621254774332596,"17":-0.20769222137573096,"18":0.09275163618305567,"19":-0.10448809516179461,"20":-0.12702177847852003,"21":-0.04522306063988658,"22":0.2182860434337485,"23":0.0739934121250335,"24":0.14823760650606796,"25":0.07018651971904585,"26":0.0006565767367702998,"27":-0.0030998916063619208,"28":-0.14711835277229213,"29":-0.005172657212027731,"30":0.33112011828126503,"31":0.0843111747106782,"32":0.09265670088779307,"33":0.1953966759916144,"34":0.0664718037347167,"35":0.014944631681061108,"36":0.028962353732888118,"37":-0.042162149720638364,"38":-0.0200498554047265,"39":-0.06634420746647471,"40":-0.16045157309640576,"41":-0.08391623107459481,"42":0.13571886146603496,"43":0.14329792370423203,"44":0.12977480630037672,"45":0.09871932710216659,"46":0.05090977891409053,"47":0.08079620188645976,"48":0.1056215857834093,"49":-0.05009101524268428,"50":0.015086596615956502,"51":-0.13549477431121457,"52":-0.04014017538295189,"53":0.03602391432326335,"54":-0.02977406991672158,"55":0.09465266686307527,"56":-0.07597619094464633,"57":0.02166602125077048,"58":-0.09658466364230724,"59":-0.09447854198826874,"60":-0.10790970564062284,"61":0.03176677421615462,"62":-0.0769992176132711,"63":0.042579792548962415,"64":-0.118345150222642,"65":-0.0484146792001475,"66":-0.30911152813743514,"67":-0.05858339790697082,"68":-0.010909602178442564,"69":-0.029483664451016717,"70":0.08176947764630313,"71":-0.05915741430271306,"72":0.09277610856625115,"73":0.07703351789962265,"74":0.024089548722829774}},{"sx":5,"sy":5,"depth":3,"w":{"0":-0.1442322773028611,"1":0.03900027258901957,"2":-0.21693327379266494,"3":0.11774147759765738,"4":0.1890385464402554,"5":0.18289549034245345,"6":0.22930423218127077,"7":0.04843931377924531,"8":0.010257270934077202,"9":0.24157646627157844,"10":0.1407723382648671,"11":-0.08414690897239287,"12":0.09906086560538928,"13":-0.03156446059906728,"14":0.03041686115954595,"15":-0.015213940832195851,"16":0.10957503915188922,"17":0.041806575327840746,"18":0.022768179421303096,"19":0.03152776862562296,"20":0.06666991096442701,"21":0.014228939716732348,"22":-0.09818837974512329,"23":0.08653744923507817,"24":-0.16286192496087662,"25":0.15468451533101069,"26":0.18575582969637588,"27":0.05536135135451502,"28":0.09843531253727333,"29":-0.012589360555567784,"30":0.16450150534025595,"31":-0.11710878379939695,"32":0.00006103110424457561,"33":0.12859510742986516,"34":0.011513942006787724,"35":-0.0013772454477420358,"36":0.15412069628637962,"37":-0.08398521938221377,"38":0.0013964955108634021,"39":-0.14857043814574242,"40":-0.08571674697894326,"41":-0.10293116301395172,"42":0.025549217597411248,"43":-0.039228310255215136,"44":-0.12481390613352947,"45":-0.06633000667512401,"46":-0.21651319233301694,"47":-0.06298687980310816,"48":-0.22655501978100598,"49":-0.1763666949712045,"50":-0.08973844537827903,"51":-0.03950180949077582,"52":-0.0029134319461014252,"53":0.08458422539928187,"54":0.07018307488994556,"55":-0.10588617725389077,"56":0.09712672022468687,"57":-0.10921968165394255,"58":0.1625465683140635,"59":-0.07151767956207739,"60":0.03898567462883576,"61":-0.12982336960903523,"62":-0.08371530670333087,"63":0.03393426883225784,"64":-0.018598091077936026,"65":0.07301961977531495,"66":-0.25276074014479494,"67":0.06507461805563182,"68":0.050660410596181586,"69":-0.03961065161839844,"70":-0.0458905099904775,"71":-0.08512752157947605,"72":0.1617710789231958,"73":-0.05651484127353806,"74":0.023884177436129125}},{"sx":5,"sy":5,"depth":3,"w":{"0":0.0045858521458604085,"1":-0.01071992019773859,"2":0.06534814916110827,"3":-0.07925684861337658,"4":0.021770599410076728,"5":0.025309564170893663,"6":-0.12640523234276355,"7":0.0866596764579068,"8":0.04984250959796054,"9":-0.05501769743468467,"10":0.12976186223087072,"11":-0.06689437485897379,"12":0.05584473132758578,"13":-0.125504706668761,"14":-0.035139802580760944,"15":0.1336299773479967,"16":-0.04343571838960761,"17":0.274161322022617,"18":0.08441562489069228,"19":0.16234729889365535,"20":0.07284950243452447,"21":-0.04027586143457482,"22":-0.08743836500239943,"23":-0.2371962007331847,"24":0.0071998012965613,"25":0.12768493256656097,"26":0.011313682805142753,"27":-0.10998134934944048,"28":-0.1173455932503161,"29":0.10189283465674169,"30":0.14444255508308462,"31":0.09094716849276897,"32":0.0019400939763978932,"33":-0.014011173164696451,"34":0.2730875589311468,"35":0.20989123909554347,"36":0.023463260385869388,"37":-0.02705125438203467,"38":-0.11533299157774109,"39":-0.045925035499540016,"40":0.12947898552296966,"41":0.017737662620402123,"42":-0.06752159755055914,"43":0.20530845400154288,"44":-0.08545340986631557,"45":0.03260449062828214,"46":0.09540236780992556,"47":0.015233162550676386,"48":-0.13596183097376952,"49":0.02362886215406648,"50":0.09462270623686471,"51":-0.1785334114502225,"52":0.1528574275470336,"53":-0.23445905735957043,"54":-0.1950721528553258,"55":-0.0409680800652822,"56":-0.08679937491726333,"57":0.06384690506821035,"58":-0.03776082638277536,"59":-0.1575105969820996,"60":0.09014253457729492,"61":0.04947538726533799,"62":0.17300315623771226,"63":-0.08270153836079369,"64":-0.16729621693612728,"65":0.06495166619035891,"66":0.1602681420456719,"67":0.04363695419842845,"68":-0.06242782916749187,"69":-0.15165687110798456,"70":-0.00016407577710377284,"71":0.02613438871678618,"72":-0.10166428034059936,"73":-0.18442113169553961,"74":-0.07074107792245712}},{"sx":5,"sy":5,"depth":3,"w":{"0":-0.05655094530754832,"1":-0.013595107655344557,"2":-0.07691902258326479,"3":0.07069128825244303,"4":-0.10060764981289409,"5":-0.034102936734863754,"6":-0.09680111123364855,"7":0.21740428950407448,"8":-0.10503705124627985,"9":-0.02085934446064125,"10":-0.000594703885374102,"11":-0.0774958943036584,"12":-0.2104809731687613,"13":-0.003829422292307866,"14":0.0720163241059738,"15":0.12048311083779961,"16":0.051438184157164266,"17":0.1662984034613162,"18":-0.15327112904190662,"19":0.02484981171746195,"20":-0.09940817349246901,"21":0.23753916194148453,"22":-0.04303055623439718,"23":-0.06470538238269298,"24":0.08913629371503749,"25":0.2826016024725183,"26":-0.03073086826730893,"27":0.06396669869018969,"28":-0.021645393902157292,"29":-0.07895587248894163,"30":-0.048116632525452785,"31":0.1761294955986684,"32":0.32232707426443297,"33":-0.025372599779112263,"34":0.19592654795804343,"35":-0.06472837578633024,"36":0.030592539447289145,"37":-0.22601017539942023,"38":-0.04527221732655374,"39":-0.053744908969725835,"40":0.06681448560724414,"41":0.006462003081841124,"42":0.11380714578381983,"43":-0.20751223313525108,"44":0.28325886045411586,"45":-0.18015775592927835,"46":-0.03469617176086082,"47":-0.1663904756225488,"48":-0.2742033064139628,"49":-0.19094079434241804,"50":-0.009408000766874767,"51":0.03779969296846567,"52":-0.05754042929771877,"53":0.17158266982397374,"54":0.024869824956858026,"55":0.019031912839184945,"56":0.10778751243356756,"57":0.11489341771310065,"58":-0.26991079949592595,"59":-0.060280572252425904,"60":-0.03091237063177164,"61":-0.1138595413867909,"62":0.07592194959823434,"63":-0.07660000765031627,"64":0.059689942503877276,"65":-0.023195679413808783,"66":-0.12057504867602281,"67":0.04975940679151405,"68":-0.009050507325949985,"69":0.18676365952287377,"70":0.13639023649124107,"71":0.0733356302439389,"72":-0.011492864728474194,"73":0.1724829611600233,"74":-0.029335024164399478}},{"sx":5,"sy":5,"depth":3,"w":{"0":-0.01754921780056976,"1":0.06728703369807111,"2":0.11183496339907713,"3":0.20467048293076576,"4":0.057136564438065925,"5":0.1653256601528876,"6":-0.013781532384000353,"7":0.17873886316223372,"8":0.1318299462693266,"9":0.0779726562278421,"10":0.022536660487713075,"11":0.13014385203427342,"12":-0.10533631591319391,"13":0.15004785711624005,"14":0.09166551980735141,"15":-0.1988732669360082,"16":0.04066838811426083,"17":0.13573774826680784,"18":-0.06478748128061096,"19":0.05683915384535727,"20":0.057478115377597415,"21":-0.047597085716027755,"22":0.14133881762726735,"23":0.02901513395018818,"24":0.22721102287400063,"25":0.17436136371688812,"26":0.13237570609610086,"27":0.06343524473885667,"28":0.009652947662243377,"29":0.06460669049471127,"30":-0.11833146391950636,"31":0.010551248761041127,"32":-0.08512168435510241,"33":-0.04651526780035627,"34":0.12955819453317105,"35":-0.09232379301571468,"36":-0.24372103433337172,"37":-0.02017044496701248,"38":-0.07817497570081411,"39":0.014802242749149316,"40":-0.16837382701782863,"41":0.05982673779952492,"42":0.0025910363275499803,"43":0.03518876013169363,"44":0.2182888743339599,"45":-0.15657908265256823,"46":0.11153164332013289,"47":-0.0935448270674358,"48":-0.03658593791262505,"49":0.0058533848005627555,"50":0.05369648416979341,"51":-0.0897017919085568,"52":-0.06436577869521955,"53":0.016517310083902385,"54":-0.14705460093535333,"55":-0.20779091663874674,"56":-0.22117444416896384,"57":-0.12910515645707255,"58":-0.14717954423612709,"59":-0.04588815202290071,"60":0.17321766466502084,"61":0.04781110959847776,"62":-0.02721237471066531,"63":0.1452113904613932,"64":-0.23585540074908834,"65":0.06845619960426275,"66":-0.04314763227115216,"67":-0.04693644432347557,"68":0.09611385402029501,"69":-0.06942927120290183,"70":-0.11507984021747193,"71":-0.10083526746587937,"72":0.14528645832734458,"73":-0.13814284680152678,"74":-0.11797997911921816}},{"sx":5,"sy":5,"depth":3,"w":{"0":0.09166313322209217,"1":-0.011497333098573731,"2":0.041549409908303685,"3":0.04211194763774098,"4":0.06975938464148213,"5":-0.03561377957315478,"6":0.04601526121523518,"7":0.22794112042199,"8":0.07355585552257414,"9":0.05754824367613491,"10":0.25958385095786785,"11":0.08394952379397097,"12":-0.049242120888023364,"13":0.05755196315725522,"14":0.04783140999379834,"15":0.2378076628185734,"16":0.0037686929577988846,"17":-0.10855673647085305,"18":-0.14881053776757838,"19":-0.22609251566834998,"20":-0.012382010958874473,"21":-0.06405345838795305,"22":-0.04581720996238838,"23":-0.259568007836928,"24":-0.05414706396923479,"25":0.11389706858985879,"26":0.04049466603615359,"27":0.0926544366792378,"28":-0.1271901664582074,"29":-0.15445025274678206,"30":-0.14549745219712576,"31":0.27614547099987663,"32":0.25623225881038675,"33":0.23688368663146425,"34":0.053135330416238795,"35":0.028608201585875192,"36":-0.08352254370966049,"37":-0.11768505612942394,"38":-0.11402675029994797,"39":-0.16114014200469487,"40":-0.04026627959273518,"41":-0.16560674562750316,"42":0.14882315565446289,"43":-0.011373341180316163,"44":-0.0044224119255738764,"45":-0.1519968789532951,"46":-0.057618961803499055,"47":-0.13851595220854732,"48":0.061718481003506055,"49":-0.021454893524215896,"50":0.02778066096031539,"51":0.13792944433257823,"52":-0.1689874280541223,"53":-0.16116083486225466,"54":0.2467123179341167,"55":-0.06220990320407093,"56":-0.03600206069621542,"57":-0.016347667077803742,"58":-0.09333073127798609,"59":-0.15823339289007807,"60":-0.025995799397144446,"61":0.09181771983743807,"62":-0.061845429987995984,"63":-0.09498275616338911,"64":0.12835291010907446,"65":0.07362364114682078,"66":0.28873205916197103,"67":-0.06462796773878784,"68":0.10352670665789226,"69":0.0517530718250129,"70":-0.16143153919821313,"71":0.1111106012784364,"72":-0.12478066532588543,"73":-0.1273941975070138,"74":-0.00810563081602783}},{"sx":5,"sy":5,"depth":3,"w":{"0":0.21861899262817758,"1":0.017008843645418388,"2":-0.0039627382232886735,"3":-0.23423429530075704,"4":-0.06040634987255008,"5":-0.028194150649942126,"6":-0.1335423644283985,"7":-0.14904588952947165,"8":-0.07580797912052457,"9":-0.15367000292155528,"10":-0.1105648015647659,"11":-0.41993287859312906,"12":0.106767231544756,"13":-0.08048641801176497,"14":0.06189130231697108,"15":0.05126285714254472,"16":0.046456476414446446,"17":-0.09389277633827713,"18":-0.19549781674470987,"19":-0.09229714242877825,"20":-0.049983668833733105,"21":-0.0857273403937362,"22":0.12859943659855605,"23":-0.14704167693902886,"24":0.03490434687866893,"25":-0.10899023560805249,"26":0.014848296223975705,"27":0.01698797410790665,"28":-0.0777288123900494,"29":-0.1405077512325054,"30":0.21874356612613222,"31":-0.02982906039659366,"32":0.06007524523384674,"33":-0.08276552745962873,"34":0.007527369389188349,"35":-0.1030706161970011,"36":-0.021935622002818848,"37":0.04793054450754708,"38":-0.05207692354640639,"39":-0.02063026650728253,"40":0.0689693994490617,"41":-0.10385594143497591,"42":-0.12060328010700194,"43":0.21135239754153107,"44":-0.26542475122201703,"45":0.1231027542322388,"46":0.22791976084930177,"47":0.08470844361744193,"48":-0.08804615446577232,"49":0.131775256098873,"50":0.06540849563970481,"51":-0.002469342933865254,"52":-0.05784622181420804,"53":-0.011072618869680499,"54":-0.09815977445743267,"55":0.21041266142996337,"56":0.007190634996602435,"57":0.15156906889470778,"58":-0.07671676695998839,"59":0.04409580844070987,"60":0.20209404198357847,"61":-0.06981909428669236,"62":0.38166630169202576,"63":0.01718968963625727,"64":0.13503430815788164,"65":0.11481377919297285,"66":0.046114706602303816,"67":0.08138750960470831,"68":-0.029533815853966878,"69":0.1611990402835457,"70":0.13546219747196528,"71":0.08497141143694649,"72":-0.02890828642644108,"73":-0.08669099376821329,"74":0.09337957026326626}},{"sx":5,"sy":5,"depth":3,"w":{"0":-0.0682988577034421,"1":0.07240578283842902,"2":0.14973791224572236,"3":-0.05344846024934309,"4":0.0322016471228621,"5":-0.0028416252895743705,"6":0.09341311797199014,"7":-0.04677869336707199,"8":0.11319007459295116,"9":0.07526121905366089,"10":-0.022848682626505742,"11":0.06427709888010415,"12":0.1841449942621297,"13":0.009270904493197589,"14":0.18116702063239157,"15":0.24634883189346254,"16":-0.04690151645515116,"17":0.2322808019422515,"18":0.10731636321222023,"19":-0.09660015043176383,"20":-0.09498800197908733,"21":0.03448813264771496,"22":0.23205508025671,"23":-0.07860584208872241,"24":0.0016157490101492765,"25":0.007337790069087458,"26":0.14086899640525213,"27":0.14626912610176498,"28":-0.00698010693302119,"29":0.18132070791125088,"30":0.19865341889793553,"31":0.11753508102087312,"32":-0.0003244208886054934,"33":0.11506897282439212,"34":-0.3557771516035522,"35":0.013248490849876086,"36":0.019995904803018372,"37":0.16462028806816525,"38":-0.058975606677091924,"39":-0.08156314883789394,"40":0.08528744509931699,"41":-0.09168439350776254,"42":0.0065501728857283725,"43":0.047810569830408364,"44":-0.06578509356046651,"45":0.14447636374906742,"46":0.1499795079300812,"47":-0.054701074943999534,"48":0.2080357112802506,"49":-0.10502559345436342,"50":-0.21157178152729494,"51":0.07576444821229718,"52":0.09265536963077245,"53":-0.04559394481423264,"54":0.07957584056936652,"55":0.2414258265374115,"56":-0.07110280712585117,"57":-0.1032707299857704,"58":0.04006663816340429,"59":0.07219945450105518,"60":0.136215861385038,"61":0.1410898689111787,"62":0.0709690948558597,"63":-0.011605008064631798,"64":0.09647917150064392,"65":0.1022710052347631,"66":0.015041584279723241,"67":0.01886969755683734,"68":0.12107690235893111,"69":0.01097825389463907,"70":-0.023028701439141392,"71":-0.055308435981589354,"72":-0.049395560346770215,"73":0.02132866018098112,"74":0.12745396376822987}},{"sx":5,"sy":5,"depth":3,"w":{"0":-0.23911172486413895,"1":0.2033847028039433,"2":-0.004699885203771282,"3":-0.005398550067571272,"4":0.012743123649624197,"5":-0.06609060750940669,"6":0.008813635988720323,"7":0.04416713031803852,"8":-0.05192754861956663,"9":-0.14521308463122629,"10":-0.06867830069463772,"11":0.19534675213476785,"12":-0.017386305877304643,"13":-0.18708298682919228,"14":-0.242975304775759,"15":0.29671378386584296,"16":-0.0020941573292070823,"17":-0.020132531475205433,"18":-0.033214667374314104,"19":-0.08971468378130085,"20":-0.19846114752080696,"21":-0.029342384150366687,"22":0.16860165002553582,"23":0.05270888485221685,"24":0.14686230906251557,"25":-0.18346776989534797,"26":0.13500227798727243,"27":0.03671593817579882,"28":0.0670925597803047,"29":-0.14168284680206727,"30":0.051974571489440416,"31":0.0036995358961500633,"32":0.11005210047356792,"33":0.08334717718380452,"34":-0.09010122987186522,"35":-0.1764528670551617,"36":-0.07327571544131399,"37":0.05016685184382107,"38":-0.17412366085988248,"39":0.17853972215469652,"40":0.08664469363805478,"41":0.3092334460400562,"42":-0.10788119688678115,"43":-0.02551756465646542,"44":-0.1381524932731132,"45":-0.12313918103511941,"46":-0.11433636433813882,"47":-0.012421324506390717,"48":0.11072108361798977,"49":0.05154550729328851,"50":0.16941080723621135,"51":0.05596236643631866,"52":-0.19902278394060344,"53":0.058479815324461955,"54":-0.17475741177856535,"55":0.03969634460716614,"56":-0.1789337721979711,"57":-0.18288873432334818,"58":0.16823492640676863,"59":-0.08428878687589861,"60":0.15126861688004944,"61":0.22153797760525665,"62":-0.02031478005248716,"63":-0.03262625337232474,"64":0.01971124966664664,"65":-0.003247370736241146,"66":-0.03336140454538769,"67":0.21702880442930475,"68":0.1036033920141677,"69":0.14089447464225202,"70":-0.09186719575484766,"71":-0.010778568148301531,"72":-0.0015410052281973382,"73":0.120366383294645,"74":-0.0861306007615056}},{"sx":5,"sy":5,"depth":3,"w":{"0":0.07485337438935087,"1":-0.1266045275504993,"2":-0.04383227494948294,"3":-0.015049358260008867,"4":-0.18843946656423954,"5":-0.130162710714074,"6":0.13294010894440997,"7":-0.1207442462994182,"8":0.0904084109622816,"9":0.06095670641379269,"10":0.0009555385777019693,"11":0.159577088268086,"12":-0.006830443362727534,"13":-0.03929937579749841,"14":0.042647110686687105,"15":-0.10282381305044291,"16":0.13521422432694583,"17":-0.2626045846243342,"18":0.08633778283352601,"19":0.04046798247202486,"20":-0.0847414489235557,"21":-0.016328216084712473,"22":0.013448422193657302,"23":-0.027391613313802854,"24":0.06923564323674787,"25":-0.0396263209695224,"26":-0.004832555487623023,"27":0.03647202726198928,"28":-0.07859618018557567,"29":-0.21931648512920582,"30":-0.08420075580871854,"31":-0.1310670725002209,"32":0.17290587642319377,"33":0.07360366030649299,"34":0.08090804152749044,"35":-0.23302249546084644,"36":-0.06480679150960549,"37":-0.1039537497542196,"38":-0.20949676575689277,"39":0.03110909133808231,"40":0.016301011938130147,"41":0.02250411187509885,"42":0.0431269918299792,"43":0.2716077414276592,"44":-0.003985076608986213,"45":-0.06454161120726659,"46":0.0055100349189140035,"47":0.031383183749502074,"48":0.14885127622047933,"49":-0.19004712158473325,"50":0.010497369105525952,"51":0.17069833430489512,"52":-0.11813514126412879,"53":-0.1819189508349333,"54":0.15533861649416517,"55":0.00128298295133623,"56":-0.1522072842530613,"57":-0.13582314680051613,"58":0.08495471280573172,"59":0.11175091083067344,"60":-0.0014273643634467486,"61":0.22819835498298985,"62":-0.008318014478259089,"63":0.10364105953508199,"64":0.14466485137778584,"65":-0.04422738534902788,"66":0.01190866628673107,"67":0.14641128368760145,"68":-0.012979566778476762,"69":0.18190946245189782,"70":0.07024084110531569,"71":0.23320597283973102,"72":0.010792205786639674,"73":-0.10634799004836178,"74":0.07730815932099017}},{"sx":5,"sy":5,"depth":3,"w":{"0":0.06293293684369551,"1":-0.20032351452001163,"2":-0.035029805061938236,"3":0.10756941731980284,"4":0.022497268539063316,"5":0.08024605091113832,"6":0.0662907334345165,"7":0.13904238356345164,"8":0.010380191203629915,"9":-0.014373425255083274,"10":-0.0360435379713325,"11":0.07281887478482105,"12":-0.08338067523052636,"13":-0.06890410605031562,"14":0.08316094367521931,"15":0.0033975003436806624,"16":0.09071494653952634,"17":0.04382728561394915,"18":-0.11827636849431046,"19":-0.18297542371593595,"20":0.10707094200169998,"21":0.13245713312538202,"22":-0.07067227803007622,"23":0.007925899836727673,"24":0.20666026424053857,"25":0.06078756951417881,"26":0.12314388077360175,"27":-0.1496038915777352,"28":-0.06315645851683649,"29":0.14699806056796988,"30":0.3382809360469364,"31":0.21326264664324746,"32":0.039184217601889546,"33":0.17139665213916766,"34":-0.06489011768270636,"35":-0.018100923884420514,"36":-0.012770556512290225,"37":0.06391394232609728,"38":-0.025405044688612242,"39":-0.014727499786151399,"40":-0.057577727201577604,"41":-0.2366991487671933,"42":-0.22314936093707757,"43":0.08306215312671475,"44":-0.14261716337554545,"45":-0.0669732800512382,"46":0.0030151944622986743,"47":0.03108667085016844,"48":0.17457713551149928,"49":0.08299656952536723,"50":-0.009563965368935156,"51":-0.04292532622515874,"52":0.009039289457285809,"53":-0.06285870837007507,"54":-0.20911992783006716,"55":0.17271931503878613,"56":-0.10395706474840673,"57":0.13164309110857036,"58":-0.06399487581963086,"59":-0.28060459262858867,"60":-0.032427207515429116,"61":-0.06537990376305024,"62":-0.13937587852372468,"63":-0.02595527741070852,"64":0.15658072451852664,"65":0.021194098306546588,"66":0.031875220520182455,"67":0.00995766277356043,"68":-0.019731562186159943,"69":-0.13724234426665285,"70":-0.025293526772216406,"71":-0.11091141205940686,"72":-0.11244931365634069,"73":-0.11558279927825256,"74":-0.06595533938810759}},{"sx":5,"sy":5,"depth":3,"w":{"0":0.04855406320047936,"1":-0.04061368855787401,"2":-0.12206734923240725,"3":-0.06080560661007991,"4":0.03856000307818032,"5":-0.11618456984099738,"6":-0.059896315276144786,"7":-0.12696664347572767,"8":-0.11341282293580013,"9":-0.16138124060439996,"10":-0.013677442136363883,"11":0.04175642148691455,"12":-0.12203435262068969,"13":-0.11346427962346803,"14":0.021081519609099215,"15":0.07769248609706382,"16":-0.11245511174396883,"17":-0.19122052354136482,"18":-0.09367768395613514,"19":-0.19616738892420946,"20":-0.09547115183702716,"21":-0.06552962394356052,"22":0.044746885090049524,"23":-0.01675696840723523,"24":-0.08509674914738594,"25":-0.031001033955370735,"26":-0.08946176897285125,"27":-0.08788396283964563,"28":0.1484320499535488,"29":-0.004987167406534331,"30":0.05046596272040505,"31":0.06691705966400313,"32":-0.06826643914546379,"33":-0.08045714113870225,"34":-0.03196402948101255,"35":-0.05359660086383951,"36":-0.02835407562317984,"37":0.014957654824375869,"38":-0.21879423202110468,"39":0.02419183433726506,"40":0.09343750641879318,"41":-0.008785136015140547,"42":-0.07913662875288331,"43":-0.121929164184087,"44":-0.18708932368982617,"45":-0.009778083915823731,"46":0.02939045429342562,"47":0.049641992131906634,"48":0.023894340604876566,"49":0.026226606085204343,"50":-0.25124589210432746,"51":-0.0913112690932231,"52":0.06407456350077834,"53":-0.017309792187321576,"54":-0.0449762547095837,"55":-0.1239798400285538,"56":-0.17367417128419008,"57":0.008642305640166657,"58":-0.03225829517385405,"59":-0.0393610528996207,"60":-0.15779621000759086,"61":0.017222275956893126,"62":-0.09134861331796523,"63":0.02771394263865836,"64":0.20023152230870164,"65":0.022767774410862474,"66":0.004539425425741641,"67":0.16111101251068918,"68":-0.004966095029137778,"69":0.07848154901072131,"70":-0.042995745996798944,"71":-0.0053655143238639375,"72":0.1864381752560769,"73":-0.12720558260783452,"74":0.03161528835770259}},{"sx":5,"sy":5,"depth":3,"w":{"0":0.10209555947314132,"1":-0.1069225450263594,"2":0.005654997374365554,"3":-0.023455215683472384,"4":-0.06158312663693007,"5":0.03974439339005559,"6":0.2679662227567792,"7":0.075236014369481,"8":-0.0015870443357182853,"9":0.03956574081227951,"10":0.15342928106431875,"11":0.022388561461791096,"12":-0.2326711602666819,"13":0.05323693037633162,"14":-0.07353066663028478,"15":-0.009296547774750964,"16":0.10919739975592724,"17":0.09769957916228261,"18":0.0038026792583994956,"19":-0.12758554188069568,"20":0.16580646445174285,"21":0.06051454030729319,"22":-0.12364554514497442,"23":0.05122612129759892,"24":0.1313325112664943,"25":0.16211947938449053,"26":-0.02715739188934124,"27":0.024735002747407385,"28":0.09448681226723096,"29":-0.1444832312143945,"30":-0.21131168231741554,"31":-0.23980362939061917,"32":0.053638771530279565,"33":0.09137404947845743,"34":-0.04379682021061545,"35":0.11473597192102124,"36":0.09596224548326002,"37":0.021790945544093533,"38":-0.005940194072873141,"39":-0.060404133898973374,"40":0.14087664391795768,"41":0.05248333960935685,"42":-0.017334144195087293,"43":0.01747754518640361,"44":0.049723774581454015,"45":-0.042549637312430895,"46":0.08218334042669799,"47":-0.021372569010135168,"48":0.28429940779137625,"49":0.14226608518844092,"50":-0.0028268155587206777,"51":-0.04508369170035658,"52":0.1489775649501531,"53":-0.018803151667100008,"54":0.20933731781062082,"55":0.1318688843152862,"56":-0.06676167029045611,"57":0.20897135303786504,"58":-0.06144905255889677,"59":0.1313103305705076,"60":-0.03755003080933696,"61":0.09642019691756773,"62":0.08203404515241307,"63":0.1340347827699467,"64":-0.32175446974525224,"65":0.05604789921480738,"66":0.03390753316077116,"67":0.1382066148587989,"68":0.06689420674834999,"69":0.41055045584029015,"70":0.19846056277044152,"71":0.08661164072156852,"72":0.10807247622679718,"73":0.16114127594934008,"74":0.03267240166392483}},{"sx":5,"sy":5,"depth":3,"w":{"0":0.03379340403552986,"1":0.07906766289184097,"2":0.007567441954435787,"3":0.21044907378808236,"4":-0.08110345877713428,"5":0.096984003908869,"6":0.1101436285064866,"7":0.027742381562382998,"8":-0.09937018360201769,"9":-0.22234370606633339,"10":0.12156252741160457,"11":0.050288757326409285,"12":0.2852371828608744,"13":0.05947071991317703,"14":-0.04664720926837949,"15":0.24502884270590267,"16":-0.1361410387158788,"17":-0.1278662293670271,"18":-0.21560684486344076,"19":-0.24972675968821317,"20":-0.0045931089254571955,"21":0.06803529457249495,"22":-0.08946513507353668,"23":-0.05529893435522755,"24":-0.19728704454855409,"25":-0.006329650869525937,"26":0.06178637409757595,"27":-0.18551067251003864,"28":0.02143819287611519,"29":0.03235954159583624,"30":-0.06338677937745073,"31":0.009189827557721525,"32":-0.016761508400970584,"33":-0.20019039780087855,"34":-0.04592019322020254,"35":0.045140275482084116,"36":0.05363040236339491,"37":-0.07770177303774461,"38":-0.03190217283908933,"39":0.13438752281638214,"40":-0.08272628902889952,"41":-0.018207915108860936,"42":0.0967402113746774,"43":-0.06433894383244398,"44":-0.12812581136418405,"45":0.045370381155857425,"46":-0.09466994583265072,"47":0.0668677150848457,"48":-0.33716039986178875,"49":0.22778073626560005,"50":0.02259409345945157,"51":-0.013833109114124472,"52":-0.12251250476243823,"53":0.15176600514861582,"54":-0.10613575979933738,"55":0.006544325880511146,"56":0.043680371184337256,"57":-0.22813031141534665,"58":0.003903486718405009,"59":0.019356006992316682,"60":-0.2700453784937556,"61":-0.04017595318428841,"62":0.15402276739500068,"63":-0.12989452521003625,"64":-0.02012939460396938,"65":0.013481061458361625,"66":-0.0301824492227202,"67":-0.11225534111661709,"68":-0.06042968623386238,"69":-0.11650581335222657,"70":-0.11031228069130346,"71":0.020821149262264766,"72":-0.08862503649196615,"73":-0.016191868599286233,"74":-0.104719918447124}},{"sx":5,"sy":5,"depth":3,"w":{"0":-0.062296312144641805,"1":0.020458392559008127,"2":0.06655705006862994,"3":-0.23610427061291156,"4":0.08139280007702857,"5":-0.3441277660680049,"6":-0.07741921183348943,"7":0.06449425109728864,"8":-0.011441030749431176,"9":-0.0376269103747088,"10":0.07529110119744474,"11":0.23616111916406096,"12":0.1258866768271479,"13":0.4783695581283412,"14":-0.12023228326728282,"15":-0.013390093199537054,"16":0.16644272794219053,"17":-0.11512809385603884,"18":-0.07493386378546597,"19":-0.026355888289881294,"20":0.11227704033537796,"21":0.2143772085963895,"22":0.04127075405227515,"23":-0.030390523164282594,"24":0.018192892279537253,"25":0.04133839799650067,"26":0.10626589668674508,"27":0.010846877833356512,"28":0.01613718022800414,"29":0.03207658533250099,"30":-0.13661664064108978,"31":-0.1903091799101527,"32":-0.04203544367771252,"33":-0.02906878510487424,"34":0.1275154798705189,"35":-0.16212530224827712,"36":0.029364116335050098,"37":0.07262729443849139,"38":0.0731653275277068,"39":-0.12954664102112795,"40":-0.06179358685617693,"41":-0.0706001204562952,"42":-0.153846663157964,"43":-0.12874097847608656,"44":0.032234493556684465,"45":-0.030652281092887573,"46":0.0869746090155277,"47":-0.03178879424556441,"48":-0.1599710969985276,"49":0.07185862275966001,"50":-0.16969260748078452,"51":0.14356143412576136,"52":0.03301902949837347,"53":-0.07962255872309106,"54":0.02991342749035492,"55":0.13699346279379862,"56":0.06847885207142675,"57":0.0054138283301691965,"58":0.06707479355526404,"59":0.1981962476759723,"60":0.029683414202360606,"61":-0.17738607088226538,"62":0.13655013906424263,"63":-0.1370469883265333,"64":0.09105293892044461,"65":-0.27316290685323796,"66":-0.13038849935835606,"67":-0.0102462233276118,"68":-0.021751521900103363,"69":-0.13767254771365653,"70":0.0765986638726475,"71":-0.029212288666038744,"72":0.18356793551054548,"73":0.12964203453685594,"74":0.20495910268673334}},{"sx":5,"sy":5,"depth":3,"w":{"0":0.039724464701201424,"1":-0.05956639561214438,"2":-0.16213890293989927,"3":-0.13196666937320164,"4":-0.07638710718720132,"5":0.12911545061086258,"6":0.012238469888457067,"7":0.015307403158579924,"8":0.0712493195047202,"9":0.16705747893125428,"10":0.02050277754420373,"11":0.13128695757248937,"12":0.01911938096716407,"13":-0.06463476661472567,"14":0.1768927411892092,"15":-0.05956413263543357,"16":-0.015214339741631257,"17":0.010707747855908788,"18":-0.10042395002874813,"19":-0.120285797123254,"20":-0.11021753883220772,"21":0.029156026018006872,"22":0.012374989704858895,"23":-0.13864180819552657,"24":0.015522893325868817,"25":0.026835584289421552,"26":0.10441335186935545,"27":0.09511691032464921,"28":0.12400318968140765,"29":0.2469769888199179,"30":0.0989786795308786,"31":0.03259353646862852,"32":0.024898284678027263,"33":-0.09716767547570411,"34":-0.07391801555949958,"35":0.16013442345626938,"36":0.021125918278275705,"37":-0.1208730898895788,"38":-0.07133455433633981,"39":0.03266274899508894,"40":0.16714614077995577,"41":-0.021006467854309718,"42":0.005045287344580329,"43":0.12717244772082667,"44":0.14677101246648444,"45":-0.001485399623961776,"46":0.04792198621934843,"47":0.012570165117143,"48":-0.030231944806235186,"49":-0.12244618175531032,"50":-0.029952832521462816,"51":-0.2151208236893073,"52":-0.03217417191117967,"53":0.12934184135202234,"54":-0.1978563266178509,"55":-0.054076943490045035,"56":-0.025058461499411575,"57":0.03697914883434973,"58":0.1076056291932841,"59":0.018135774775179338,"60":-0.14388385299215975,"61":-0.2128149104202712,"62":0.10180627337480704,"63":-0.1264520584944385,"64":-0.02373862143224166,"65":-0.03742427533997049,"66":-0.1264528707029471,"67":0.09916411001021735,"68":-0.015465965435010613,"69":0.03129211504476671,"70":-0.028622602581901142,"71":-0.23480891254541003,"72":-0.0800538941539431,"73":0.03911917066885598,"74":0.20257501233542774}},{"sx":5,"sy":5,"depth":3,"w":{"0":0.07774740856605698,"1":-0.037563719215090385,"2":-0.21237986169268963,"3":0.02145209726065358,"4":-0.032287404049901824,"5":-0.10594339861960661,"6":0.14969808914991367,"7":0.08997180959453366,"8":-0.10552994689150941,"9":-0.0645704904591202,"10":0.11000238238691327,"11":-0.15484720437593671,"12":0.003932013825432329,"13":0.09137438844589986,"14":0.04378647828290831,"15":0.27053231219932355,"16":0.0474323892639197,"17":0.19027860496384735,"18":-0.11334658451166973,"19":-0.18913927821968393,"20":0.05753305476177042,"21":-0.062206256846795475,"22":-0.10296080370517757,"23":-0.005222532918471038,"24":-0.026985837606333093,"25":-0.1656990925491804,"26":-0.09455335140880394,"27":-0.06087268928774403,"28":-0.1398775438903858,"29":-0.11306992237027029,"30":0.04340140253947289,"31":-0.11511229154844686,"32":-0.0204303872649598,"33":-0.012527201859953103,"34":0.061958000546009195,"35":-0.13080926664806047,"36":-0.02819219919243763,"37":0.09163645625995061,"38":0.1399366964994816,"39":0.00968602939468338,"40":0.2193052854122337,"41":0.0168761002719761,"42":-0.027255011886399224,"43":0.10511052255241522,"44":-0.13529398658880876,"45":0.1173620380772832,"46":0.050917697840895004,"47":-0.1375945974216285,"48":-0.14261261670877975,"49":0.0980884059739335,"50":0.21555937923835297,"51":-0.051140226701999976,"52":-0.0691540567918838,"53":0.009060070429565758,"54":-0.013966343058350218,"55":-0.1068381067441634,"56":0.03455457016895121,"57":0.19153610008282645,"58":0.05160291672133502,"59":0.01900706830761297,"60":0.1961353329923813,"61":0.030504601231429326,"62":-0.008799058624940933,"63":-0.024271487061042884,"64":-0.14728007468953894,"65":0.11221773632217188,"66":0.029597397014902965,"67":0.1197358433606619,"68":-0.11764020780762634,"69":0.04140242737809473,"70":0.1798332860875143,"71":0.019798409687042988,"72":-0.12132812180243759,"73":-0.009471900214941702,"74":-0.053678153753914326}},{"sx":5,"sy":5,"depth":3,"w":{"0":-0.1122946900176656,"1":-0.2936497459589919,"2":-0.2726833219610703,"3":-0.112292317145567,"4":0.21366610372885728,"5":-0.022579986316902525,"6":0.048092436267442557,"7":-0.0010387622775050486,"8":-0.0043049289332790655,"9":-0.17133693952193071,"10":-0.24425645459974457,"11":-0.19633450367300284,"12":-0.22115465337596535,"13":0.072518704619579,"14":-0.22189503478409367,"15":0.2031651998472446,"16":0.11031317593094096,"17":0.13461873608261568,"18":0.160134536426167,"19":0.1066642848491145,"20":-0.06044298835154475,"21":-0.05349626965833529,"22":-0.055143739515501375,"23":-0.18766786087887086,"24":-0.03899857417653635,"25":-0.16339422021120822,"26":0.05593205179634644,"27":0.032089518220578615,"28":0.014720107905625293,"29":-0.0033687134658390776,"30":0.051029894568243805,"31":0.02908989958749546,"32":0.06103923643380966,"33":-0.05886863605450396,"34":-0.02332508376019662,"35":0.2582380687167032,"36":-0.009335716775527586,"37":0.23409542693998095,"38":0.10900868316697242,"39":-0.024473838631605946,"40":-0.022644388784910437,"41":0.021094663830815277,"42":0.10971635830997498,"43":-0.037269795838221355,"44":-0.04828591228583533,"45":0.07805016303283042,"46":-0.07726708433615607,"47":0.07853096129530374,"48":-0.2360230594905814,"49":0.2451132686012689,"50":0.0176696769579563,"51":0.22305650026545812,"52":-0.09987118108148148,"53":-0.04418335065404915,"54":0.1250203403813358,"55":-0.05493614276625117,"56":-0.00035286308264689326,"57":0.09563815260549037,"58":0.11119870082400292,"59":0.0013170326181512035,"60":0.04222895940943925,"61":0.08311944457022324,"62":-0.22666064589229432,"63":0.03685138803368184,"64":0.15120364332620329,"65":0.20379519142508232,"66":-0.12709662122924456,"67":0.16609714192364788,"68":0.0322630023699335,"69":0.15634404866218307,"70":-0.3091664777734017,"71":0.25970423708479845,"72":0.05681576965873472,"73":0.06768575434999786,"74":-0.14963354672735735}},{"sx":5,"sy":5,"depth":3,"w":{"0":-0.10749573030537987,"1":-0.016947945015097558,"2":-0.0367430560831676,"3":-0.1729750145631485,"4":0.00406639477126041,"5":-0.11547530710447829,"6":-0.16610595773049397,"7":-0.22305016558341975,"8":0.11383713823377711,"9":0.12086501206650815,"10":-0.20520217946287092,"11":-0.06951214681041024,"12":-0.2977076271792671,"13":0.096044694450707,"14":-0.17029121747153106,"15":0.1384204651755662,"16":-0.3032126313629474,"17":-0.0036804418892008653,"18":0.04029123851172025,"19":-0.11469689691756049,"20":-0.09795351624809,"21":-0.04393673109790425,"22":-0.15737161301892497,"23":-0.2258010925769346,"24":-0.01370440842687496,"25":0.036614380123275364,"26":-0.09085539467264886,"27":0.03186614844171558,"28":-0.08630213507865497,"29":-0.06810264057780493,"30":0.05716089102823956,"31":-0.021082578147485317,"32":-0.1767103992675823,"33":0.003006745811208586,"34":0.0751800201416512,"35":-0.26662321561804825,"36":-0.0722604324425343,"37":-0.15513540674730772,"38":-0.11800728556544411,"39":-0.14005542438760038,"40":0.15800370281476886,"41":0.13881859525697846,"42":-0.08560067401422763,"43":-0.13274859867895025,"44":0.16435388831886996,"45":-0.024184248318135565,"46":-0.07382881848692419,"47":-0.02522076469252306,"48":-0.1271407271726338,"49":0.060645835900471755,"50":-0.014153389055779363,"51":-0.07912461942694535,"52":0.13676414224028863,"53":0.07166578972602444,"54":-0.030656004720266337,"55":0.010439543382110285,"56":-0.059931964315038985,"57":-0.08429604535051215,"58":-0.16403236858052742,"59":0.09071101153770357,"60":0.052052233777232976,"61":-0.0023754902796243767,"62":0.031025592217453823,"63":-0.06315671195017179,"64":-0.021025883107785828,"65":-0.18499474696499857,"66":0.03772788733997418,"67":0.13292155654046287,"68":-0.10031113398336519,"69":-0.06552185886142824,"70":-0.125209741782463,"71":-0.27692961686499157,"72":0.3444455348198192,"73":-0.1550409369927426,"74":0.05260726457997346}},{"sx":5,"sy":5,"depth":3,"w":{"0":-0.027131318915943836,"1":0.04365243354781428,"2":0.021291847453065185,"3":-0.026279651327016654,"4":-0.20821916653913702,"5":0.03021157288621441,"6":-0.041408514031579635,"7":-0.33062397964033335,"8":-0.1513054808254569,"9":-0.18515896470356538,"10":-0.16180566014520908,"11":-0.02571457096388274,"12":-0.026354836099212613,"13":0.10385208993577616,"14":0.1518602000578475,"15":-0.02138385565992723,"16":0.07326171852266661,"17":-0.08544573611867545,"18":0.04718469916833056,"19":-0.0397331618194652,"20":-0.10799842454731941,"21":0.019875253879523366,"22":-0.23124698790497641,"23":-0.10492188202516883,"24":-0.1457334899149715,"25":-0.15824607992328676,"26":0.13059179119094175,"27":0.05053014210145147,"28":-0.08340697084833681,"29":-0.1037266115737943,"30":0.10613833301673939,"31":-0.10937334309074742,"32":-0.07355271866183032,"33":-0.011006269793794784,"34":0.2629609311982379,"35":-0.07313044447589742,"36":-0.1540866613893368,"37":-0.10462813029520174,"38":-0.015727822909473655,"39":0.09153516458498885,"40":-0.18578060298640528,"41":0.03167258989731523,"42":-0.1226348255514412,"43":-0.10512022396397172,"44":-0.05012469572246175,"45":-0.21971315858325918,"46":-0.32089218661205005,"47":0.0013053409219912241,"48":-0.05023964210029328,"49":0.009250207302035933,"50":-0.13532045771990048,"51":0.09833946357019263,"52":0.23124882248998468,"53":0.060839189877410355,"54":-0.08222736105730295,"55":0.023223761264282335,"56":-0.0997350513104334,"57":0.18422629034867619,"58":-0.06537648503407908,"59":0.10610686510492778,"60":0.0451465331384573,"61":0.07846382929430987,"62":0.09389664154338559,"63":0.12069250919209815,"64":-0.06312765408152424,"65":0.2798874026346537,"66":-0.14432157290739786,"67":0.06551149778422649,"68":-0.020863985290811994,"69":-0.07950556501482582,"70":0.01362892670528796,"71":-0.20152309106794375,"72":0.016913850570600773,"73":0.10169131521837668,"74":0.026292289933085716}},{"sx":5,"sy":5,"depth":3,"w":{"0":0.003119434031992733,"1":0.11017536018104652,"2":0.09924060796804511,"3":0.02528584554354705,"4":0.12613151932171912,"5":0.1102701996713169,"6":0.14775471058926434,"7":-0.012142178676344326,"8":-0.050205156169216905,"9":0.03030455107990214,"10":0.05330579743918642,"11":-0.07016145179691828,"12":-0.15832838338966002,"13":0.03702460358778231,"14":0.22295012813847176,"15":-0.1521764946692642,"16":-0.057008659247182625,"17":-0.1407979797391395,"18":-0.06500352594988199,"19":-0.02036029367284859,"20":-0.18799193781755727,"21":0.04064771783281835,"22":0.037596334433191714,"23":0.08167763237866814,"24":0.24205706684171527,"25":0.17453598331681774,"26":0.03580418153886727,"27":-0.15032557490054577,"28":0.26579221934837044,"29":-0.07515513644141862,"30":-0.06652856417696909,"31":-0.37021177157365687,"32":0.011032210235597785,"33":-0.048363553431224775,"34":0.07715411365587875,"35":0.14975519441623922,"36":-0.17971492295699187,"37":0.01148243882103379,"38":-0.23627438590359098,"39":0.037014986416293305,"40":-0.13859406321602152,"41":-0.08010403517275787,"42":0.033863000354826346,"43":-0.07992645000769753,"44":0.0046408841322685595,"45":-0.0010283163625961617,"46":-0.0875718619034019,"47":-0.16028115731467696,"48":-0.014833746166946412,"49":0.04186102614490036,"50":-0.04528445336377754,"51":0.017692912060594104,"52":0.16797915091501828,"53":0.1003736887269664,"54":0.2806202711886355,"55":0.14097788289320867,"56":-0.1891740630823245,"57":0.16741049879058406,"58":-0.02657163168468413,"59":0.1652752354119693,"60":-0.09143573888085045,"61":-0.06520221641055102,"62":0.1744774139526517,"63":0.12482407048786102,"64":0.17314446118549134,"65":0.04461529032582933,"66":-0.04665407921665542,"67":0.11693852492284437,"68":0.03967357878798467,"69":0.007014519227234369,"70":0.013402436699953214,"71":0.17181341967509497,"72":0.10678954409686649,"73":-0.10681970538896736,"74":-0.004309258026171689}},{"sx":5,"sy":5,"depth":3,"w":{"0":0.024808525541659587,"1":0.10042359427033659,"2":-0.13756115851606127,"3":-0.09347657844573623,"4":-0.11208389834720357,"5":-0.16460207655118989,"6":-0.08866691817151712,"7":-0.15016855126474052,"8":-0.059511235876152965,"9":-0.10970039330518791,"10":0.07210241367062455,"11":-0.021296078278875384,"12":0.06676468297687567,"13":0.21604792334599482,"14":0.03967013100474828,"15":0.03342226261894028,"16":-0.06619615803927059,"17":0.10951676068290292,"18":0.15109138206026465,"19":-0.23156481792030212,"20":-0.09714132995482812,"21":0.008924712258090706,"22":-0.015229189269512274,"23":-0.20594846887996263,"24":-0.17268471004194727,"25":-0.2589285197411325,"26":-0.19637113114675894,"27":-0.10198418607055272,"28":0.041557830964101906,"29":0.12927098136982185,"30":0.012712860413202163,"31":0.02962854938289599,"32":0.03814302574840104,"33":0.20376900472650766,"34":-0.0007981420977622388,"35":0.14344055403099196,"36":-0.10581623913721758,"37":-0.09951950914844919,"38":0.04169663534579318,"39":-0.02551014454814557,"40":-0.1774781956353219,"41":0.01196017914077383,"42":-0.04633647216678607,"43":-0.09182807163873148,"44":0.09320484149577454,"45":-0.0342890921547458,"46":0.011125198601345308,"47":0.08206602077353273,"48":0.1765614228839694,"49":-0.032442475485709735,"50":-0.0161420401114002,"51":0.21760873327329702,"52":0.07002859607889318,"53":-0.134847925686476,"54":0.13801273058554325,"55":-0.24717186824188384,"56":-0.07880493020209677,"57":0.15272458199587316,"58":0.13218025369970107,"59":0.025093929116855814,"60":0.03435881226343881,"61":0.055138616584645896,"62":-0.08416067812421098,"63":0.009408917687572816,"64":0.09948566499519783,"65":-0.059567479914480914,"66":0.13719412296130068,"67":0.06778303825970348,"68":-0.062409760636682896,"69":0.2386927491370505,"70":-0.017452998602856092,"71":0.016433777196191653,"72":0.31397325298813633,"73":-0.036908733471773814,"74":0.07403351783851521}},{"sx":5,"sy":5,"depth":3,"w":{"0":-0.03755046888534311,"1":0.08895537836057268,"2":-0.06077485879084524,"3":0.16618822188561802,"4":-0.1264888520851096,"5":-0.08559626323547374,"6":0.1736838518537158,"7":-0.12718723827443887,"8":-0.07344360566732332,"9":-0.10736508181538915,"10":-0.41745545063617856,"11":-0.1577440915078429,"12":-0.12340646037351156,"13":0.14514935335153037,"14":-0.18927592850451477,"15":-0.0010239674636208956,"16":-0.054246934700202754,"17":-0.17545581681044842,"18":0.00009465103489864039,"19":0.1646676381432889,"20":0.014824475628005979,"21":0.1759655102419545,"22":-0.019809123955875245,"23":0.12321523303943163,"24":-0.08908093507199008,"25":-0.026876345617344338,"26":-0.23514440424470012,"27":0.0814608197134056,"28":-0.05910112595986106,"29":-0.32834670101630037,"30":-0.03611319851069609,"31":0.10662714316022533,"32":0.354990432241163,"33":-0.1187940307689358,"34":0.08939260764923065,"35":0.008804961074615012,"36":-0.06534184122651095,"37":0.02218100894729136,"38":0.028301588886303002,"39":-0.07735346823118648,"40":0.21811106797039212,"41":0.24412832986882405,"42":-0.05445923116756136,"43":0.0942844529171754,"44":-0.16341250686387954,"45":-0.05189979799936845,"46":0.07663465682320293,"47":0.041962707460045774,"48":-0.1127301727685141,"49":0.3119230790332364,"50":0.04867184040903228,"51":0.1007283424935539,"52":0.05724230801821747,"53":-0.08398401704042797,"54":0.07492494914363011,"55":-0.21019160213270588,"56":0.13259717646927838,"57":0.04624724530602901,"58":-0.029701582942891224,"59":0.11826228484552552,"60":-0.10217351429353007,"61":0.03585863214319976,"62":-0.13055180857929438,"63":-0.23662375129219268,"64":0.05342357777995075,"65":0.17696257014280706,"66":0.008272770609230623,"67":0.003948724779908431,"68":0.13621195710009038,"69":0.13056281541325135,"70":0.09745938382155392,"71":0.03972348267817045,"72":0.12178318794637104,"73":0.021280000169889582,"74":0.11721644293347365}},{"sx":5,"sy":5,"depth":3,"w":{"0":0.03854000211685178,"1":0.02113505054056281,"2":-0.0340857802024674,"3":0.160937479758692,"4":-0.1439296387620069,"5":-0.18702845413270172,"6":-0.13004970236133012,"7":-0.15560565891146627,"8":0.10885634078700043,"9":-0.024999897193317872,"10":-0.03698675730565572,"11":0.0073611444794319985,"12":-0.13242329739743025,"13":-0.05544903951904521,"14":-0.2192498565198259,"15":0.017370805979370144,"16":-0.2591918251419978,"17":-0.04771594198050382,"18":-0.0022233257841641437,"19":-0.10751105643333986,"20":-0.08507309763801026,"21":-0.14249256719207756,"22":-0.14284517078985337,"23":0.011818370825176264,"24":-0.02146033145743378,"25":-0.08452548272364944,"26":-0.0736062953197353,"27":0.03500616083402316,"28":-0.4030305746128935,"29":0.07972599362394345,"30":0.0032091664709017727,"31":0.016916563081403057,"32":-0.09735331720041873,"33":-0.15347756518017505,"34":-0.14652030182416606,"35":-0.07244326882668506,"36":0.09038964536945102,"37":0.2240949141053585,"38":-0.14055801143152827,"39":0.23760571455578494,"40":-0.050954202876689614,"41":-0.1681968732931266,"42":0.09908383845864438,"43":-0.2356048373929484,"44":0.031040887428353345,"45":0.05790586207144972,"46":-0.25642816374841926,"47":-0.14149229234100683,"48":-0.016139828922008694,"49":0.0454192180777144,"50":0.000488163307721542,"51":0.022596769804449815,"52":-0.07833499816577386,"53":-0.07880854625254592,"54":0.11409213236879241,"55":-0.04185549907149537,"56":0.033565956752506954,"57":-0.0015951098801669787,"58":-0.08374058046225408,"59":0.02370405515545251,"60":-0.024616690570668,"61":-0.1501005936163663,"62":0.08924175529653487,"63":-0.09183231785371496,"64":0.005847605470184151,"65":-0.15224579545984043,"66":-0.14280589631940876,"67":-0.08710124444485003,"68":0.17980409527874966,"69":0.05500618579800602,"70":-0.15382109769428692,"71":-0.17896390388248856,"72":0.01942770245665661,"73":-0.12605067157562594,"74":-0.02996607233318558}},{"sx":5,"sy":5,"depth":3,"w":{"0":-0.06925889217753328,"1":0.1389277709487909,"2":-0.0724501550965912,"3":0.07367058899923451,"4":-0.06814510675469887,"5":0.054104520339361736,"6":-0.08760785423107309,"7":-0.06199196854990911,"8":-0.013815295731384665,"9":0.0860402818834131,"10":0.15039101359686394,"11":0.1737651029114406,"12":0.03222663215249973,"13":0.0661237777438566,"14":0.07628494608364322,"15":-0.035680451919080786,"16":0.297693645626384,"17":-0.105067655569263,"18":-0.14468170099852756,"19":0.04987256035183089,"20":0.037512023206072,"21":0.09573196048411008,"22":0.17334342052566518,"23":0.09695148110061698,"24":0.04148392173674057,"25":-0.08729864299517309,"26":-0.016184549792082836,"27":-0.13415649167394308,"28":-0.07324645455332107,"29":-0.18235377529247548,"30":-0.0070924482660899065,"31":0.32038730470201743,"32":0.13318587967057013,"33":-0.16071793202696058,"34":0.028512092548476482,"35":-0.02256758054285905,"36":-0.2062312049605812,"37":0.06968570446588573,"38":0.01866818609536429,"39":0.17266304721643883,"40":-0.16639415316549797,"41":0.043407024547105516,"42":-0.06635378124015961,"43":0.06156383496332179,"44":0.025304021659589736,"45":0.01974273902511442,"46":0.07497226225673786,"47":0.05022284855450307,"48":-0.027814697007057725,"49":-0.19377334492596585,"50":0.07685598810220978,"51":0.010107879897354318,"52":-0.14775377535822992,"53":0.006611117125755386,"54":0.03812556642440562,"55":-0.11632368360288292,"56":0.08257218749911983,"57":0.11809263489056022,"58":-0.04147191466027581,"59":-0.033493997165969444,"60":-0.10813988753139686,"61":-0.11207238896081818,"62":0.059823598546946986,"63":-0.01097118646318522,"64":-0.07806631097127516,"65":-0.005701563813806375,"66":-0.00016243792556527295,"67":-0.1211642735070702,"68":0.08177598309477037,"69":-0.008645431997655523,"70":-0.11714852339912907,"71":0.027743033162864382,"72":0.07121911251348845,"73":-0.04010458606507351,"74":-0.04192239170571269}},{"sx":5,"sy":5,"depth":3,"w":{"0":0.18138238068290022,"1":0.0032909567632064913,"2":0.17889085780851063,"3":-0.1303074585395816,"4":-0.06772595043046527,"5":0.08097371570838645,"6":-0.023922589408728347,"7":-0.0370020645626791,"8":0.03470335744894299,"9":0.2702834621142446,"10":-0.1299748439799998,"11":-0.16838725943314362,"12":-0.13493203326865236,"13":-0.004044865507463383,"14":0.1707490396989547,"15":-0.056391945374396096,"16":-0.032807654421509014,"17":0.08537523876606427,"18":-0.10520186478202238,"19":-0.20304982503702163,"20":-0.06729183770889123,"21":0.1713322721756206,"22":-0.1498196619506339,"23":-0.04558403725667191,"24":-0.2289392783923452,"25":-0.18235213458216068,"26":0.11674014922883585,"27":0.2867278977115113,"28":-0.005130036705308533,"29":-0.09917686232950176,"30":0.07553314673941425,"31":0.1568145617097606,"32":-0.06823057634245364,"33":-0.1600419917974835,"34":0.09019416016475672,"35":0.0084051011862732,"36":-0.17742921519379468,"37":0.029530747317189368,"38":-0.18942473875236301,"39":-0.1153122010163444,"40":0.16327416878552728,"41":-0.08912373140759829,"42":0.10787507893241241,"43":0.1270423505945109,"44":0.1537070273323448,"45":-0.0066301747974580345,"46":0.12043363754818484,"47":0.14431191636392196,"48":-0.0068926157334536515,"49":0.20802157155598525,"50":-0.011408733101373985,"51":-0.08963664951096535,"52":0.07498533960480884,"53":-0.14589506184254958,"54":0.04798396019977548,"55":-0.17192583554858695,"56":0.07990056808500062,"57":0.06582557143313164,"58":0.08293608283030733,"59":-0.15039358577936607,"60":-0.05696214161182589,"61":0.01252293669165786,"62":0.006688414606889973,"63":-0.07727608085734491,"64":0.1275662255252356,"65":-0.21019130065229735,"66":-0.1979411045236897,"67":-0.005982322787814518,"68":-0.1480464484026267,"69":0.04484320545532425,"70":-0.046408559976927236,"71":0.10631536630796606,"72":-0.08706790964829222,"73":0.13850693362223276,"74":-0.061263159079288594}},{"sx":5,"sy":5,"depth":3,"w":{"0":-0.039843076125610874,"1":-0.04122597601746573,"2":-0.034342231089932146,"3":0.04396875495403357,"4":0.12458758234968358,"5":0.047007466972255774,"6":0.09669721840760291,"7":0.15849948672595848,"8":0.03899444811601874,"9":-0.04083508861067882,"10":-0.20722610372419353,"11":-0.004900828770398045,"12":-0.19745402567635148,"13":0.12212149364601961,"14":0.13429270146013492,"15":-0.24295420684643904,"16":-0.017525651836665723,"17":-0.013448462012251777,"18":-0.0909270571729648,"19":0.21215470460650468,"20":0.053238414735472216,"21":-0.03372482409881104,"22":0.09095467136544513,"23":-0.0693682579645954,"24":-0.03446981618978769,"25":0.05136139762326108,"26":-0.0013094991900715167,"27":-0.10355212243454627,"28":-0.357560884895041,"29":0.034799934848608376,"30":-0.24958900857613597,"31":-0.07504376008764153,"32":-0.17048553323546628,"33":0.13846874231637843,"34":0.16591121408933937,"35":0.0786692591456931,"36":-0.01837243062789731,"37":0.30503133333564464,"38":-0.21118161771762045,"39":-0.09608700006740666,"40":0.06075932449041985,"41":-0.03251357834285448,"42":0.005690336952313077,"43":-0.012760869886570252,"44":0.25569176285367384,"45":-0.15212627226100997,"46":-0.06857299929273902,"47":-0.15268630193572544,"48":0.13774216196141822,"49":0.026585176018896352,"50":-0.10670211264514567,"51":-0.05624492820902907,"52":0.07661898904492656,"53":-0.1354156650813492,"54":0.32430699629112286,"55":-0.11268626387910526,"56":-0.00034761565047189327,"57":-0.04318333733272317,"58":-0.16512047475951414,"59":-0.006951204227443385,"60":0.1919655986621887,"61":0.10506322554504897,"62":-0.13012855395372558,"63":0.05959851671579932,"64":0.05845948906768154,"65":-0.11414598978246594,"66":0.16648734669193957,"67":0.13061070759658505,"68":-0.1490572804204173,"69":0.05637473054449176,"70":0.06723330734750145,"71":-0.011795188804425578,"72":0.0070229236973339045,"73":0.054198809797839115,"74":0.09060560109701452}},{"sx":5,"sy":5,"depth":3,"w":{"0":-0.08442700028076598,"1":-0.11957426036730369,"2":0.17619924886902474,"3":0.038227422797461434,"4":-0.021406451429876582,"5":-0.20567917979034683,"6":0.018388394287287294,"7":0.09066461962657842,"8":0.09330286639207258,"9":0.09769238054700057,"10":-0.1321863911881866,"11":-0.20627337889823064,"12":0.051188550631547404,"13":-0.03938656638688222,"14":-0.03578042739657665,"15":0.07010806496691091,"16":0.11390309705133757,"17":-0.16657271396066795,"18":0.010942069502471804,"19":-0.05341635321597358,"20":0.010019430799134891,"21":0.06959654662492624,"22":0.13434007017837227,"23":0.08388782197971281,"24":0.047017598386938746,"25":0.04681240770372586,"26":-0.06346499689458084,"27":0.12007127330194832,"28":0.10993232118169201,"29":0.11071314778878963,"30":-0.07626281332424857,"31":0.08958895990180958,"32":-0.07266017516369304,"33":0.060805654837028794,"34":-0.1595923313805032,"35":-0.251501124228287,"36":-0.2352470365626208,"37":-0.15025715044809385,"38":-0.2718926435478889,"39":0.05344827730045582,"40":-0.06268591415435174,"41":-0.1423330133141849,"42":-0.023209267825432103,"43":-0.13175064894475044,"44":0.10636222831425544,"45":-0.09786605206544889,"46":0.010607531850856076,"47":0.008751546143650445,"48":0.1190276888886876,"49":-0.17118262144013563,"50":-0.2217133762377393,"51":0.09332694171194254,"52":0.006572006272765854,"53":-0.19471064029805046,"54":0.06586577293391034,"55":-0.11060461945053097,"56":-0.29459273592574564,"57":-0.08215973242216146,"58":-0.1614750591211268,"59":-0.0482246279943627,"60":-0.2985821370519078,"61":0.12951871157316233,"62":0.07582164425673714,"63":-0.19978789266709415,"64":0.12343317488609948,"65":-0.12238286498062448,"66":0.028688450877504032,"67":0.18227910424732993,"68":-0.021016300198092464,"69":0.09766892745316601,"70":-0.12527473825474675,"71":0.1842639967118981,"72":0.02256731815161089,"73":0.01296560277133403,"74":0.16512988154483627}},{"sx":5,"sy":5,"depth":3,"w":{"0":0.16376062279809356,"1":-0.1306015241717786,"2":-0.12816386309401748,"3":-0.21368860185888777,"4":-0.10399524312169121,"5":0.00873212529737931,"6":0.25181717800220277,"7":0.194000216633313,"8":0.03448248593223733,"9":0.07205778581152765,"10":-0.03955319272202603,"11":0.14772456765571634,"12":0.021547364613256525,"13":0.030812068389798754,"14":0.31562468751705464,"15":-0.07240079075845114,"16":0.1404058581869052,"17":-0.05493099455403949,"18":0.064736093165859,"19":0.1285963312766186,"20":-0.11470482698974342,"21":-0.0856383737077475,"22":-0.07297640734882277,"23":-0.05938987819715024,"24":0.0021276878812196936,"25":0.1803485010712335,"26":-0.046037802218921536,"27":0.04659267037027374,"28":-0.06882812302858338,"29":0.030031826265198784,"30":0.05810033500234611,"31":0.10105078082967721,"32":0.06649060684186145,"33":-0.2666581826572779,"34":0.013051889678930655,"35":0.061701247089638415,"36":0.007735043974700723,"37":-0.2208291545349467,"38":-0.2430938117804771,"39":0.021514911661226755,"40":-0.1424816292080848,"41":-0.19247995165726395,"42":-0.06866484275258879,"43":-0.10110947596974519,"44":-0.18624609505357903,"45":0.1466452105894096,"46":-0.020641726886631517,"47":-0.07504835006410117,"48":0.07904267177920181,"49":-0.05552970761284452,"50":0.04587206828477501,"51":0.023117840828113263,"52":-0.09593093120899118,"53":-0.020429618917937528,"54":0.25479736438161277,"55":-0.04684700940559433,"56":-0.0864235490103524,"57":0.09195788450406216,"58":-0.17007382776289667,"59":-0.03553088505087783,"60":-0.031004663316798107,"61":-0.1549481567646649,"62":-0.07996476723876414,"63":0.3035259226389511,"64":0.14035463998566436,"65":0.053944792560109894,"66":0.03622147732953253,"67":0.2527799718580685,"68":0.056090620978684606,"69":0.09666744243767593,"70":-0.11337646366979028,"71":0.06882230617776311,"72":-0.11977507293597268,"73":0.05193463181751371,"74":-0.1521380374639266}},{"sx":5,"sy":5,"depth":3,"w":{"0":0.08767624819068436,"1":0.13524022585891,"2":0.08604532881945226,"3":-0.03670742153041225,"4":0.03365341866450005,"5":0.1264330342530095,"6":0.1811618827317484,"7":-0.07694855780618033,"8":-0.030391130046631513,"9":0.015212607027821675,"10":-0.12722631801667234,"11":0.08742937021760423,"12":-0.12560518209938273,"13":-0.15192467117278086,"14":-0.0932160588760663,"15":0.16780935089572202,"16":-0.12263269682998985,"17":-0.001210646519593496,"18":-0.11567129538513388,"19":-0.15671123638026996,"20":-0.026289779134804445,"21":-0.19075915433608248,"22":0.07966923356917259,"23":-0.36528359385552495,"24":-0.09311820144618353,"25":0.01374723821983399,"26":0.036487531996198135,"27":0.049577964792008815,"28":-0.08859401109583155,"29":0.13314264222548464,"30":-0.04585548968164533,"31":0.043784383603466336,"32":-0.30281223923619494,"33":-0.005154361663046271,"34":0.07116718004351731,"35":-0.025709856858980806,"36":0.03750146971386909,"37":-0.0032820370392690696,"38":-0.09092221347268585,"39":0.15664523262810479,"40":0.08490783997628357,"41":0.0021258002874864883,"42":-0.1653443190629358,"43":-0.19010164885878525,"44":0.07649760829097771,"45":-0.001814919633651786,"46":-0.21973454094838343,"47":-0.11175241447465403,"48":0.19226714663679004,"49":-0.15744703304113022,"50":0.1047597263529621,"51":-0.12916573506449003,"52":-0.07616595386346837,"53":-0.17598704422893097,"54":0.03974492329180508,"55":0.026715254752759904,"56":-0.1262836716967614,"57":-0.11868340871187237,"58":0.11068292489375732,"59":0.044104697950361905,"60":0.07345876570093086,"61":0.1640619303467902,"62":0.08177389514282968,"63":-0.12008557101032044,"64":-0.08269422125775454,"65":0.19429465974916404,"66":-0.21864077664329237,"67":0.027519490292586365,"68":-0.14833697624669145,"69":-0.04172763866648724,"70":-0.027664668829159127,"71":-0.29460975769573167,"72":0.09124542805642781,"73":-0.05961427708257698,"74":0.004574010397439061}},{"sx":5,"sy":5,"depth":3,"w":{"0":-0.16163513842332317,"1":0.15257910046271378,"2":0.1322089469589997,"3":-0.12574371204128162,"4":-0.014076370898001317,"5":-0.16189454917041807,"6":-0.15120299232360762,"7":-0.04949317239775729,"8":0.27308449319687195,"9":0.010375805075660962,"10":0.05254869266714017,"11":0.18707921630917232,"12":0.03549001159323871,"13":-0.03598170340917507,"14":0.15909084431259382,"15":-0.14921465766460335,"16":0.06272424446785131,"17":-0.13749852033257884,"18":-0.05772279010776513,"19":0.07203961736686765,"20":0.13126526690776635,"21":-0.09058017313051103,"22":0.006602006208363453,"23":-0.021093347589807538,"24":0.009729321977284029,"25":0.05512620147075074,"26":0.07062766218275421,"27":-0.09308500110903394,"28":0.10971592017003208,"29":-0.027284932586507847,"30":-0.08901366975166439,"31":-0.03602963160617981,"32":0.0044509067109042575,"33":0.10490723254398285,"34":0.03158313617458281,"35":0.19074606595645008,"36":-0.029323579337770033,"37":0.2642068938535438,"38":-0.03682572529908219,"39":-0.09243313140234578,"40":-0.002292010867695706,"41":-0.0953436298948862,"42":-0.14829607872837922,"43":0.04242984131440876,"44":-0.11068213982793819,"45":0.026801632142518066,"46":0.017264599224237318,"47":-0.07311582811407166,"48":0.2637755425436642,"49":0.11691846644941489,"50":0.16523008179611284,"51":0.08447471389476621,"52":-0.03187485277702537,"53":0.16784017908688847,"54":-0.1837799264588759,"55":-0.08810559099161212,"56":0.05651496677188064,"57":-0.014471848117187639,"58":-0.20194744236518747,"59":-0.07163619691557274,"60":-0.03570954475075494,"61":-0.07308620687113676,"62":-0.09678454138848532,"63":-0.17832453882947938,"64":-0.059529685678101615,"65":0.06874464260078338,"66":-0.07272487199717305,"67":0.0683988309383669,"68":-0.1833148165077245,"69":0.20369905769324853,"70":0.012730508639612056,"71":0.03196115419533203,"72":-0.06935017651352551,"73":0.18240111485129923,"74":0.08554620939835662}}],"biases":{"sx":1,"sy":1,"depth":32,"w":{"0":0.09286797333208759,"1":0.09783410509383837,"2":0.10391617120269417,"3":0.11363901870439086,"4":0.09032491514298542,"5":0.09628027897145254,"6":0.0973603966345173,"7":0.08518930373017738,"8":0.1261613836452911,"9":0.0857621018062098,"10":0.09528273913902945,"11":0.08237896056930484,"12":0.08338263877366564,"13":0.13445818434529877,"14":0.10610894853372495,"15":0.08800118673627706,"16":0.1007305266809829,"17":0.1011502192945289,"18":0.09036772306550445,"19":0.07742024003970135,"20":0.08743456806167411,"21":0.1261581459454467,"22":0.07230642425687102,"23":0.0844914831885362,"24":0.08477224642168309,"25":0.13178527655613495,"26":0.07767214620206637,"27":0.07050341351260724,"28":0.08435250845044395,"29":0.08619974956582853,"30":0.07768733212697918,"31":0.12896115314432657}}},{"out_depth":32,"out_sx":64,"out_sy":64,"layer_type":"relu"},{"sx":2,"sy":2,"stride":2,"in_depth":32,"out_depth":32,"out_sx":32,"out_sy":32,"layer_type":"pool","pad":0},{"sx":5,"sy":5,"stride":1,"in_depth":32,"out_depth":40,"out_sx":32,"out_sy":32,"layer_type":"conv","l1_decay_mul":0,"l2_decay_mul":1,"pad":2,"filters":[{"sx":5,"sy":5,"depth":32,"w":{"0":-0.008934589745390575,"1":0.007794080975908635,"2":0.0019429422035824133,"3":0.045817030390682564,"4":-0.10345648239386003,"5":0.06266346207339275,"6":0.06204950759343868,"7":-0.013847754344284143,"8":-0.03353744553514915,"9":0.09314775984829667,"10":0.05226065731191,"11":0.041196704878617235,"12":0.026795795778377988,"13":-0.07819167295331254,"14":0.08166629920918479,"15":-0.005742376301102586,"16":0.06141911668256339,"17":0.04259842195449319,"18":-0.027680824561628885,"19":0.012381600657668067,"20":0.01012354633299327,"21":-0.016263239091068808,"22":-0.044742557708760886,"23":-0.03147919955271393,"24":0.05811300426989795,"25":0.01699299191714551,"26":0.0014821516427787123,"27":-0.054516299695679206,"28":0.014183274932892762,"29":0.016221408403204487,"30":0.012304193934175521,"31":-0.0571595275956953,"32":-0.037607465434468995,"33":0.01729594044889305,"34":0.015900235394109355,"35":0.010886406957929189,"36":0.05850771214668074,"37":-0.0033891097689882914,"38":0.009349071847420983,"39":-0.010665354867129665,"40":-0.03012209361347826,"41":0.03798674440666808,"42":0.016427598916357755,"43":0.02894367883449467,"44":0.023437343420129434,"45":-0.002962093014101835,"46":-0.025252645637786585,"47":0.05848314003705531,"48":0.11320782310152755,"49":-0.09329268887159571,"50":-0.04342585953760811,"51":0.038370811190626415,"52":-0.023434934445290257,"53":0.0962469924361299,"54":0.02277876444836445,"55":0.04233165811413278,"56":-0.0498150137229269,"57":0.03095729214503699,"58":0.012527389766985668,"59":0.036761578173229295,"60":0.05607842098996437,"61":-0.00822295136863849,"62":0.03866219853018808,"63":0.017567846964889545,"64":0.007400147544156327,"65":0.007976408009519185,"66":0.037026141347361555,"67":0.02156367077253186,"68":-0.01007051444056561,"69":-0.02732825956363918,"70":0.011601633406187566,"71":-0.01283092003055334,"72":0.00018828184207834298,"73":-0.029912600221531672,"74":0.0019506696067062225,"75":-0.033943331184223234,"76":0.005139910700945785,"77":0.051554888836303776,"78":0.03492621214396516,"79":0.024463683967716116,"80":0.0015610103251417653,"81":-0.005989373437352933,"82":0.11772757785132651,"83":-0.0494331322703875,"84":0.0104116474782742,"85":-0.028568476525195136,"86":0.026381943038238268,"87":0.10200092480242488,"88":0.05805751260986243,"89":0.05403572327657157,"90":0.04107673987364864,"91":0.07336893984106316,"92":0.02108073148100299,"93":0.015257332676228893,"94":-0.031722279983971174,"95":0.04543507625869865,"96":0.01287701518746164,"97":-0.050272961584122346,"98":-0.008167176819715476,"99":-0.025224688556727305,"100":0.0404181835512158,"101":0.004244963058630916,"102":-0.0020076662133005087,"103":0.030022279287577044,"104":0.029797794007763872,"105":0.02733586345278818,"106":-0.034025341488666046,"107":0.02379537197638262,"108":0.025964564983443746,"109":-0.038981086078264525,"110":-0.02412963370242058,"111":0.02402429441044184,"112":0.0012135377575282751,"113":-0.01900875874011962,"114":0.009833704468655167,"115":0.011808229230571482,"116":-0.026323700729426254,"117":-0.03277121703501487,"118":-0.03742238861728203,"119":-0.010412820088290038,"120":-0.018825936378262513,"121":-0.06761765017786213,"122":0.03414466694779419,"123":0.02687694720481948,"124":-0.04198123844781756,"125":0.022444468663393956,"126":0.02750915935445562,"127":0.006321856286523827,"128":-0.02191786201235616,"129":-0.02428767587828733,"130":0.004372590573570282,"131":0.06474771533762852,"132":-0.0051395805906360075,"133":-0.08308178379573226,"134":0.01665043447327184,"135":-0.0005501368716817165,"136":0.028885500731200064,"137":-0.0114721160729969,"138":-0.04748020345752393,"139":0.07273521532579896,"140":-0.06690516264949617,"141":-0.031914091878855175,"142":0.030454921057592572,"143":-0.0058047135663577285,"144":-0.007568478807826208,"145":-0.028220966799228905,"146":-0.029678268692432407,"147":-0.004512510978480832,"148":-0.04621647129162428,"149":-0.013477849496267945,"150":-0.029081409983739967,"151":-0.01167327730155641,"152":-0.00923003229212698,"153":-0.013728381881626948,"154":0.0014506852994219494,"155":-0.05959890468187403,"156":-0.03949527567028914,"157":0.007719673680038081,"158":-0.0034179312644654902,"159":0.04353913070246153,"160":0.06306625432515915,"161":0.062277932550689315,"162":-0.020384022927822328,"163":0.05006136086459128,"164":0.09079184462741223,"165":0.036175688389769645,"166":0.0008572379379458876,"167":-0.0037132461471387043,"168":-0.04749313169042159,"169":0.056679513237123065,"170":-0.014723271402490815,"171":0.005304934356567082,"172":-0.017237793096441238,"173":0.023390207013020393,"174":-0.008355221961065768,"175":-0.021044130243464756,"176":-0.07627212005479153,"177":0.019108288449899345,"178":-0.08091850066748471,"179":0.02779570762069268,"180":0.0032674939340296984,"181":0.041978916259765534,"182":0.022206802964361345,"183":0.0843306162959845,"184":-0.0539493012934642,"185":0.04360784919653592,"186":-0.009453758924900815,"187":0.028332321812964783,"188":0.058713421285714294,"189":0.08353539870411682,"190":0.020073879797429396,"191":0.09793016098253203,"192":0.015213559259195505,"193":0.019682417533653254,"194":-0.016716048207509937,"195":-0.0660230923873191,"196":-0.0215496888819056,"197":-0.02695424685916411,"198":-0.004668549203360449,"199":-0.02657667077510263,"200":-0.027703871808941304,"201":0.012881876194935634,"202":0.08514986356895093,"203":0.046790950754501306,"204":0.0043010774510651465,"205":0.006431389838332201,"206":-0.004515115707977081,"207":0.006010295002410067,"208":0.08533736450809745,"209":-0.009315467180645015,"210":-0.025219574942683405,"211":0.01645202488499463,"212":0.018056086967064577,"213":0.03979626841236505,"214":0.07059906634089332,"215":-0.007080634556197324,"216":-0.0753234841509064,"217":-0.026889862504850055,"218":0.0009785928207787656,"219":0.060413561818720825,"220":-0.0024575400358412157,"221":0.055972784177162824,"222":0.018615735025933305,"223":0.013744354882186848,"224":0.04267025940766148,"225":0.05323602638920284,"226":0.04481954765273578,"227":-0.05905809194944039,"228":-0.016204308813117893,"229":-0.001544534389708665,"230":-0.03627076912613698,"231":-0.04432344680532578,"232":-0.00013647344850762643,"233":-0.00294840795552422,"234":0.0791887052679777,"235":0.006853934026545772,"236":-0.05382154718263414,"237":-0.10620765081526526,"238":-0.007993816695954569,"239":0.0854321991051675,"240":0.0616232840745813,"241":-0.02509087379472263,"242":0.013293431547114046,"243":0.018074555107260186,"244":0.0021322247459603844,"245":0.040125073343591625,"246":-0.03281222560922831,"247":-0.0028848470275309834,"248":-0.06807039751518536,"249":0.00024591832937882025,"250":-0.01326786688059536,"251":0.05822365658536541,"252":0.04601477552470074,"253":0.009859845537357626,"254":-0.002946830394226681,"255":0.006031733321216665,"256":-0.041769759815420485,"257":0.012012428523572788,"258":-0.004508409521484014,"259":-0.03579845191470844,"260":0.005400674195616595,"261":0.0303786902839836,"262":0.01400282627620245,"263":-0.0507277773288027,"264":-0.022031094326252342,"265":-0.0279690224576451,"266":-0.04183924287344197,"267":0.020006144076294096,"268":0.0015309823246124799,"269":-0.060748328321416065,"270":0.00029494185628671374,"271":-0.023246537092105737,"272":-0.025290214178005952,"273":-0.02013749609982836,"274":0.04227921844345362,"275":0.008049209705106303,"276":0.015531153060119674,"277":-0.06327122822217061,"278":-0.004064522264018421,"279":0.018714187780969855,"280":0.0033003604022370375,"281":-0.001974121586922338,"282":-0.02615981746414782,"283":0.030482818246103674,"284":0.028542644407399766,"285":-0.07305978692737833,"286":-0.012606873043879722,"287":0.06395944761220833,"288":0.00587931778230479,"289":-0.04417687207040339,"290":0.003761547090945265,"291":0.07011356559977867,"292":0.011395869436898954,"293":-0.007148573527448825,"294":-0.03833884921765249,"295":0.004818124633881447,"296":0.040595344806524984,"297":0.010009010313228683,"298":-0.014406289448559075,"299":-0.05564110315319639,"300":-0.039482722613272556,"301":-0.01639008091114679,"302":-0.055061487850514935,"303":-0.0034049835166114735,"304":-0.04760989204238462,"305":-0.009084269619995108,"306":0.011981415975236642,"307":-0.04556328636195482,"308":-0.02325136616531611,"309":-0.021998580298134524,"310":-0.010028128373697801,"311":-0.06284167570885116,"312":-0.032788670071524514,"313":-0.02396067008535069,"314":-0.038035474140191226,"315":0.043006564585207595,"316":0.021659257119360852,"317":-0.0561748313045828,"318":-0.05924340318629045,"319":-0.04052579893263804,"320":-0.03421845979938372,"321":-0.05134978553758768,"322":0.03167442059212556,"323":-0.04181191039421953,"324":-0.005350198148446685,"325":0.047242037679702475,"326":-0.0016215525398089532,"327":-0.0040270383947042755,"328":-0.0005051575631161544,"329":0.02293137225904593,"330":-0.03656207611908521,"331":-0.02461144777346432,"332":0.09463684395088603,"333":0.008323427805328817,"334":-0.04437066224078762,"335":-0.019497598715755595,"336":-0.04640102832976955,"337":-0.03110393571735869,"338":-0.09239403836558419,"339":0.007360724101443208,"340":0.02707760641673807,"341":-0.03424505734256102,"342":0.05046897927000125,"343":0.049570873237279975,"344":-0.00171936957365755,"345":-0.006391527987065836,"346":-0.017354331299496147,"347":0.020129257038893105,"348":0.0429004580253189,"349":0.003039591496295256,"350":-0.023747868828691867,"351":-0.045191173051344805,"352":0.0888008508318402,"353":0.028695236380886772,"354":-0.0037695164425170366,"355":0.044358426925778245,"356":0.022425483984179533,"357":-0.012208730928020632,"358":0.01016883898969211,"359":0.011695059291501228,"360":-0.033440805899772975,"361":0.045381016815655484,"362":0.06309845330388791,"363":0.03931340941851016,"364":-0.037354662618814184,"365":-0.10802051908593933,"366":0.045474875370879235,"367":0.06124569491177152,"368":0.05706789784681918,"369":0.01969532244998237,"370":0.03467366966095304,"371":-0.004557280167953479,"372":0.03133037898126026,"373":0.00838622353274679,"374":0.08013792587025971,"375":0.046608530092599645,"376":0.033483791666546844,"377":0.09698799308537176,"378":0.029020084735492828,"379":-0.009010463202851319,"380":-0.015342425631439427,"381":0.002893956195175369,"382":-0.03507316137979277,"383":-0.04219144385795525,"384":0.0007823876938001795,"385":0.02637942356236926,"386":-0.022717424402590784,"387":0.043183669154039594,"388":-0.011135140954266933,"389":0.0546544486313869,"390":-0.008379023076734205,"391":0.009319042753235238,"392":0.011702717959413416,"393":0.04196157253645255,"394":-0.03419491355703668,"395":-0.06321533464115016,"396":-0.002562819809777783,"397":-0.008714968379896595,"398":0.01590612912493017,"399":0.04532131589593473,"400":-0.015376513696636469,"401":-0.02250502577826101,"402":0.0019363908384668624,"403":0.03379147235285834,"404":0.0039467145418028045,"405":0.037837450657439944,"406":-0.016668070631751214,"407":-0.032010316037029266,"408":-0.016844203649077016,"409":0.00039974905654130633,"410":0.015511506000027847,"411":-0.003428944478123614,"412":0.06527670014196843,"413":0.003952939843049225,"414":-0.021920663361801873,"415":-0.04732590614361207,"416":-0.028253036580983625,"417":-0.004626732791407682,"418":0.028647843695693363,"419":-0.017345246688138173,"420":0.010037180754946886,"421":0.06570268322786359,"422":-0.036737378506876105,"423":0.03312383404845332,"424":0.01946049872545686,"425":-0.04160509782660995,"426":0.05397302801561201,"427":-0.008440113143127757,"428":-0.004421666656668489,"429":-0.03430775549497109,"430":-0.08201719379605335,"431":0.02086791481970607,"432":-0.03905987269388497,"433":0.012354230353407993,"434":-0.033992298038283894,"435":-0.016593169126694205,"436":0.0376116110393823,"437":0.026252331442102726,"438":0.0008657830254593165,"439":-0.07820141038262021,"440":-0.07582611484311912,"441":0.0527366063980217,"442":0.01338222312782137,"443":-0.013260968679332524,"444":0.013868651150525543,"445":0.022596393848267848,"446":0.04433681229689525,"447":0.03594813210350879,"448":0.0005588084701113547,"449":0.01730011050313011,"450":-0.06465539361858208,"451":0.04268342553059878,"452":-0.10897959159305413,"453":0.04973930209672928,"454":-0.03103824053644401,"455":0.02664841154149343,"456":-0.07395708763328376,"457":-0.042625993232701824,"458":0.008974603455641115,"459":-0.016169035267185057,"460":0.021234330491998517,"461":-0.0219969905128596,"462":0.0036740203836720785,"463":-0.002657051172572687,"464":-0.03925244306252119,"465":-0.04594978288252408,"466":-0.02952416785428963,"467":0.039002148261380064,"468":0.0125812419848674,"469":-0.06525876381216124,"470":0.0005302519721967591,"471":0.07045476544702277,"472":0.015561027456328593,"473":-0.010276370535294621,"474":-0.008102070306779032,"475":-0.06060128836019199,"476":-0.05687665453597927,"477":-0.014906286003641661,"478":-0.019320001257503463,"479":-0.009131508748140171,"480":-0.06325647829282771,"481":-0.050735934613002805,"482":-0.046343947282531314,"483":0.07414610260619148,"484":0.0191226908672082,"485":0.014448818785641691,"486":-0.02776665439614613,"487":-0.016990560320433164,"488":-0.04305817696296213,"489":0.04589867017610725,"490":0.01298761949881029,"491":-0.0022486601677708068,"492":0.00547697380990547,"493":-0.027409617319453867,"494":-0.048315103360070395,"495":0.012660796009677048,"496":0.043500809943438155,"497":0.019140175170836396,"498":0.02356064510013166,"499":0.009622702465044807,"500":-0.05510121393853191,"501":0.029197395195711257,"502":-0.003755228486571711,"503":-0.033229730292943,"504":-0.033679031779313404,"505":0.04606277482652644,"506":-0.039978052819344766,"507":-0.03293991978661378,"508":-0.011210124492781791,"509":-0.0037173713944463997,"510":0.02087432441516175,"511":-0.012237158328074257,"512":-0.006993446605287675,"513":0.011601989783538729,"514":-0.011270333652302454,"515":-0.012417524412035625,"516":0.00561351282157794,"517":0.018474290515304748,"518":-0.022939461007931858,"519":0.04368016002717815,"520":-0.028175720971487603,"521":0.010167238220526018,"522":0.04220461351165631,"523":0.033830518514603496,"524":-0.004106091196294354,"525":-0.05863919342250021,"526":0.03524621349754469,"527":-0.025561350831235712,"528":-0.003728963661370906,"529":-0.038749663304091846,"530":-0.0049258282071846455,"531":-0.016029229619682908,"532":-0.07194496689333138,"533":-0.04924395319577878,"534":-0.0017809761491668892,"535":0.02855610404002137,"536":0.008537385383463282,"537":-0.08956003062612221,"538":-0.022086124564325134,"539":-0.025277183406171765,"540":-0.09546775244766008,"541":-0.03748245631140281,"542":0.023213086087271878,"543":-0.007035402902453155,"544":-0.004656912491828714,"545":0.03813017285286297,"546":-0.009264600602650962,"547":0.03227182413170716,"548":0.03735392999862725,"549":-0.035833948850613556,"550":0.03128786757865139,"551":0.00012310367168161094,"552":-0.002501484151470357,"553":0.010752051433831497,"554":0.048009715802499874,"555":0.0011744579220647272,"556":-0.014211344468485064,"557":-0.016311253633807202,"558":0.04022017250813806,"559":-0.00622289262154367,"560":0.0004509206269072496,"561":0.03936084548026003,"562":0.03837431662334833,"563":0.05447984204212587,"564":0.000864915163719962,"565":-0.02545897854570449,"566":-0.034443777711051844,"567":0.039877770669467884,"568":-0.009949489509522713,"569":0.04434731612849955,"570":0.021406329787154985,"571":0.034827734290875434,"572":0.03817430226755169,"573":-0.04282439121964827,"574":0.02750042332556418,"575":0.04811444641537042,"576":0.04878945515386923,"577":-0.02612884087529611,"578":0.021855069422598645,"579":0.011308999506044144,"580":0.09994332529358463,"581":-0.015305432802174817,"582":0.015208225150118791,"583":-0.10513393371615755,"584":-0.02138053480435588,"585":-0.07024765966361636,"586":0.02293494206569041,"587":0.014387493135349106,"588":0.015848158697759317,"589":0.021235548280006622,"590":0.10144400736734566,"591":-0.010099398348013388,"592":-0.010110738567706709,"593":0.042736986670248556,"594":-0.032873425302604085,"595":0.0253679362290677,"596":-0.046031582229067294,"597":0.010443105856711278,"598":-0.05695252162024495,"599":0.02736721696723352,"600":-0.011483734185687478,"601":-0.016230042804270317,"602":0.0026757513393867722,"603":0.026350146360721773,"604":0.016395282959587594,"605":0.006912416429332822,"606":0.029080691791087746,"607":-0.046456150355010634,"608":0.012875931224075758,"609":-0.0303758602601433,"610":-0.018538651057985443,"611":0.10434598888213939,"612":-0.07205140993950498,"613":0.0155317311848127,"614":-0.07219064676943726,"615":0.008823330759366909,"616":-0.02022305283620147,"617":0.03456496572841497,"618":0.02891143103576636,"619":0.041321784159245104,"620":0.045556328377773965,"621":-0.03563966308439645,"622":0.08693694922389382,"623":-0.048222203352185064,"624":0.04960088962648372,"625":0.013291947367368238,"626":0.04701874807770156,"627":-0.01996443987141084,"628":-0.04031706336434982,"629":-0.027856507245911835,"630":-0.07116673924183692,"631":-0.03302393096564089,"632":0.018784797134555043,"633":-0.02641130188411941,"634":-0.05918028543540517,"635":-0.02738997748702946,"636":-0.049263859324360636,"637":-0.011651133901695672,"638":-0.007187165036367432,"639":-0.045183291923146185,"640":-0.028389489849659808,"641":0.047553375365864424,"642":-0.0630265892305,"643":0.00978262519936838,"644":0.025031603024849938,"645":0.0018387029283506286,"646":-0.024111376517158715,"647":-0.04491603067000238,"648":-0.03188471884377496,"649":-0.03297389435719878,"650":-0.013592986518470523,"651":0.05577313981904169,"652":-0.06135589315941633,"653":-0.013351543834157818,"654":0.04638812718556695,"655":0.041657444700393544,"656":-0.03455996560977524,"657":-0.010416715426817769,"658":0.011463922887619677,"659":-0.0066911622543008534,"660":0.06377617499913953,"661":-0.08413444636272857,"662":0.04701237217470657,"663":0.06018746296943333,"664":-0.027025016098617485,"665":-0.014497499572857975,"666":0.001182308385483472,"667":-0.05399977752403939,"668":0.010204765728426005,"669":-0.02830818117374528,"670":0.03613577345795016,"671":0.07542841360613885,"672":0.0010797000470810013,"673":0.015243206202464131,"674":0.003473092335670317,"675":0.0506174419510011,"676":-0.021022453840418454,"677":0.06018922414368371,"678":0.014449974229333246,"679":0.01906101217571177,"680":-0.0618383374241999,"681":0.006648769867346629,"682":-0.01713139019667521,"683":-0.06730765079412789,"684":-0.032516832983385105,"685":-0.07234044533169827,"686":-0.03134943222548998,"687":-0.03682479111503445,"688":-0.03590861842835226,"689":0.0419673091219907,"690":0.028371924238277647,"691":-0.02093261507446648,"692":0.0004114068328364625,"693":0.01572895240633691,"694":0.06727237497949215,"695":-0.05246276863518457,"696":0.03646780069078659,"697":0.007156729199449543,"698":0.025814385424367148,"699":0.02756303615552641,"700":-0.013698931313346846,"701":0.011378820044330443,"702":-0.04973770770574339,"703":-0.01966648723320669,"704":0.035199455207247266,"705":-0.005120511285233577,"706":-0.006865568771009459,"707":0.06933289074293422,"708":-0.0038704602279556223,"709":0.014227350465916756,"710":-0.02572977229949768,"711":-0.010117648833193162,"712":0.012692291759597364,"713":-0.020971845047434504,"714":0.013957522431147769,"715":0.017262712647745565,"716":-0.060754499479976735,"717":0.08411612701840653,"718":-0.039465148529987684,"719":0.03456346769462888,"720":-0.0371062452213673,"721":0.03166536919820362,"722":0.011122017436006897,"723":0.02115992956807349,"724":0.021489029331562368,"725":-0.027818044330089234,"726":-0.007393375958481906,"727":-0.011188115011870588,"728":0.03231230454078683,"729":-0.004446258155911801,"730":0.016065955902609525,"731":-0.04322074076579989,"732":-0.0301630588002346,"733":0.05994792332429359,"734":0.02746861697758261,"735":-0.026661542900134935,"736":-0.02213220764821838,"737":0.036460236354195076,"738":0.016478192451598164,"739":0.03362524463104923,"740":-0.007712339116719019,"741":0.007133807720747451,"742":-0.03349728104770224,"743":-0.0030360784341146997,"744":-0.02718763800061483,"745":0.04229574986971628,"746":-0.008448784859762996,"747":-0.015735261420313493,"748":0.014624879629644169,"749":-0.02669652724599324,"750":-0.0043932137323804835,"751":-0.008149528161986459,"752":0.056480125311893024,"753":-0.022377219670501082,"754":-0.02308585578092479,"755":0.01690627631465755,"756":0.03073703155067169,"757":0.06308512369372259,"758":-0.07910766499171033,"759":-0.022534137015173355,"760":-0.0020060664858010903,"761":-0.019843965326162512,"762":-0.027740441231726986,"763":0.033168347810268256,"764":-0.010562113075801469,"765":-0.07879979099526102,"766":0.031108106759957625,"767":0.006186023440616231,"768":0.015204841403802044,"769":0.02418733471094625,"770":-0.08805429294748886,"771":-0.0018460954624647408,"772":-0.04456263946375415,"773":-0.009473266074869641,"774":0.001861557755369472,"775":0.010887841700166543,"776":-0.06796719398150593,"777":0.03963508080888281,"778":-0.04902772685684959,"779":0.0014641811445354667,"780":-0.002828035847688001,"781":-0.04355116004275923,"782":-0.030642974276752024,"783":-0.09195050933954707,"784":-0.0005481057268057178,"785":-0.03177680784242814,"786":-0.005740012431302712,"787":-0.04290914763880298,"788":0.02775290511223695,"789":-0.014175801685365258,"790":-0.009094622681338142,"791":0.03272521465776367,"792":-0.04126499860257568,"793":-0.00972490786894401,"794":-0.02866954233547299,"795":0.02207766984151717,"796":0.01703879644704138,"797":-0.02097570013053718,"798":0.05010914232286513,"799":0.03197549855515244}},{"sx":5,"sy":5,"depth":32,"w":{"0":0.048808883286299704,"1":-0.023875207468568128,"2":-0.05383420121674935,"3":-0.03305251772199742,"4":0.024205623057490067,"5":-0.09392764226869717,"6":0.010094809311142261,"7":0.015660640865562667,"8":-0.010612293814922388,"9":-0.018637330644722287,"10":-0.08289264108098729,"11":-0.029982079096712376,"12":0.023817115117756766,"13":-0.040482040088809984,"14":-0.015494271559944992,"15":0.028324926240393792,"16":-0.036316375569432374,"17":0.02675104434298827,"18":0.023163798609211753,"19":0.0404900495216489,"20":0.06956699982952239,"21":-0.025062267146786405,"22":0.04396609438263733,"23":0.009339521176664442,"24":0.0567809680008853,"25":0.02146159805805735,"26":0.0654829639921167,"27":0.01683626446077814,"28":-0.04118457092347674,"29":-0.015019780991803742,"30":0.010387468585374034,"31":0.05083155405453432,"32":-0.007255125596556752,"33":-0.012149939096884383,"34":-0.011036363652912246,"35":-0.05512126623831609,"36":-0.02660203926569686,"37":-0.024079339881481133,"38":0.01532859265063841,"39":-0.03338011203738113,"40":0.07085102804820116,"41":-0.01364182017251549,"42":-0.028954362842540937,"43":0.01188025370667714,"44":0.0614070158633407,"45":0.0021352178261047285,"46":0.011395962145966406,"47":-0.05136953335711903,"48":-0.01843722944262176,"49":0.00810780396626675,"50":-0.014395270376369876,"51":0.007838620926077984,"52":-0.00016921257388912109,"53":-0.009049726483827684,"54":0.04974472925151519,"55":0.06404153097509517,"56":0.010265330886518374,"57":-0.06796589103930338,"58":-0.06945431246057016,"59":0.054125247731130435,"60":0.012270293767107669,"61":-0.056498265773223276,"62":0.032042958703603144,"63":0.0033741813930515756,"64":0.0482652564892151,"65":0.049510294519074426,"66":-0.03533458575889624,"67":0.02090503186571872,"68":-0.06482430538093607,"69":-0.06806195344627981,"70":0.001954694377524061,"71":0.0370233593072527,"72":0.04600628049728857,"73":-0.013226347453847162,"74":-0.029818267479042187,"75":-0.03090324847790565,"76":0.04673755282748548,"77":0.02587486858841666,"78":0.00849521820754065,"79":-0.0016867479764222611,"80":0.04220376899639203,"81":0.06572362520589844,"82":-0.03466208315929983,"83":0.08284989624811229,"84":0.033366914632257876,"85":0.011258822820529708,"86":-0.005471913008039853,"87":-0.07912527952950814,"88":0.07107451521114053,"89":-0.06999586549237338,"90":-0.008221875749956059,"91":0.028823667343304153,"92":0.016589615377984864,"93":-0.045077238671117154,"94":0.037520514882022044,"95":0.029187456462748722,"96":-0.02176711702104569,"97":-0.04118846117179174,"98":-0.0167914369598354,"99":0.00662166294793452,"100":-0.028442509193646808,"101":0.031634005589329016,"102":-0.03573531259292928,"103":-0.007226582594000837,"104":-0.0037116052840376456,"105":-0.001300890248232012,"106":0.03471823290786815,"107":-0.01660542849284827,"108":0.06326895879423955,"109":-0.06980709069856905,"110":0.01582839316346732,"111":0.03897826154154748,"112":0.05290595884936693,"113":-0.0670026520033602,"114":-0.040316396230752706,"115":0.025581319286907194,"116":0.03791468297382915,"117":-0.030632482181542794,"118":0.0061030188569893,"119":-0.018703319665728056,"120":0.008797844406451432,"121":-0.07765428641060983,"122":0.012461707258381544,"123":-0.02326504377161695,"124":0.050981315636459155,"125":0.01464272319665327,"126":-0.03490637367619025,"127":0.015858232786360532,"128":0.013457567255705514,"129":-0.005346143654380652,"130":-0.007246000193323401,"131":-0.006586690111741347,"132":-0.009232581627280297,"133":-0.016937501791451093,"134":-0.028288631573856617,"135":-0.05051622874112301,"136":-0.02500133122440402,"137":0.000020116077023654417,"138":-0.06428675426642486,"139":-0.015016449173619956,"140":-0.0025766775541177737,"141":0.02419995942906531,"142":0.03684728667508757,"143":0.07899528386288673,"144":-0.04307300590961674,"145":-0.0529352720984249,"146":-0.04385272764730684,"147":-0.00983587169241844,"148":-0.0017798076300148253,"149":-0.010760845209001208,"150":-0.030208638536325792,"151":-0.01518334830956914,"152":-0.019425734624700538,"153":0.03821102657626416,"154":-0.07013680153583181,"155":-0.015112866455608063,"156":0.0343249665281531,"157":-0.0036433559378343926,"158":-0.016528795659305998,"159":-0.008086674702823276,"160":0.015144954456118359,"161":-0.07433602773231444,"162":-0.0034978686330442805,"163":-0.023995983725345962,"164":0.00006557137572634029,"165":-0.12369304080518966,"166":0.010882948355604603,"167":0.06285829951306643,"168":-0.00878093117286995,"169":0.03304493298830518,"170":-0.004695175165652781,"171":0.021571635168846387,"172":0.02006882435558812,"173":-0.017459626675260246,"174":0.0818633511718605,"175":-0.049148527132172624,"176":0.046775430758381274,"177":0.0185915312645461,"178":-0.04815452212526269,"179":0.02271420212019924,"180":0.0016948050105438925,"181":-0.01021200962083978,"182":-0.03940755977386701,"183":-0.0007690363128132747,"184":-0.017338976614535876,"185":-0.062093949998107065,"186":-0.02533535654427505,"187":0.026772380455578042,"188":-0.055138108023619174,"189":-0.02743501742678332,"190":0.03364336758255128,"191":-0.06612812766487315,"192":0.07870397963387014,"193":-0.013941211285534045,"194":0.00015935980093726608,"195":-0.037536037138298256,"196":0.09050409200357883,"197":-0.017316486446743537,"198":0.009616421061535008,"199":-0.006554112424659243,"200":-0.025669674262064887,"201":-0.016473721859823008,"202":-0.07773615597099344,"203":0.01907208213792916,"204":-0.0517729920982651,"205":0.02451126774826252,"206":-0.01036767737405244,"207":0.0509760387597072,"208":-0.06036145829006408,"209":-0.022231515779209874,"210":-0.03899338719209668,"211":-0.06618720775682711,"212":0.04517574824547974,"213":0.028916434485163563,"214":-0.04677884485195775,"215":0.03937529213249924,"216":0.03442633871248556,"217":-0.011902567588630208,"218":-0.02957478957668663,"219":-0.06900172523367858,"220":0.018993986462404855,"221":-0.08024748731212684,"222":0.08889068890747377,"223":0.052309143662151086,"224":-0.0019027025671479805,"225":-0.07775215097201844,"226":-0.03057910978367041,"227":-0.0063750619573645475,"228":0.02778941962640691,"229":-0.05283225366192791,"230":0.04930802338548773,"231":0.003372171892853701,"232":0.03487850935496776,"233":0.03161159015782007,"234":-0.06259033555555941,"235":-0.019439275545457834,"236":0.005838816928562467,"237":0.013623840187601044,"238":0.018260033641340954,"239":-0.023107269645137842,"240":0.04869139393851763,"241":-0.05230695469499674,"242":-0.021449858313069628,"243":-0.016973999180817448,"244":-0.010465750551775337,"245":-0.04961650191269714,"246":0.06460633494389388,"247":0.04476224498649741,"248":0.05427779734534886,"249":-0.042432722344674774,"250":-0.032389166066715554,"251":0.01814270024046683,"252":0.03570406898739739,"253":-0.051906502140561334,"254":0.03883521055413132,"255":-0.012189580974864469,"256":-0.029297674166796003,"257":-0.033591054054237235,"258":0.036289402572823946,"259":-0.06327660698787876,"260":-0.031562812580228534,"261":-0.01282894878549761,"262":0.016647539877271203,"263":0.002252460932927997,"264":0.0075052852858088935,"265":-0.05228023215248866,"266":-0.06772593418869169,"267":-0.044650493030951366,"268":-0.04363640588929127,"269":0.03180505884914994,"270":0.01172995974443637,"271":0.040402368963451,"272":-0.10983938077662166,"273":-0.03209299459889193,"274":-0.018885618982552477,"275":0.026761965579737448,"276":0.028448773734292755,"277":0.006661882718644249,"278":-0.022652543161315094,"279":-0.011215256277830914,"280":-0.005258970964817008,"281":-0.041891162439105956,"282":-0.03296458775784169,"283":0.008529385826406527,"284":-0.04127483469691737,"285":-0.008214794467755847,"286":0.03241289852261512,"287":-0.03232540900717287,"288":-0.0020291109006592687,"289":-0.013492808298919547,"290":-0.029451955347204052,"291":-0.02219419719405349,"292":0.036653825744019305,"293":0.00024756584891749266,"294":-0.04943632428910495,"295":-0.05249349563898157,"296":-0.00619145674167844,"297":-0.012351777212996073,"298":-0.01321123034273826,"299":-0.026082717022717396,"300":0.04849266983996817,"301":-0.00738032394908481,"302":0.011150215706570222,"303":-0.007120529967650192,"304":-0.02861678512952353,"305":-0.026004758835263455,"306":0.016616439841982675,"307":0.05971252122026345,"308":0.023293108820518507,"309":0.014703349237222586,"310":-0.02146572366267324,"311":0.01751384021227031,"312":-0.04591026784029337,"313":-0.045286352670596636,"314":-0.016343349720059692,"315":-0.03506799935271267,"316":0.040840104205019816,"317":0.02407240924318501,"318":-0.05837280641577464,"319":0.051369188169374504,"320":-0.02758065711734256,"321":-0.06214228578202138,"322":-0.040637164056317544,"323":0.006034804446935741,"324":0.02779520303141264,"325":-0.009760913952355815,"326":-0.03934855779290918,"327":0.07345410329645749,"328":0.004722581309113514,"329":-0.051334312501798485,"330":0.023091290950468007,"331":-0.04404097430884867,"332":0.023726069078891233,"333":-0.004078094075046973,"334":0.007853064514768712,"335":0.007405347489332791,"336":0.019298723303154745,"337":0.021902240010258853,"338":0.05319918596672884,"339":-0.059889596860178994,"340":-0.002790797794563448,"341":0.06224616975282195,"342":0.011421346810892536,"343":0.012061880602074072,"344":0.04244947577742815,"345":-0.0000671386997116357,"346":-0.02292963759287618,"347":-0.03305323844668292,"348":0.018728428746202695,"349":-0.003800245655225463,"350":0.012144728050425217,"351":-0.014131952345863202,"352":-0.01981572437078299,"353":-0.08396474148979566,"354":0.03541664226285762,"355":-0.05690524385507379,"356":0.024472326697980305,"357":-0.04052774231228386,"358":-0.030577063498680036,"359":0.007380800257767721,"360":0.04160801482442712,"361":0.0023029660254527515,"362":-0.06307813164365803,"363":0.07874096129696559,"364":0.05365590507464466,"365":-0.011411594866605892,"366":0.009244248966253765,"367":0.019596514268411986,"368":0.09642481672142979,"369":0.011645857712505805,"370":0.04974059974746095,"371":0.016294562528815205,"372":-0.0032102755008641764,"373":-0.0555079723392258,"374":-0.021795445863478483,"375":-0.03130997119651233,"376":-0.06655908166308618,"377":0.011363231702717755,"378":-0.00500536687366321,"379":0.0043895356548440765,"380":-0.01340691359380947,"381":0.005229558281534868,"382":-0.013478451639073068,"383":-0.031520418780577646,"384":-0.0215338658224961,"385":-0.05657541806102286,"386":-0.05247969765674367,"387":-0.03951854868496306,"388":0.03385089796858103,"389":-0.005458353196856667,"390":-0.03472733804433649,"391":-0.03541077117806166,"392":-0.013315232248673441,"393":0.056022016799657515,"394":0.044240455540359054,"395":0.005727492307530287,"396":0.011197183181519261,"397":0.0006897167232107923,"398":-0.07657406747267748,"399":0.061315552018551565,"400":-0.05698494977679362,"401":-0.018416746577473442,"402":-0.03488117576005615,"403":0.031673876067293556,"404":0.023462202344609037,"405":-0.005585365260817215,"406":-0.05632745375529056,"407":0.02359608288278228,"408":-0.04290089131207519,"409":-0.031023852087410944,"410":0.018874849855855497,"411":0.002848412046736967,"412":0.05353977134541676,"413":-0.052351272327568275,"414":0.027442229183956546,"415":-0.0676698735973368,"416":-0.090545735871456,"417":-0.02263965026878364,"418":0.01616193787382431,"419":-0.050702181075570084,"420":0.030468683962671536,"421":-0.06606613358027812,"422":-0.05100491856297205,"423":-0.06912612424045583,"424":-0.03430495928895341,"425":-0.014469253659770868,"426":0.010263957813787894,"427":-0.040905245420833354,"428":-0.027011984528993657,"429":-0.019832439592013102,"430":-0.06203258235004567,"431":-0.0283345392579841,"432":-0.019961704738661178,"433":0.03814517839676067,"434":-0.07700034502057923,"435":0.04928806625813204,"436":0.03676375279520411,"437":0.007549206664249,"438":-0.03534864698054264,"439":-0.023703609789380218,"440":-0.007223137230015792,"441":-0.03805162791533689,"442":0.0034556189564582153,"443":0.0012486666046555156,"444":0.0016531410412275534,"445":-0.03221593145890432,"446":-0.02974533791300202,"447":0.03151719570971783,"448":-0.07303137249567988,"449":-0.06482797311333496,"450":0.027645368427117636,"451":-0.024985598333223842,"452":0.06865617558914573,"453":-0.04795106388982605,"454":-0.03559801970869314,"455":0.04072605977603659,"456":0.0013122654483412495,"457":0.018696326738741338,"458":-0.07112330864005474,"459":-0.007414022366528428,"460":-0.027987358186275242,"461":-0.021408518508346814,"462":-0.0044996402196412965,"463":0.04275259740235556,"464":0.10208327294134138,"465":0.01629024845578628,"466":-0.01644817598753519,"467":-0.0347714216428932,"468":-0.06751917562236753,"469":0.037902043876988305,"470":-0.033187111853234835,"471":-0.03844684091676334,"472":0.02501770673621702,"473":-0.043853371610002405,"474":-0.008979504364368148,"475":-0.018402948521007444,"476":0.014805950472314195,"477":-0.0035084820243742425,"478":-0.026754868945849854,"479":-0.009329849491393934,"480":0.06598174616205471,"481":-0.001636445606928565,"482":0.011097509985130299,"483":0.015483607628005503,"484":-0.05120734804163697,"485":0.05031794332021237,"486":-0.014036504609619556,"487":-0.052905162032941946,"488":0.08163426391737605,"489":0.03345277008902633,"490":-0.040037030587714566,"491":-0.009914961194693586,"492":0.06521619154919141,"493":0.018303907109339476,"494":-0.006612559116699654,"495":-0.0021759201139781134,"496":-0.0054084424928826785,"497":0.012864528832901062,"498":0.047949610003600554,"499":0.04512105411054006,"500":0.02225437024595428,"501":0.026709455461897534,"502":-0.05972376150331096,"503":0.08222947110992203,"504":-0.03920692862176436,"505":-0.002672333689572497,"506":0.028935720984302284,"507":0.003215057601982943,"508":0.01743938768122634,"509":-0.033076203751272765,"510":-0.03002777996173393,"511":0.04591602692096902,"512":0.028084448285072883,"513":0.016485044907580522,"514":-0.02508076049866396,"515":0.020171770426971908,"516":0.015949059721579777,"517":-0.0315742609473101,"518":0.019279269673309583,"519":0.10499631661262497,"520":0.03589622355830145,"521":0.013632864916958835,"522":0.043950703504038895,"523":-0.039022048015729636,"524":-0.008506391610313403,"525":-0.005074438662621602,"526":-0.0008312684422990426,"527":-0.08588958508415308,"528":-0.027743173141747346,"529":0.03965944453148501,"530":0.009456509616899984,"531":0.051650810390315445,"532":0.04762664802874622,"533":0.0009699802844944409,"534":-0.026396273956094236,"535":0.020394255459003773,"536":-0.019181765488363638,"537":-0.027857087589059457,"538":0.02136909716467882,"539":-0.03877302954950056,"540":-0.0865489810286068,"541":0.012293425466667656,"542":-0.042381238027374785,"543":-0.017066723285783278,"544":-0.02388860119459477,"545":0.06065799449898318,"546":-0.003228004523332448,"547":0.06763723304993227,"548":0.04818596488520308,"549":-0.007734035759206859,"550":0.003509203478678477,"551":0.02931219976203012,"552":-0.02813555029006069,"553":0.03946399491294103,"554":-0.008797943135488625,