{"layers":[{"out_depth":3,"out_sx":64,"out_sy":64,"layer_type":"input"},{"sx":5,"sy":5,"stride":1,"in_depth":3,"out_depth":32,"out_sx":64,"out_sy":64,"layer_type":"conv","l1_decay_mul":0,"l2_decay_mul":1,"pad":2,"filters":[{"sx":5,"sy":5,"depth":3,"w":{"0":-0.017403891460566565,"1":-0.002329294293584825,"2":-0.13763820389396614,"3":-0.004945974699987799,"4":0.02430209560534595,"5":0.21800691298246513,"6":0.033528676345790445,"7":0.23469652742710198,"8":0.0334289451576539,"9":0.22827061000593224,"10":-0.1757881704539795,"11":0.04743602715220566,"12":0.08094989092917272,"13":0.11678927359487436,"14":0.15796684922611143,"15":0.006008717389080938,"16":0.062323712601390566,"17":0.15702387908369006,"18":-0.08502451678003146,"19":0.09650009855676729,"20":0.027189594157445197,"21":0.07895300599013233,"22":0.1169644809771657,"23":-0.045029060359348776,"24":0.07713586836080706,"25":0.01554782516748468,"26":0.0735088949082112,"27":0.007241041731515657,"28":0.16622496041789112,"29":-0.06661249250445543,"30":0.08333309868458591,"31":0.08419121117103189,"32":0.16549086638342272,"33":-0.1188804859404283,"34":-0.04958304392683905,"35":0.05853219779584766,"36":0.07163071215968388,"37":-0.008870679048086623,"38":0.20032924667141888,"39":-0.07076974394947358,"40":-0.10787880224734402,"41":-0.005477434270480771,"42":-0.03216292588581464,"43":0.08085520644497662,"44":0.04594933884012581,"45":0.195181795008195,"46":0.07581748082969872,"47":-0.07645530015643098,"48":0.21916249637029395,"49":0.11806145051656347,"50":-0.039225021299124946,"51":-0.04794882945664754,"52":-0.18850544101547345,"53":-0.14938891621054654,"54":-0.07067311511669694,"55":-0.01142269253706799,"56":-0.17203856870312595,"57":0.03510835980583244,"58":0.036131754290315996,"59":-0.039799152666173856,"60":-0.054342542323797795,"61":-0.19841882354672527,"62":0.010986039613417447,"63":-0.04019894395239226,"64":-0.28496792299668117,"65":-0.19345482680575793,"66":0.18931427360862663,"67":-0.2736034758219822,"68":-0.12285772493174447,"69":-0.009502394089716948,"70":-0.045728862199274876,"71":-0.29436669186347325,"72":0.005042497339067165,"73":-0.21523753526778722,"74":-0.1534546322335963}},{"sx":5,"sy":5,"depth":3,"w":{"0":-0.0028705012433986395,"1":-0.06586939122958234,"2":-0.057767940810891046,"3":0.3501072784815139,"4":0.04802862087748936,"5":0.2795828172256262,"6":-0.1298697367112807,"7":-0.08830525596546303,"8":-0.19863551139309754,"9":0.007768672903598579,"10":0.07877203210045298,"11":-0.11065735871534446,"12":0.06780413657138794,"13":-0.1857051639223549,"14":-0.19987779778237103,"15":-0.01657120044085971,"16":-0.03237255477669291,"17":0.02190620949059197,"18":0.16023282762009894,"19":-0.16461396745634646,"20":0.01837888534779499,"21":0.2560703660678332,"22":0.029714855180726116,"23":-0.080202988535066,"24":0.23670103494355216,"25":-0.027639622789570883,"26":0.00037771181547180686,"27":0.0667420484354103,"28":0.10482252903395414,"29":0.09682343429190306,"30":-0.008989746523157894,"31":0.0928951847820018,"32":-0.03477002622629863,"33":-0.33296811413890526,"34":-0.019007414341038368,"35":0.12264912604019174,"36":0.03970370607896536,"37":-0.048466714444239924,"38":-0.27349933387755987,"39":0.10616809553135026,"40":0.055775013782146284,"41":-0.050704092261912796,"42":0.057119994069367214,"43":0.1214161421609854,"44":-0.052570686849745266,"45":0.2051221976460334,"46":-0.08047098845562861,"47":-0.18424727164011104,"48":-0.1267510284665292,"49":-0.02218444284527283,"50":0.030784722455818155,"51":-0.11664810438193716,"52":0.08946516542314265,"53":-0.0675551534748951,"54":0.04684464103932336,"55":0.1759823868297623,"56":-0.0899091528902758,"57":0.041218928346863,"58":0.0015741588052287513,"59":-0.10356699494103436,"60":-0.027050710477985823,"61":0.16176333785102487,"62":0.15308611218624094,"63":0.02512891354048016,"64":0.11899497849983558,"65":0.03687449080510287,"66":0.06950291946087067,"67":0.298135733682004,"68":-0.156819364280302,"69":-0.04994457137042068,"70":0.0472487044267174,"71":-0.1399787798856303,"72":-0.1035727402612669,"73":0.10914661942677367,"74":-0.1584451318934474}},{"sx":5,"sy":5,"depth":3,"w":{"0":-0.09132143956147705,"1":-0.12414297135917186,"2":-0.017343445844553735,"3":-0.13179770871653607,"4":-0.001958770024374057,"5":-0.37455590729424443,"6":-0.1486489116228657,"7":0.015942350022197738,"8":-0.06220110022701739,"9":-0.20353348949110547,"10":0.0991335850812553,"11":-0.09073285584077555,"12":-0.18260207299200648,"13":0.041688479350171746,"14":-0.12194811894592858,"15":-0.14049551419022557,"16":-0.008728113967874384,"17":0.2750663289951897,"18":-0.06993435000874805,"19":-0.05955423599926489,"20":0.11455553094384258,"21":-0.04023561958884038,"22":-0.15827833507693667,"23":0.11801704240302406,"24":-0.1053481153583322,"25":-0.14398008656278508,"26":0.16100945461015934,"27":0.012229431020388355,"28":-0.1439218355659894,"29":-0.09697473445335184,"30":-0.06524250918536585,"31":-0.05396011214694518,"32":-0.20620873443513332,"33":0.26374369898069894,"34":0.17088064394198377,"35":-0.20043895634501474,"36":-0.1159082336323199,"37":0.07186074860008737,"38":0.1691545944877465,"39":-0.011180175021314144,"40":0.0015412047470796531,"41":-0.18796446975860046,"42":-0.46800453890479976,"43":-0.08779093760371903,"44":-0.20066258927922942,"45":0.08739940292768181,"46":0.1423026792500996,"47":0.2032905180089358,"48":-0.08145902930159238,"49":0.10191543464582148,"50":0.09336938317681877,"51":-0.11944781281552223,"52":0.05727872994103584,"53":-0.041234713057552545,"54":-0.025334169392007458,"55":0.22187440287073512,"56":-0.2427474729569012,"57":0.12377665136078006,"58":-0.13247078551083605,"59":-0.13792267768081332,"60":0.1542046278307033,"61":0.1646574728923985,"62":0.27389578955820176,"63":0.046345801917524576,"64":0.16232609103493992,"65":0.15979228883838975,"66":0.10200574280088737,"67":0.05163058548817299,"68":0.11806321038189475,"69":0.07487479392116278,"70":-0.10276386869847008,"71":-0.12878111743083043,"72":-0.055768063923330946,"73":-0.13768310479772855,"74":-0.031052385820948387}},{"sx":5,"sy":5,"depth":3,"w":{"0":-0.04225278905043986,"1":0.04016636507074465,"2":-0.0014775733371108636,"3":0.029150745175624878,"4":-0.07655318045907936,"5":0.015149882606022354,"6":-0.14490940183849485,"7":-0.001884653675010613,"8":-0.05504441297916897,"9":-0.19320696587525704,"10":-0.1420951283540525,"11":-0.10714397319702237,"12":-0.21961891067457098,"13":0.026108878491429018,"14":-0.12069738958773475,"15":-0.10099057246707298,"16":-0.01762835576883944,"17":0.04881966372183698,"18":-0.09159958682331379,"19":-0.03407097362731088,"20":-0.01034484344453455,"21":-0.03475027212131438,"22":-0.15728654280068385,"23":-0.04993193082693584,"24":-0.1790258017810013,"25":-0.08318862904954454,"26":-0.2814640915879121,"27":-0.11647072234287652,"28":0.046625067625124327,"29":-0.17140049035402133,"30":0.029515787795464245,"31":0.06858166423148947,"32":0.12704446064613786,"33":0.022266814218281486,"34":0.20985097171532546,"35":-0.2258515834583153,"36":-0.006194635203940768,"37":0.011195834178604152,"38":-0.056297295412148125,"39":-0.018564697932387665,"40":-0.12893207351255326,"41":-0.25921744732501156,"42":-0.005520738661225329,"43":-0.00439085274814746,"44":-0.155117528745077,"45":-0.07775733575406293,"46":0.14951210084215244,"47":0.25964975864773016,"48":0.013973858647967866,"49":0.16740269527760485,"50":0.09785825180248495,"51":0.09253261997125237,"52":0.03976183590207877,"53":0.11675184547568974,"54":0.03077162959175178,"55":-0.23522983574865625,"56":0.01452754752744512,"57":-0.2893177418179216,"58":-0.2311678444694046,"59":0.22527163560845267,"60":0.20201342315655177,"61":-0.025447398324983432,"62":-0.021583271330565458,"63":-0.08498308830355762,"64":0.121568013600059,"65":0.13954528759541643,"66":-0.1940737801660572,"67":-0.05701572732122119,"68":-0.15615047495323464,"69":-0.1164473270376231,"70":-0.0623603608478197,"71":0.0786009926817772,"72":-0.13893922714120185,"73":0.043560305895843296,"74":0.02246779396314637}},{"sx":5,"sy":5,"depth":3,"w":{"0":0.15135924712081977,"1":0.2214901816586281,"2":-0.008085619341829638,"3":-0.025829206023204175,"4":0.038712655259508254,"5":0.06484941611385214,"6":0.10528843862380453,"7":0.09938974628853729,"8":-0.23317941787223048,"9":-0.23829836608863544,"10":0.14441264757223607,"11":-0.20752045088849336,"12":-0.0405571264656189,"13":-0.10898313851766703,"14":-0.0634925550626969,"15":0.055288072829193624,"16":0.08590762584103727,"17":0.08904784832573387,"18":-0.03574598740729921,"19":0.12817314610639194,"20":0.06749953248695732,"21":-0.06865166043295802,"22":-0.12577845305778856,"23":0.18177224900157327,"24":-0.23979560474669484,"25":-0.029896608555520565,"26":-0.027532876292907002,"27":0.045578647808069174,"28":-0.08022206068372398,"29":0.13711375215984567,"30":0.13491344290250634,"31":0.006432444471339389,"32":0.1637339433667116,"33":0.31704399224902674,"34":0.08707680484571524,"35":0.01398403411698222,"36":0.10176620701743948,"37":0.04704878938217101,"38":-0.14026127392147456,"39":0.09287218328865315,"40":0.02043902640948752,"41":0.07485824849747479,"42":-0.11746338161295126,"43":0.027299875768022445,"44":0.039531400880995826,"45":0.14748883547100125,"46":0.1956206566486002,"47":-0.14091821742947427,"48":0.11401780077156494,"49":0.05047189539381179,"50":0.10551090025835265,"51":0.07768670899108164,"52":0.01789501671480105,"53":0.1079335897976231,"54":-0.00784076864267131,"55":-0.0618681864095475,"56":-0.1268579073285732,"57":-0.03421224308035482,"58":0.20120045459990216,"59":-0.14579783866480717,"60":0.03512943601235478,"61":-0.051600518166874006,"62":-0.08363700723562688,"63":0.11135105496177364,"64":-0.011028154147493877,"65":0.02445196869868251,"66":0.08259077279876889,"67":0.05380222702740937,"68":-0.15754037709083996,"69":-0.04506457413948313,"70":0.1571438056386206,"71":0.03137012057929582,"72":0.010293728410332837,"73":0.0008318193608758511,"74":0.00477333751972462}},{"sx":5,"sy":5,"depth":3,"w":{"0":0.13502730486815348,"1":0.05927928900314967,"2":-0.20214569920918327,"3":-0.14894851944510998,"4":0.20227370094540664,"5":0.04261096859627255,"6":-0.2280976519884231,"7":-0.04901408856844458,"8":-0.08222314057333906,"9":-0.06755661743593568,"10":-0.14559888773062896,"11":-0.06148083752014613,"12":-0.10734699824215416,"13":-0.11683213788001585,"14":-0.26865969227567704,"15":-0.2569433296289498,"16":0.12423263864379552,"17":-0.17862275046014758,"18":-0.2520490853634987,"19":-0.048757750283537585,"20":-0.22058035622010477,"21":-0.3229860142709007,"22":-0.12510810282031537,"23":-0.2589829558857204,"24":-0.25814951871719916,"25":-0.28206304201700827,"26":-0.1328004723621952,"27":-0.04956563592385441,"28":-0.004821081457470833,"29":-0.09379756619284602,"30":-0.13073537756249307,"31":-0.1242717339446077,"32":0.11480933183916564,"33":-0.07140918441847169,"34":-0.037581917555724896,"35":-0.03562852804925831,"36":-0.10472803469324547,"37":-0.16505754790778565,"38":0.28595718471083176,"39":-0.29422037723869604,"40":-0.05271360251043022,"41":-0.1262697186201439,"42":-0.12116850624953383,"43":0.08641882361936985,"44":-0.32067144395673436,"45":-0.1342152606887391,"46":0.005273247561761784,"47":-0.1995219294769168,"48":-0.11603656983610117,"49":0.0855847151306432,"50":-0.14379842850180174,"51":-0.20708861810870063,"52":0.08812891190323784,"53":-0.28207974942016223,"54":-0.24992504311930952,"55":-0.16041877873658283,"56":-0.016292726818061168,"57":-0.2079303052947146,"58":-0.08712312819131589,"59":0.034735307413187345,"60":-0.05904019048559304,"61":0.020253783177583865,"62":-0.15173303876668132,"63":-0.09605106541704593,"64":-0.02765076574061535,"65":-0.07299655835259979,"66":-0.1544674236162508,"67":0.16415892917699584,"68":-0.22137192547552118,"69":-0.061421184605764546,"70":-0.1386551988487895,"71":0.15320055350257697,"72":0.19680522856617144,"73":0.057953191945925915,"74":0.18982867049830832}},{"sx":5,"sy":5,"depth":3,"w":{"0":0.09979841680782349,"1":0.1330894195919767,"2":0.27431675790074084,"3":-0.016428178881243517,"4":-0.20430768217897544,"5":0.31632895431269786,"6":0.21764104968536663,"7":0.017344740697310845,"8":0.1276225300247291,"9":0.010051324306977425,"10":-0.11747847474681518,"11":0.13653995454528634,"12":-0.009672129581138294,"13":-0.08348324301127232,"14":0.2630665672311104,"15":0.005831976036141457,"16":0.015579012120350759,"17":0.007117417641928217,"18":0.01903454550403899,"19":-0.04433493502909901,"20":0.21694834397456308,"21":0.182848580509471,"22":0.10416495597199275,"23":-0.06768263683271918,"24":0.14039797730046064,"25":0.16985086084426954,"26":0.08723653300217832,"27":0.1512153184171071,"28":-0.008776651652412922,"29":-0.03994382682974089,"30":0.14255684161854407,"31":-0.11608562157975016,"32":-0.11240446641993172,"33":0.0909003813120425,"34":-0.2173352791078233,"35":-0.016539433187627565,"36":0.14200428213376062,"37":0.12850811768686835,"38":-0.14623390751419807,"39":-0.27893402521835353,"40":0.21400015808964903,"41":-0.14123765727540308,"42":0.1372309881603417,"43":-0.30561835440603713,"44":-0.39863163986400985,"45":0.049821780175465895,"46":-0.10916460116643154,"47":0.06590294428611414,"48":-0.1104692500781076,"49":-0.16795499008324735,"50":0.11244552715836036,"51":-0.015293902608928595,"52":0.26239803640826354,"53":-0.023857523085997374,"54":-0.08768225557859202,"55":0.003984122615807679,"56":-0.04485475885869858,"57":-0.039217477935538654,"58":-0.2337811578003686,"59":-0.48115899408673984,"60":0.05577845708120884,"61":0.06450553577654408,"62":-0.10446042438860069,"63":-0.24580375041582778,"64":-0.059609703829886555,"65":-0.036570971299035096,"66":0.14012101752069106,"67":0.054874658625863146,"68":-0.005818339679418479,"69":0.0447518020299644,"70":-0.07700832272129672,"71":0.07331200794505202,"72":0.11806674781232065,"73":0.07486641547031567,"74":-0.2340181827819825}},{"sx":5,"sy":5,"depth":3,"w":{"0":-0.1391946110176602,"1":-0.09661533044068923,"2":-0.2541300046448802,"3":0.0596790275612587,"4":-0.06558769177627179,"5":-0.024626978120370714,"6":0.012591106360598946,"7":0.11684200648626768,"8":-0.036695607199734866,"9":0.12988532103608477,"10":0.13205906942024945,"11":0.0981439721571864,"12":0.07260014514227854,"13":0.15169119810361933,"14":0.06531495997281829,"15":-0.06260657245741799,"16":-0.1102377765334321,"17":-0.08239268505864532,"18":0.15773482213036794,"19":0.022183072414162962,"20":-0.1356295092252067,"21":-0.052506087051029104,"22":-0.018333741781591594,"23":-0.13772568429750207,"24":0.013664581812854399,"25":0.15928658739903803,"26":0.22201383297904684,"27":0.05571096846246283,"28":-0.03538757349587366,"29":0.1830949990843999,"30":-0.1327576273627187,"31":-0.012801676435448286,"32":-0.1697876744420907,"33":0.11892356545108478,"34":-0.12881041958211537,"35":-0.11304767757706723,"36":0.1208302839439164,"37":0.13348687773494058,"38":0.2354099353312586,"39":-0.19865598148507702,"40":0.18453855876136896,"41":0.10113996028111101,"42":0.06095469894680552,"43":-0.011378224626502434,"44":-0.04539503178039674,"45":0.09338618664651645,"46":0.03219612849741096,"47":-0.3186230554595385,"48":-0.0483946654717068,"49":-0.29070046552828555,"50":0.080808255874971,"51":0.1109343895369125,"52":0.17101050120145816,"53":0.13578853701326102,"54":-0.004533180422438671,"55":0.1744509404233002,"56":0.07156691838326117,"57":0.05812035859195991,"58":-0.0054046730695944374,"59":0.07834138191619101,"60":-0.06633123613267546,"61":-0.1798079720805068,"62":-0.23340843953472312,"63":-0.13915237917940187,"64":0.14370225375144977,"65":-0.17296263403796366,"66":0.1516643366064734,"67":-0.09251285330882693,"68":0.16345886032257073,"69":-0.16680679220441208,"70":-0.03845269771954639,"71":-0.203839656809086,"72":0.15865704296400795,"73":0.04572833189890929,"74":0.06149389276839009}},{"sx":5,"sy":5,"depth":3,"w":{"0":0.15514721207726542,"1":0.03343723063269195,"2":0.1400198414130421,"3":0.15755667352817979,"4":-0.05625978167013702,"5":-0.023905354893001742,"6":-0.064783527476703,"7":-0.16028662041430297,"8":0.09901732335695622,"9":0.29676374913690834,"10":0.05499875497254996,"11":-0.06889966225399549,"12":0.13464685102606563,"13":-0.08291771481623654,"14":0.18779756866241656,"15":0.07796598968149245,"16":-0.19151635355445462,"17":-0.003912361899678671,"18":-0.01921458651656437,"19":0.15782089231212734,"20":0.20839970168716965,"21":-0.062372674634345766,"22":-0.03755602222593527,"23":-0.08806001402514137,"24":0.2627461209005893,"25":0.17341608419035826,"26":0.028352629286695543,"27":-0.059853126285965744,"28":-0.08576392023627245,"29":0.1344276036549025,"30":0.04683924302681098,"31":-0.15114674555352045,"32":-0.13328045598519278,"33":0.08280295057353367,"34":-0.03722187942056571,"35":0.10417528682688142,"36":0.13933057414126662,"37":0.05582131851801502,"38":-0.07745462046010397,"39":0.28629799020421226,"40":0.07183923537830561,"41":-0.030388367561758275,"42":-0.19631305082053385,"43":0.04069283241424583,"44":-0.08475425963246427,"45":-0.010326415983017114,"46":0.14943592184989746,"47":-0.05956834529228459,"48":0.052883986532595746,"49":0.008078485302044774,"50":-0.012612757381094202,"51":0.009470492293552428,"52":-0.17844966782326432,"53":-0.08644605748325697,"54":0.10042185112811386,"55":-0.08614615711694129,"56":-0.08340101468272992,"57":0.1356777558277388,"58":-0.08214583004862212,"59":-0.24982262757330614,"60":0.2624586755575756,"61":-0.12759190210911323,"62":-0.1502532286995629,"63":0.15930576293755985,"64":-0.22552056952021404,"65":-0.08626548252464077,"66":0.03311556549820798,"67":-0.06950824201142784,"68":-0.06197911491378872,"69":0.14195399489257246,"70":0.24425896100766073,"71":-0.08570366595005151,"72":-0.13616415708932458,"73":0.08068419552469465,"74":-0.2613167784100584}},{"sx":5,"sy":5,"depth":3,"w":{"0":0.06621301782759632,"1":0.017669099459509802,"2":-0.3296875337695297,"3":-0.02905047138508564,"4":-0.005605077181992149,"5":-0.15067624950599995,"6":-0.09547142285372975,"7":0.06430452695808199,"8":-0.00892680853283145,"9":-0.0310954051210823,"10":0.09052176248621994,"11":-0.049167133329182565,"12":-0.06327674769488616,"13":-0.09644200002106339,"14":-0.0744033515519273,"15":0.19002225561387587,"16":0.024668729303289817,"17":-0.06296847047656634,"18":0.038297621226586635,"19":-0.06783001736852043,"20":-0.21780341716300125,"21":0.11328525959198545,"22":0.010940512003688068,"23":-0.10771652043296595,"24":0.37197674999193964,"25":0.061047412247364354,"26":0.21396344360751546,"27":-0.07667915655623538,"28":-0.13576283245051465,"29":-0.28535170045731456,"30":0.21985585430697308,"31":0.2136729650416435,"32":-0.10869832620473072,"33":0.02861145147629619,"34":0.08028130685946942,"35":-0.3685747541504406,"36":0.27416785559885964,"37":0.02033667814124899,"38":-0.05925891679229716,"39":-0.0028881561618799285,"40":-0.028873951557832143,"41":-0.1942590954927497,"42":0.03860906493254915,"43":0.13001526981958436,"44":-0.20374160450877032,"45":0.1664539875888045,"46":-0.17183512340678364,"47":0.025265198746471037,"48":0.28279386908655124,"49":0.022467313569029982,"50":0.07958446596029092,"51":0.21085133044368895,"52":0.14835435712736644,"53":0.16313197063075402,"54":-0.03565880938567607,"55":0.0818591992176157,"56":-0.047422725257943825,"57":-0.03260840416922352,"58":-0.007100449655806928,"59":-0.06224818432453907,"60":0.31079658595938126,"61":-0.18279568213215203,"62":0.13905276671724412,"63":0.10446625286918225,"64":0.011409298524808292,"65":0.08698709346378332,"66":0.18545213237339858,"67":0.18540468314022734,"68":-0.03300910999235461,"69":0.06881634023939547,"70":-0.13194137687690358,"71":-0.06647741289814996,"72":0.12091343590789759,"73":0.025711428530471255,"74":-0.018245426760127206}},{"sx":5,"sy":5,"depth":3,"w":{"0":-0.09533530556152818,"1":-0.11532353216515072,"2":-0.03743398362944186,"3":-0.12161595777564149,"4":-0.044038594897441954,"5":0.07150453333864767,"6":0.0039753456418390835,"7":-0.15499957310912013,"8":-0.14850279798990912,"9":0.08441521310416188,"10":0.05908750775151966,"11":-0.05374951110404298,"12":0.26985627882340174,"13":0.06943319644323506,"14":0.2812252433392844,"15":0.15170112985198228,"16":-0.1526220077846149,"17":-0.3111023520304859,"18":-0.25462287063810846,"19":-0.05048697015327441,"20":-0.06170422330530212,"21":-0.11235332320857164,"22":-0.12174962593776348,"23":0.0027113391544833355,"24":0.03441775889842764,"25":-0.05027505411622146,"26":0.23281565298578577,"27":0.13651204396181754,"28":0.07677662523386397,"29":0.1271891517646576,"30":-0.20577582182858647,"31":-0.06258798597233411,"32":-0.11318743462306559,"33":-0.014669243882858741,"34":0.1001770762555225,"35":0.15688136959690965,"36":0.10817698111135783,"37":0.09543674108235002,"38":-0.10204755814492933,"39":0.13258977125920596,"40":-0.23630130851557996,"41":0.16989933589577946,"42":0.1457363763248381,"43":0.10062336237350668,"44":0.09252432654186002,"45":0.030471400798616644,"46":-0.12420485727043565,"47":-0.09733239344769753,"48":0.026639818479317595,"49":0.09567498570822765,"50":-0.257686692953708,"51":0.06363859073569408,"52":-0.00466514605988938,"53":-0.060400457778810514,"54":-0.05698168171915303,"55":0.16096041532134336,"56":-0.045012088091689446,"57":0.2492646013491756,"58":0.10617251747727384,"59":0.02698167753797163,"60":0.018474250716856568,"61":0.03584054812843615,"62":-0.05855542508891547,"63":-0.10575024101952595,"64":-0.05845756830324124,"65":-0.07533566750163913,"66":-0.0498399897358294,"67":-0.044107726393073664,"68":0.06820708189435157,"69":0.0641487990038064,"70":0.02516896169192925,"71":-0.03821824836539555,"72":0.009556244992267761,"73":0.02200172298116674,"74":0.08135792180657929}},{"sx":5,"sy":5,"depth":3,"w":{"0":0.02722651149712671,"1":0.14431942359610206,"2":-0.10737552555326751,"3":-0.06369749214315268,"4":0.11425326557348171,"5":-0.19564750374627357,"6":0.19823571525265166,"7":-0.0021017730939349444,"8":-0.05452885437005931,"9":-0.1115558912950578,"10":-0.2533343148867539,"11":-0.18476433511440918,"12":-0.13040201499978885,"13":-0.13581781592468978,"14":-0.35644569009033256,"15":-0.06708931950060029,"16":-0.11529976259861233,"17":-0.10927362934184924,"18":0.14755862030337155,"19":0.057766154837740405,"20":0.16472188095683882,"21":-0.34005663415570114,"22":0.15284839473052506,"23":0.1736950748124626,"24":-0.1408996978218682,"25":-0.09747425896478294,"26":-0.1403652584356421,"27":0.09429312277396702,"28":-0.010276383245334243,"29":-0.18365199163144394,"30":0.03411062576026006,"31":-0.04260303990057337,"32":-0.03915180488232414,"33":0.05692135501725342,"34":-0.07227288998942415,"35":-0.0975002072411327,"36":-0.0266118289484267,"37":0.0613655143636684,"38":-0.03862109975463079,"39":0.2120614129215926,"40":0.07916625269281916,"41":0.16434865354710662,"42":0.08732140727565497,"43":0.011125581237198761,"44":0.02700426986910918,"45":0.19829796093439372,"46":0.03579124815717292,"47":0.03683164252890063,"48":0.07643791833185318,"49":-0.05124228915798316,"50":-0.10927708793465801,"51":-0.054738445536381186,"52":0.020211316418774064,"53":0.24953160592880366,"54":0.06373602709663519,"55":0.077164891094106,"56":0.17821350576853323,"57":-0.026444973909773087,"58":0.0670495342678352,"59":0.019622245743797898,"60":0.04646293953994753,"61":0.0315182362175344,"62":-0.060550340796777555,"63":-0.2537130762704913,"64":0.12420621013038322,"65":-0.00815046703414163,"66":0.14804407806752448,"67":-0.09213516634999665,"68":-0.22992910952658688,"69":0.11743185573535445,"70":0.10858533352720248,"71":0.014613122545868426,"72":0.20017164634184248,"73":0.15737321067529025,"74":0.14959418677975037}},{"sx":5,"sy":5,"depth":3,"w":{"0":-0.2523824158648515,"1":-0.12832539037133608,"2":0.08602259463646594,"3":-0.2330946062499761,"4":-0.05857925115685502,"5":-0.005644388692275452,"6":-0.22980148431860498,"7":0.02453807435972847,"8":0.012076641945971708,"9":-0.23402057525188968,"10":0.06652854713375407,"11":-0.15861305275487417,"12":-0.015786204489649774,"13":-0.008746386723333721,"14":-0.2509936383779528,"15":0.0901946117090149,"16":0.06204487154879186,"17":-0.1260231401578884,"18":-0.10295749073292798,"19":0.10240268710424003,"20":0.003602020587304083,"21":-0.10945186369166625,"22":-0.058966683606248856,"23":0.11694243509581922,"24":-0.11744452662229722,"25":-0.10190720856300979,"26":0.06563137873632519,"27":-0.019381464903967856,"28":0.22165104023449114,"29":-0.07943787824379994,"30":-0.13959109254942687,"31":0.06985455448989167,"32":-0.03908294876568224,"33":-0.02873019362766979,"34":0.14346978181634062,"35":-0.1637040943218491,"36":-0.15445487616700748,"37":-0.223799370557326,"38":0.18767556421613155,"39":0.12095931725714267,"40":0.07905979068987065,"41":-0.1816439457528896,"42":-0.10014712246803655,"43":0.0909553646619784,"44":-0.21838342815250406,"45":-0.1207445511092949,"46":-0.008550638375159902,"47":-0.06250607976407717,"48":-0.170465594874633,"49":-0.033072369441921344,"50":-0.23038705276897775,"51":-0.18791279803316346,"52":-0.15227663782404718,"53":0.07903570998588183,"54":-0.1486204986077755,"55":-0.0106627773196286,"56":-0.24041772515022333,"57":-0.024362115644042004,"58":-0.15956305738332766,"59":-0.06571886711732719,"60":-0.07705571936121282,"61":-0.01361641665118597,"62":-0.2751333692586748,"63":-0.21515058667752104,"64":-0.1401275910030206,"65":0.061386173669173545,"66":-0.10537092116362753,"67":-0.135425490320483,"68":0.1171082168861705,"69":-0.07004591521599349,"70":-0.05613395660480972,"71":0.0612493585044832,"72":-0.09910432097789965,"73":-0.18269878805948303,"74":-0.08740646297985824}},{"sx":5,"sy":5,"depth":3,"w":{"0":0.053525157199782916,"1":-0.1805059851682359,"2":-0.4591227394280026,"3":0.005198882870180312,"4":-0.19013413391984246,"5":-0.35994089127380485,"6":0.21259153502660214,"7":-0.031070151963464965,"8":-0.022568685968743982,"9":0.24447250009165844,"10":0.1898853256897296,"11":-0.07282975050256618,"12":0.14752240149035115,"13":0.2023151020671066,"14":-0.18334113745174227,"15":-0.32288275391328725,"16":-0.12944860564350108,"17":-0.10788732721624578,"18":0.33578773440841464,"19":0.10520792821578509,"20":-0.04667595911536203,"21":0.0008543863584937433,"22":0.024903970029885748,"23":-0.12428850524027858,"24":-0.09704680746209737,"25":0.22943632809875772,"26":0.1395834056566349,"27":0.072801532569727,"28":0.11667232072536883,"29":-0.05012633348268664,"30":0.04786371961747664,"31":-0.38436346608532407,"32":-0.04017145335141594,"33":0.06146398190600919,"34":-0.07157026823425339,"35":0.032314598592029,"36":0.2938550585462682,"37":0.06883088525863133,"38":0.15165436595635948,"39":0.18305918870655938,"40":0.0964427008242857,"41":-0.14318452232850448,"42":-0.059639068320111885,"43":0.0235221847204946,"44":-0.04810073473004363,"45":0.08701158283166983,"46":0.23410552933966278,"47":-0.041976709281818465,"48":0.20645598735464948,"49":0.051328577152238174,"50":0.04675097323495209,"51":0.11630159424488665,"52":0.08601922806189775,"53":-0.02591459206863551,"54":0.2478003505418479,"55":0.19704360888142353,"56":0.14159157425742963,"57":-0.1288306742372624,"58":-0.1563803796968454,"59":-0.008979201952769824,"60":0.18437594445271122,"61":0.11066600049317663,"62":-0.1346344682358837,"63":-0.10073458973327677,"64":0.18951268682202568,"65":-0.06939582919723332,"66":-0.0343513618002069,"67":-0.03840208279818206,"68":-0.12653491314078977,"69":-0.06529278842615138,"70":-0.018112432231610753,"71":-0.15095004660211664,"72":0.12020124728760156,"73":0.15049008511997408,"74":-0.24765835337981865}},{"sx":5,"sy":5,"depth":3,"w":{"0":-0.13463246575186408,"1":0.23492934910916946,"2":0.10647463969815943,"3":-0.042026415720918704,"4":0.2252695117377458,"5":0.14552538742203083,"6":0.26244578155663706,"7":0.0624392506897304,"8":0.09539378766389633,"9":-0.2066765473302422,"10":-0.11626813205269798,"11":0.21423837547824687,"12":0.06878320886650992,"13":0.015231835455854178,"14":0.08095184178051003,"15":-0.051875316778552706,"16":-0.0001971008052929273,"17":-0.021221051949744527,"18":0.09547296978694537,"19":0.24219642440371283,"20":0.07700973890775113,"21":-0.0845809807790017,"22":0.21428962253064016,"23":0.2269434026758343,"24":-0.08033885343598296,"25":-0.00254183996908193,"26":-0.03882859272380573,"27":0.045167849398946004,"28":-0.12513351260959216,"29":-0.05437204637808809,"30":0.06216058762498742,"31":0.08722968373657738,"32":0.048079502345887704,"33":-0.028581917614880728,"34":0.2677303415595507,"35":-0.0369940655238541,"36":0.10350901160118477,"37":0.006801418526818444,"38":0.24729269165477802,"39":0.33288169344661833,"40":0.20685020263204348,"41":0.20594375515716665,"42":0.10909846173212334,"43":-0.06775503798309143,"44":-0.18497641937283874,"45":-0.03381024215954318,"46":-0.1318843592679654,"47":-0.14180369334032691,"48":-0.1731677036065149,"49":-0.22987255967063341,"50":-0.09620829396438325,"51":-0.04998731071780445,"52":-0.09030238977296311,"53":-0.040201629856397185,"54":-0.04798782498897508,"55":-0.14473878336225587,"56":0.10699916910821297,"57":0.1573514981222524,"58":0.11746385810577528,"59":0.1760631723327454,"60":-0.14818785007565724,"61":-0.2028575673196107,"62":-0.3418745481019885,"63":-0.047312623016779076,"64":-0.037110687799033884,"65":-0.41322825985552647,"66":-0.20256650491974504,"67":0.175615475661671,"68":-0.2519044269916136,"69":-0.05196087139106936,"70":-0.12013003602318983,"71":-0.23764380943509114,"72":-0.034461809255530655,"73":-0.2883507167474041,"74":0.007261516672557594}},{"sx":5,"sy":5,"depth":3,"w":{"0":-0.05502798894820213,"1":0.13201937381133186,"2":0.16851038428059203,"3":0.05553833341968071,"4":-0.002092195921020364,"5":0.1035048573237308,"6":0.08822124139350244,"7":0.06135505556115905,"8":0.29897260180110186,"9":0.08981584306676792,"10":0.20339483051828705,"11":0.010122131930789223,"12":-0.0017499684265415182,"13":0.0742739013314069,"14":0.18829151027018867,"15":0.010565853968764903,"16":0.03163198144882603,"17":0.03965490241928497,"18":0.01877932384246504,"19":-0.24057884648538766,"20":-0.12633539767315136,"21":0.09821340351347976,"22":-0.18011072185383395,"23":-0.389336589285908,"24":0.08984139478578539,"25":-0.15447038019748047,"26":0.08112835580567503,"27":-0.06675465611853368,"28":0.0728871608962152,"29":-0.07199602036252657,"30":0.012186533674630143,"31":-0.053725696780587556,"32":0.12625755829505247,"33":0.02895102887930439,"34":-0.12171369930449365,"35":-0.13777517581601306,"36":-0.14060639652718598,"37":-0.2683651281090278,"38":-0.1846383027489911,"39":0.042183818858118706,"40":0.08653101237491317,"41":0.11978936806904976,"42":-0.06348306595869191,"43":-0.025076796154692813,"44":0.11742140194243998,"45":-0.19479211994496934,"46":-0.015663716400272556,"47":0.030314824004281586,"48":-0.12455877130891688,"49":0.0869593282662505,"50":-0.06792090658159715,"51":-0.06393229262495183,"52":-0.23538477416950368,"53":-0.1582966994329215,"54":0.03989572853533636,"55":-0.05563512500077833,"56":-0.002517335020370567,"57":0.014970541838682563,"58":-0.05236977646552756,"59":0.23381019024496125,"60":0.09114004085905578,"61":0.05437296207838735,"62":0.011020619333129566,"63":0.027621137242195268,"64":-0.017696982563906193,"65":0.052736782780674306,"66":0.020856744445367753,"67":-0.08782095693501586,"68":-0.3064426338416234,"69":0.011186528425682919,"70":-0.0856677047264061,"71":-0.11807420006208932,"72":-0.16404981472475902,"73":0.07297583377232965,"74":0.13258845391029472}},{"sx":5,"sy":5,"depth":3,"w":{"0":-0.10143869429199745,"1":-0.13386901193537296,"2":-0.23636956747321825,"3":0.037369801931239,"4":0.03581740378054643,"5":0.010235436164304893,"6":0.09870562336801544,"7":-0.02072329554589953,"8":0.059718561247463844,"9":0.06338187880224573,"10":0.08905745363766134,"11":0.0031162603733698086,"12":0.2500957642978109,"13":0.10676343220763373,"14":0.3193048912835757,"15":-0.03745624976722855,"16":-0.13506636149202356,"17":-0.2075786818779168,"18":-0.04398679064909443,"19":-0.18066640147709442,"20":-0.12296628908900208,"21":-0.02893871014643091,"22":0.09123503379929947,"23":0.04487919697927792,"24":0.12406000352696413,"25":0.04710792315368409,"26":0.1998310389048398,"27":0.3783682976607877,"28":0.14462900255918734,"29":0.11829560049509204,"30":0.07285859782078957,"31":-0.09185093838642255,"32":-0.16623455380525393,"33":0.2283648391462857,"34":0.1524992893502151,"35":-0.07023403293674946,"36":0.18697462904011197,"37":-0.07765074188386432,"38":0.021898582587529053,"39":0.051261444882703525,"40":0.0768562772246764,"41":-0.048840994579792865,"42":0.11889949976222443,"43":-0.03192528641376689,"44":-0.028793201599201564,"45":0.09309044842992534,"46":-0.17525281435638196,"47":-0.09592067734818892,"48":-0.022331407610115765,"49":-0.09548462598085038,"50":-0.03696246796569536,"51":-0.05581490218116227,"52":-0.022231838362269198,"53":0.004287472502357966,"54":0.21707968145599996,"55":0.1401851647242006,"56":0.1688730897130543,"57":0.033281735793172465,"58":0.14489328186651917,"59":0.11159059984879822,"60":-0.004896769048647153,"61":0.13462551659393296,"62":0.07105913344666304,"63":-0.1558269018867767,"64":-0.2245681111494794,"65":-0.18276210871028642,"66":0.05394799441521073,"67":0.11787297170893372,"68":-0.09563396261166547,"69":-0.04106033012440709,"70":-0.04709266290736034,"71":0.03107749048177146,"72":-0.0021050093656763626,"73":-0.13285727136532052,"74":0.08263445450435745}},{"sx":5,"sy":5,"depth":3,"w":{"0":0.004953798453949928,"1":0.038086782207451285,"2":-0.05945789068893687,"3":0.02482079314554595,"4":0.2603673456500509,"5":-0.10390785360588287,"6":-0.006662343454078316,"7":-0.025953102264605635,"8":-0.0864214291638655,"9":-0.10804048242229793,"10":0.2509947850233689,"11":-0.17115672770321452,"12":-0.00029573413415761804,"13":-0.11994470713965869,"14":-0.1214217337975447,"15":0.037632016802955685,"16":0.13379861034219928,"17":0.14160820460388848,"18":0.1003380748853466,"19":-0.151756462641587,"20":-0.24887037801230547,"21":-0.016705499696525204,"22":-0.10668535167709804,"23":-0.2872364462096795,"24":-0.016993517598181424,"25":0.01969507058886578,"26":-0.2785057604121831,"27":0.30613189837009575,"28":-0.0024914717225013702,"29":-0.1800072074148241,"30":0.12061575869923678,"31":0.030810996755200378,"32":0.14926573904873838,"33":0.22511422310539544,"34":-0.2597878843594856,"35":-0.031440573661610294,"36":-0.14468657338188667,"37":-0.14404998664515595,"38":-0.3133001669711396,"39":0.06410565478245502,"40":-0.07495542580937313,"41":-0.18206104872096265,"42":0.23118521180142856,"43":-0.022645141302267427,"44":0.20924102526207208,"45":0.34540015098784127,"46":-0.04740469128334109,"47":-0.011856382219766273,"48":0.03489940990198386,"49":0.06276714966427953,"50":0.13064475214373988,"51":0.28678207553941576,"52":-0.09673152238129926,"53":-0.34203207988124207,"54":0.3317713190656982,"55":0.29078322922708066,"56":0.10357483692893812,"57":0.24295420225270956,"58":0.14637451183074046,"59":0.2775652584101743,"60":0.011158292082755556,"61":0.030080138483129945,"62":0.03459164114134723,"63":0.03362185140501162,"64":-0.13691664222775626,"65":-0.18767702148799054,"66":0.30410527111483737,"67":-0.19721401558044677,"68":-0.2821008201285919,"69":-0.056554171151665354,"70":0.1988611675434567,"71":0.1540890795616844,"72":0.35032102801613596,"73":0.016656217566001514,"74":0.10916933865327907}},{"sx":5,"sy":5,"depth":3,"w":{"0":-0.05025731900332972,"1":0.19574095476443695,"2":0.1254166660817353,"3":0.0023916974827766363,"4":0.0015379412087565632,"5":-0.3215998140131821,"6":-0.3290764749219494,"7":-0.42707893981215767,"8":-0.569495028874121,"9":0.012298384510285226,"10":-0.18037145662148507,"11":-0.3342809859243594,"12":0.1499305080877373,"13":-0.06842476498577497,"14":-0.010032634918004423,"15":0.13155145615941022,"16":0.27782638711461705,"17":0.007567691415064391,"18":0.18226785318728228,"19":-0.015914293565176776,"20":-0.11108784147886051,"21":-0.09884722457743267,"22":-0.04164157809021744,"23":-0.26488884942415125,"24":-0.10169040608070365,"25":0.10929397514044437,"26":-0.15159946497505314,"27":-0.060352036994071635,"28":0.04639126433488517,"29":0.03189771110871773,"30":-0.05860453355877699,"31":0.1416581087903854,"32":0.07420806581014132,"33":0.12527684621687768,"34":0.1120316967618517,"35":0.018776060405371414,"36":0.014612926329724977,"37":0.06217729440420207,"38":-0.07631749271338727,"39":0.08766579332104442,"40":0.023096557066134338,"41":0.22562498852186155,"42":-0.09767289814979285,"43":-0.0933287871744445,"44":-0.11937376757685582,"45":0.016320027908668405,"46":-0.009377253830708452,"47":0.04386528202419442,"48":-0.212486982096081,"49":-0.12765553111828948,"50":-0.12311941642559994,"51":-0.05650143250986914,"52":-0.15246479319217313,"53":0.17487527175782444,"54":0.1275750704499872,"55":0.12132067075693417,"56":0.16360044193508805,"57":-0.0870863697680942,"58":0.30440692522567164,"59":0.11175357109759,"60":0.10985587280413446,"61":-0.21861781261084412,"62":0.2993356856763917,"63":0.0004770034144496668,"64":-0.03266141826098328,"65":0.18457921045757636,"66":0.1320563056263986,"67":0.12459994742767952,"68":0.17670649645115066,"69":-0.16104163531706706,"70":0.04540928698652637,"71":0.00690954947967147,"72":0.21341519799891093,"73":-0.03612549304796177,"74":-0.030751629264711818}},{"sx":5,"sy":5,"depth":3,"w":{"0":-0.07192203462320328,"1":-0.048127417265051556,"2":-0.04348814681835756,"3":0.27783230868414693,"4":0.048078498607796664,"5":0.026900218969819253,"6":0.2557101002984787,"7":0.22168109059896232,"8":-0.2979246526944177,"9":0.0027050569113228535,"10":-0.0555522369594377,"11":-0.27513073870278465,"12":0.09990233837329138,"13":0.03241626635923976,"14":-0.34290006302682446,"15":0.2157776839360622,"16":-0.016700203957080165,"17":-0.02565958608982828,"18":-0.10770851163512546,"19":-0.025268521203383333,"20":-0.13733025778892008,"21":0.30920612358272037,"22":0.04233085001621997,"23":-0.054076984419920635,"24":-0.04947350006761036,"25":0.2921740676960839,"26":-0.4305033874811206,"27":0.06251504155143407,"28":-0.006060232448409888,"29":-0.12747832857413857,"30":0.2518112246818985,"31":0.15836813986410028,"32":0.11771341909165653,"33":0.19765416497995875,"34":-0.14073483664633787,"35":-0.048175176723455365,"36":0.04043031721994334,"37":0.1448806079886752,"38":0.025029261566916254,"39":0.2247257105801651,"40":-0.034195383434923655,"41":-0.08933908585022929,"42":0.208580536584584,"43":-0.165063107704138,"44":-0.20852861732888797,"45":-0.05272361586237608,"46":-0.29390902740289715,"47":-0.216784379912933,"48":-0.13550449495472228,"49":0.2022603448087855,"50":-0.49465956039985476,"51":0.08961331658664157,"52":0.07786933688132729,"53":-0.21173217655275808,"54":0.13870138641887989,"55":-0.004299389005124132,"56":-0.25315735581562826,"57":0.16136080723561602,"58":0.27762298863602414,"59":-0.018748289739126966,"60":-0.015063764124453408,"61":-0.09926423720636299,"62":0.29392370099511295,"63":0.13299699430096576,"64":0.283872174241216,"65":-0.1144827684768643,"66":0.12279631361153263,"67":0.3105648299417063,"68":0.04080709925548591,"69":0.15007204857354295,"70":0.009711927769860297,"71":0.1807438710199807,"72":-0.0407763710872259,"73":0.16702449825493157,"74":-0.21075032158673634}},{"sx":5,"sy":5,"depth":3,"w":{"0":-0.2190792419970198,"1":-0.11011492600777957,"2":0.016186284099125443,"3":-0.17042183027284266,"4":0.13316129674264357,"5":0.04681887477966191,"6":-0.09863255685747062,"7":-0.015326921061286948,"8":0.11712826387531895,"9":0.14410390475489696,"10":-0.04171647338416283,"11":0.142142219150896,"12":-0.034442037353099884,"13":-0.08708279836987598,"14":-0.03444010406801951,"15":0.16348938461046134,"16":0.1413389554075109,"17":-0.061448335511033084,"18":0.11396618611461456,"19":-0.05645355364271578,"20":-0.027675399098405495,"21":0.15376903321797789,"22":0.2549163242415628,"23":0.08692622589192504,"24":-0.00699674992656385,"25":0.029248463824006147,"26":0.0881828468563341,"27":0.021373278701460573,"28":0.1224634873299795,"29":-0.03745197907662602,"30":0.1340495426236333,"31":-0.10656681984593082,"32":-0.01565979261836134,"33":0.060380306367726726,"34":0.04967499226990564,"35":0.19852129863118934,"36":-0.010821719986023735,"37":0.08574770042603447,"38":-0.19013236706325,"39":-0.10946400370137824,"40":-0.10720584575258472,"41":-0.0042743581346698254,"42":-0.11981527374732648,"43":-0.08829401316894593,"44":-0.22403734138373224,"45":-0.06368920116453089,"46":-0.024444468596209176,"47":-0.0648575073947842,"48":-0.23660733396822964,"49":-0.011450247708417698,"50":-0.08844746895082818,"51":0.10968383980127508,"52":-0.016746259061302463,"53":-0.055222241176663744,"54":-0.052300831001902595,"55":0.1412305553660039,"56":-0.031241609917744374,"57":-0.04518897469274703,"58":0.10773850699954923,"59":-0.24503242545327758,"60":-0.21460951665074748,"61":0.09443029230471939,"62":-0.12595359278049514,"63":0.06015309682811593,"64":0.1373554485877157,"65":0.03860471507540434,"66":0.1895759945877573,"67":-0.1431422147265095,"68":-0.05263433779983558,"69":-0.17007689555362904,"70":-0.19297152969465248,"71":-0.27135337925742303,"72":-0.03426768184066358,"73":0.008426515851448525,"74":-0.13275021899235087}},{"sx":5,"sy":5,"depth":3,"w":{"0":0.17167708577160717,"1":-0.08045279729105703,"2":0.034148007294184844,"3":0.014862703208373663,"4":0.022193209985143975,"5":-0.0856145932625046,"6":-0.18464548006957257,"7":-0.048856939898457866,"8":-0.15031884803874887,"9":-0.07877487883123391,"10":0.031086328955714247,"11":-0.08381725754755807,"12":-0.04711662926715397,"13":0.152200537343972,"14":-0.010882128939481404,"15":0.4719466480569246,"16":-0.039031027893219356,"17":0.043573738070109926,"18":0.01669044639911919,"19":0.11573205097012787,"20":-0.21782996037818206,"21":0.03483652059715543,"22":-0.031132865363978385,"23":0.10643834583790314,"24":0.13872544958388192,"25":0.09134249301365459,"26":-0.35414281556847976,"27":0.14374126236866877,"28":0.19789485157178088,"29":0.07035070830802678,"30":0.05900769135799607,"31":-0.04772072194533859,"32":0.07102129066268006,"33":-0.06581674592174899,"34":0.24596113917216178,"35":-0.03729180859019792,"36":-0.01385162954155644,"37":0.22340129800586417,"38":-0.001986969752614479,"39":0.13767982745971527,"40":-0.21268911370079924,"41":0.06292777059282098,"42":0.20669226042742472,"43":0.28213708618363587,"44":0.048482933875268475,"45":0.020722734330043284,"46":-0.1766688633524983,"47":-0.0941626012430619,"48":0.0006137150146426628,"49":-0.06036118897088733,"50":0.08832318881680454,"51":-0.026284490723026164,"52":-0.04612246895702476,"53":-0.07708648458749177,"54":0.013776756067730316,"55":0.0073908908589385685,"56":-0.07644964728735829,"57":0.045473741462839716,"58":-0.044355796142983586,"59":-0.15907488083659438,"60":-0.022456151668935602,"61":0.09821878220940027,"62":-0.09504159622744818,"63":-0.12555331735644423,"64":0.06168507583177888,"65":-0.005052230959536721,"66":0.08252944535756858,"67":-0.2523113764692778,"68":-0.06368749016448821,"69":0.06895851446552831,"70":-0.023145024364106582,"71":0.08372861550646592,"72":0.09113665011325517,"73":-0.10287835070368288,"74":-0.04966060964687626}},{"sx":5,"sy":5,"depth":3,"w":{"0":0.053577642694143286,"1":0.18527303116618649,"2":-0.07601458001812808,"3":0.066679819846873,"4":0.0723417869514392,"5":0.050490274807403146,"6":0.14061617332923063,"7":0.15829338495219206,"8":-0.09628498568306965,"9":-0.20376363191914107,"10":-0.14728372538263415,"11":0.012040997971009828,"12":-0.005945213633514471,"13":-0.16109513484429308,"14":0.05172844018329494,"15":0.3026809420712164,"16":0.16881483739103753,"17":0.09315704089143362,"18":-0.1645140163526386,"19":0.13128196064831565,"20":0.15552802967704496,"21":0.0854849880535743,"22":-0.08958847646807247,"23":0.006071752607960599,"24":-0.028925446750345536,"25":-0.1784701385110982,"26":-0.3242631626465848,"27":0.03927782664960786,"28":0.13948688649684246,"29":-0.21290322379339557,"30":0.015660306627282686,"31":-0.13957121258237892,"32":-0.36529972987427095,"33":0.1728881492178889,"34":0.0758014962364878,"35":0.06103104649870085,"36":0.18941150977261426,"37":0.2535395026596956,"38":0.07892230239750846,"39":0.07508952220947582,"40":-0.0829875853737887,"41":-0.158880798416662,"42":0.4336586570191126,"43":0.030188228892236817,"44":-0.19311074486510046,"45":-0.058433126817307605,"46":-0.046227267895689136,"47":-0.07608534536454573,"48":0.06948960218237751,"49":0.00020467500613925065,"50":-0.029436052496553112,"51":0.16372599241036132,"52":0.13267748658494039,"53":0.02760665836621945,"54":0.035272556092654936,"55":0.012048101446701877,"56":-0.062407849602165916,"57":-0.018642075628527276,"58":-0.002286972275369439,"59":-0.08101717515363471,"60":0.06076598680976984,"61":0.06382023206215977,"62":-0.07502466047218927,"63":0.03171595790652533,"64":-0.256453755481866,"65":-0.08364954873068914,"66":-0.04305776091936426,"67":-0.014683782548976655,"68":-0.12928730256272916,"69":0.10149183517135489,"70":0.05581060647961576,"71":0.0427495342960086,"72":-0.01232024262652382,"73":0.03991974988493896,"74":-0.027272022492358727}},{"sx":5,"sy":5,"depth":3,"w":{"0":-0.23669064308359974,"1":0.10866846669391297,"2":0.2785300101638009,"3":0.19443538607898475,"4":-0.15720958149256353,"5":0.3842645439051223,"6":0.17241257026750467,"7":-0.0008333438621968671,"8":0.10010189770443192,"9":0.2401420402000852,"10":-0.10663280060433093,"11":0.2672988387434207,"12":-0.19593014282261859,"13":-0.08883831875561238,"14":-0.4724164842832696,"15":0.13449199209456728,"16":0.1774236445492869,"17":-0.0736468372712277,"18":-0.0597579168495144,"19":0.26029129639901943,"20":-0.13679791498557403,"21":0.1006569240557969,"22":-0.15357068984615616,"23":-0.20439100585487538,"24":-0.1381141326031554,"25":0.13658401317025212,"26":0.09386897174535978,"27":0.006146317499990127,"28":0.1015925688706027,"29":0.0010491540475468318,"30":0.05014510290791402,"31":-0.10343737134476629,"32":-0.003845063125562184,"33":0.010824943417321608,"34":-0.1217197026771314,"35":-0.20697146168976688,"36":0.20692730467158843,"37":-0.10989354294391972,"38":-0.06374272580152616,"39":0.21082646215171405,"40":0.013011666692816568,"41":0.05894543924302658,"42":0.2592176661677446,"43":0.12611738246751647,"44":0.07106799026246453,"45":0.16045476948042342,"46":-0.19127044689290545,"47":-0.06989470739006538,"48":-0.07263564327241076,"49":-0.16978507814949956,"50":-0.1292065684584546,"51":-0.08681261303215991,"52":0.026096026707844323,"53":-0.044825442145745506,"54":0.05633262426916183,"55":-0.016089637791802024,"56":-0.2162998395213051,"57":0.009240834225004562,"58":0.06612610389587352,"59":-0.004818228294164409,"60":-0.19736560389873414,"61":0.20035542279486468,"62":-0.1084027292227833,"63":-0.06749597172218166,"64":-0.052118027077781716,"65":0.011136747742530744,"66":-0.02199064194226349,"67":0.22280201673408478,"68":0.16130923436817896,"69":0.0598025138876654,"70":-0.09388787332201635,"71":-0.07687194672060635,"72":-0.019624442719707196,"73":0.18598525562038462,"74":0.022293067550069188}},{"sx":5,"sy":5,"depth":3,"w":{"0":-0.13535069076241224,"1":0.1774578870177014,"2":-0.021546390268681003,"3":0.00893863508647786,"4":-0.23884239357046064,"5":-0.24086747542466105,"6":-0.2725733889020659,"7":0.034509964270298864,"8":0.06114000455850922,"9":0.09860001268510384,"10":0.0363415969300854,"11":0.09273466297709422,"12":-0.0675403624214304,"13":0.16336470622342802,"14":0.20778404832795042,"15":-0.19757946723843753,"16":-0.043954923164486355,"17":-0.02215348145452337,"18":0.22962982490551564,"19":0.03594951752219076,"20":-0.0495296909763702,"21":0.040473183876206215,"22":0.16297582126482293,"23":0.14858250892727543,"24":0.1020900805553604,"25":0.04179260699903404,"26":-0.0981828331107646,"27":0.0060979477503166095,"28":0.1574637926475224,"29":0.16748428747850183,"30":-0.01789945605874087,"31":-0.10971597526072693,"32":-0.18018424470470573,"33":-0.02028307392514741,"34":0.12019095767378736,"35":-0.06691909699381883,"36":-0.010457387511205878,"37":0.001062422688859372,"38":0.12438258402074454,"39":0.1524985381406001,"40":0.0067546877562577375,"41":0.11823124713032723,"42":-0.0050887244613491206,"43":0.020727635989810457,"44":0.16515268434121974,"45":0.056675465716025504,"46":-0.3255606573021396,"47":-0.2910670081742945,"48":0.027992895442600304,"49":-0.06330166506156354,"50":0.062182762291974385,"51":-0.006664111543364328,"52":0.017809744327495037,"53":-0.08016447054945715,"54":0.053221902555649944,"55":-0.09027385344856934,"56":0.10582551336731678,"57":0.3002777396348841,"58":0.12651566884587506,"59":0.0003394682198131593,"60":-0.19717152257663054,"61":-0.004949012256547371,"62":-0.032543973954258454,"63":-0.25297789937367415,"64":0.11271995477677049,"65":0.19137295010685768,"66":0.0002161172181694168,"67":-0.1407032535043877,"68":0.25972560192867966,"69":0.05481970799978275,"70":0.06882868238492156,"71":0.045912165733959516,"72":0.22992350969191006,"73":0.020827705669978876,"74":0.0007543255857578751}},{"sx":5,"sy":5,"depth":3,"w":{"0":0.0016701660835342933,"1":-0.01786455556882518,"2":-0.12706978824880233,"3":-0.00929127351785356,"4":-0.023775404580980444,"5":-0.04124251696517599,"6":-0.2339037855223866,"7":0.025419995626395155,"8":-0.11474675054935635,"9":-0.14864696898973376,"10":0.09825649620530587,"11":0.018980118829088965,"12":0.044703949598314155,"13":-0.07891758352243793,"14":0.1591663923542545,"15":-0.16965449548391784,"16":0.09572910365519313,"17":-0.15387149266239408,"18":0.1151232667726712,"19":0.19442368235723112,"20":-0.10968702258053362,"21":0.013486393965551888,"22":0.07319455000278322,"23":-0.1511134459635609,"24":0.11893768840525852,"25":-0.19378952183279188,"26":-0.09744902605238762,"27":0.16015784340188946,"28":0.02228740199102198,"29":0.04802586699699181,"30":-0.05299022210298115,"31":-0.09926996754417021,"32":-0.3810448367125786,"33":0.028022930811756046,"34":0.060635940209149135,"35":-0.09253007712902264,"36":0.14561367013516313,"37":0.026304260475929975,"38":-0.380296712788042,"39":-0.13650754890805172,"40":-0.0035953269631038578,"41":-0.17329496669450384,"42":0.07946447597929912,"43":0.07876188610031165,"44":-0.2254919628628272,"45":-0.09422109039642337,"46":-0.08588280107898243,"47":-0.2916780015589985,"48":0.05085305546027989,"49":-0.2161124895279058,"50":-0.172767939472667,"51":0.04581049223592971,"52":-0.11155334592069746,"53":-0.05469403234341501,"54":0.13841328449354937,"55":-0.000311461704230236,"56":-0.030152584271883602,"57":0.013464643960111107,"58":0.0748396540565281,"59":-0.04312732881539163,"60":0.08285393682878095,"61":0.14715865941015094,"62":0.20018239086245956,"63":0.05248010201104224,"64":0.15405039036917206,"65":0.21442776130422406,"66":0.08628774241894033,"67":0.057815604636166626,"68":0.347441970096464,"69":0.2722076198566684,"70":0.0980975583074658,"71":0.17474423766950306,"72":0.2937995344595479,"73":0.009779429106196653,"74":-0.08764756623474995}},{"sx":5,"sy":5,"depth":3,"w":{"0":0.016447889400608803,"1":-0.18372340705711396,"2":-0.13344016738845854,"3":-0.08867533404125719,"4":-0.1903868819558479,"5":-0.20931255115026798,"6":0.07234029948511236,"7":0.04391816812626295,"8":0.11111809159639263,"9":-0.1254448451513045,"10":0.10523495340610593,"11":0.18601203370227712,"12":0.07619077596323948,"13":0.15974633926205695,"14":0.1663872152404971,"15":0.05518948312895544,"16":-0.25632575781986966,"17":-0.5136103595698097,"18":-0.12052986896807155,"19":-0.10183206702704581,"20":-0.3415669652419041,"21":-0.03335918965340597,"22":0.08571003990521758,"23":0.07607042509288287,"24":-0.09215510759767112,"25":0.005252751230042594,"26":0.15528374457232985,"27":0.12960902911827923,"28":-0.12410994876036263,"29":0.28498371844263704,"30":-0.05253000878176856,"31":-0.001614687716939584,"32":-0.11800206813098367,"33":-0.011505601691425326,"34":-0.04416242389418039,"35":-0.04768761611575427,"36":-0.06280790202439514,"37":0.034319978160845026,"38":0.06763891307242165,"39":0.11503336996331442,"40":0.011459347829271228,"41":0.24937254137913742,"42":-0.047540003927636215,"43":-0.0091500179161321,"44":0.11727841124822225,"45":0.13823531389523913,"46":0.07638270868794964,"47":-0.05894910147549635,"48":-0.04038015224023362,"49":-0.0985418764160996,"50":0.04387448407032677,"51":-0.09628673621897903,"52":-0.058836142046474145,"53":-0.006911443411790291,"54":0.031431641179585114,"55":-0.16726956226157946,"56":0.000429512630576901,"57":0.04220121640420952,"58":0.0025484380745045524,"59":0.12444773554577332,"60":0.2981320473036312,"61":0.10824633338491124,"62":-0.10208707356685574,"63":0.13716332386499946,"64":0.03647271040982907,"65":-0.11470230396251643,"66":0.13809119794228222,"67":0.053454280479414175,"68":0.05719275347146029,"69":-0.01150391364283026,"70":-0.15637498226429353,"71":0.10322619020983301,"72":-0.0072690818732531895,"73":-0.0012444807930778517,"74":-0.09892548334900786}},{"sx":5,"sy":5,"depth":3,"w":{"0":-0.1780153195395388,"1":-0.11361583684767863,"2":-0.09308990843822718,"3":-0.1983874773659321,"4":-0.1709321262694803,"5":-0.13845149530004405,"6":-0.17531497747658198,"7":-0.07741303498011029,"8":0.10467800717281137,"9":0.15598518819802704,"10":-0.03599440681555857,"11":0.24271740679220974,"12":0.1690436755998862,"13":0.0691790970680234,"14":-0.09012301284662656,"15":-0.24747472352220665,"16":-0.11420953877764652,"17":-0.09551213449581482,"18":-0.1631524246755621,"19":-0.1177752159166449,"20":0.0704771475521707,"21":0.0008390030385288445,"22":-0.009850002285210843,"23":-0.06187953587187027,"24":-0.07274383762575233,"25":-0.07233489470737317,"26":-0.02705368729477892,"27":0.31183489447484053,"28":0.30230739053520483,"29":0.13968546071914234,"30":-0.0834638001431328,"31":-0.13066069641241312,"32":-0.22765513710336113,"33":-0.014023262350920886,"34":-0.11839409177746975,"35":-0.18029124516408998,"36":-0.02759437266191192,"37":-0.09809176173850717,"38":0.07119188979495764,"39":0.04885572082412522,"40":-0.05156122229790107,"41":-0.1527536179627458,"42":0.1258107034219216,"43":0.04139127431801334,"44":-0.06306461442410798,"45":-0.1048807506557127,"46":0.026981919811035843,"47":0.05343172262288951,"48":0.33776992485087576,"49":0.08448125117119624,"50":-0.09746040340953788,"51":-0.004357560468021125,"52":0.14124457727236622,"53":-0.09469165382486322,"54":0.10247645893715286,"55":0.09005271734459191,"56":0.14914738594566002,"57":-0.03929430212075136,"58":-0.06591334109342464,"59":0.13450405301747576,"60":0.17334940312693484,"61":0.0010065495729568415,"62":-0.06210282429503124,"63":0.1988707728991852,"64":0.11644006099052259,"65":0.011654758582070473,"66":-0.03877172260354819,"67":0.13576577162299583,"68":-0.11111010892538233,"69":0.2717983425549271,"70":0.1774804891008055,"71":-0.08663319444240776,"72":0.31271062634750507,"73":0.07557338737733019,"74":-0.21558491818175476}},{"sx":5,"sy":5,"depth":3,"w":{"0":-0.07995352226287998,"1":0.11225802684750377,"2":0.06626091594667015,"3":0.0304280732941906,"4":-0.03176241091442582,"5":0.27000779026695154,"6":0.21256167148589908,"7":-0.1812579546754409,"8":0.05425287585578839,"9":0.2603227978443067,"10":0.11723744823565062,"11":0.3229762171158434,"12":0.09820103063054846,"13":0.180076763097945,"14":0.5339475806681439,"15":-0.12098291728476708,"16":-0.18608329133076623,"17":0.2143542366327362,"18":0.11209708527465273,"19":-0.014498893399101258,"20":0.11297620914334562,"21":0.12148747764129186,"22":-0.05501694161779362,"23":0.13235547946233547,"24":0.11715418642375444,"25":-0.1290707245766497,"26":0.4030147997258293,"27":-0.13650639039793633,"28":0.15183600119334906,"29":0.27158540233356965,"30":0.3039106453243714,"31":0.01744727489167339,"32":-0.061749218197717774,"33":0.2286925235592396,"34":0.19340765882205066,"35":0.14772072920319662,"36":0.1947585339290266,"37":0.12426737605242962,"38":0.13970420665826233,"39":-0.15287870831521977,"40":-0.03807994489672658,"41":-0.13262863597398644,"42":0.07323227429370614,"43":-0.14215999739119367,"44":-0.04765034384741041,"45":0.2085864287688643,"46":0.2040530358751517,"47":0.20873815002347043,"48":0.1263308360952987,"49":-0.19203900520336037,"50":-0.12913198838374357,"51":0.003742750973114335,"52":0.04497636900436465,"53":0.030334379376391944,"54":-0.10768401951261679,"55":-0.3632629819438558,"56":-0.5023321827722597,"57":-0.06057835021015291,"58":-0.08044691766680412,"59":-0.10586468195840873,"60":0.15325932678789375,"61":-0.028608199324127007,"62":0.38652778316159175,"63":-0.16885737156836433,"64":-0.08982044596142254,"65":-0.1283844681766917,"66":0.09009144226038535,"67":-0.062169742401500014,"68":-0.060973246937920944,"69":-0.06830359817034574,"70":-0.21634923929190952,"71":-0.5624732075335772,"72":0.09420791955760198,"73":-0.436043220740103,"74":-0.4124165974546128}},{"sx":5,"sy":5,"depth":3,"w":{"0":-0.17240116672439493,"1":-0.15653064496219485,"2":-0.10593435436949783,"3":0.12452567653604886,"4":0.0050603764351311266,"5":-0.008098614847986086,"6":-0.02509818773608003,"7":0.2861419911977557,"8":0.067447595806352,"9":0.22954609604765563,"10":0.06820105484662425,"11":-0.06779020596394761,"12":-0.038500938553742085,"13":0.11510691352565021,"14":0.249580089023713,"15":0.08750542063028276,"16":-0.16637035344887519,"17":0.271539981119359,"18":0.08944577341258475,"19":0.007927095848791466,"20":-0.06675289282541313,"21":-0.15080097928908412,"22":0.19664210185734202,"23":0.09623317398036721,"24":0.2862478454410365,"25":-0.1615571198271072,"26":-0.09594018342962554,"27":0.13865932761201072,"28":-0.0036198020796433775,"29":0.19117715118146325,"30":0.01536279955435679,"31":0.060178691917115015,"32":-0.07467693110240362,"33":-0.14428982583608435,"34":-0.05498269105490501,"35":0.12374514475919125,"36":0.11645159231409034,"37":-0.0016647869495875376,"38":-0.19207441430381894,"39":0.19443343792646933,"40":-0.004886911166558444,"41":-0.028017259371319367,"42":-0.09493353071556797,"43":-0.027524423677107033,"44":0.03538141988000951,"45":0.09955821537314798,"46":-0.05410572340452292,"47":0.0075634920834380575,"48":-0.13236016521991253,"49":0.04761352632132957,"50":-0.37787949771977475,"51":-0.05585126690217152,"52":-0.11269946979321428,"53":-0.4046061588999778,"54":0.06172006058377223,"55":0.0364648133781118,"56":0.18115616729141149,"57":-0.04518702317283762,"58":0.025829288390073847,"59":0.05238969596159015,"60":0.07536058448421964,"61":0.06646646363823284,"62":0.14406724265513363,"63":0.19033043528102866,"64":0.047862696190103395,"65":-0.21362701164968678,"66":-0.08177395753527629,"67":-0.1593318878850921,"68":-0.12659493828718105,"69":0.25592073676851945,"70":-0.16816199908715548,"71":-0.1304489630260858,"72":-0.010816215873710141,"73":-0.04275219170962432,"74":0.10621011871689423}},{"sx":5,"sy":5,"depth":3,"w":{"0":0.17894279566897806,"1":0.0631667644550709,"2":0.15301240213930992,"3":-0.20914833506487285,"4":-0.2734440382743992,"5":0.21102947484338838,"6":-0.17510501413030413,"7":-0.056604685927547645,"8":0.17938194408871594,"9":0.010583678719897405,"10":0.10806578839243632,"11":-0.11576075823517243,"12":-0.013197754812398828,"13":-0.017269534276416754,"14":0.05213934839414439,"15":0.05067977161438207,"16":0.09285240033311848,"17":0.23968135547641414,"18":0.09926779041710697,"19":0.085354572235743,"20":0.058596121106280034,"21":-0.14966205353053574,"22":0.0008937794076204467,"23":0.02181770843104304,"24":-0.34783807394439337,"25":0.037134943304117166,"26":0.057290198674378096,"27":-0.08536729315107727,"28":-0.06636700786602462,"29":-0.1687423201788603,"30":0.02968045554122315,"31":0.06375069435777052,"32":0.2754811547384169,"33":0.1269042265816036,"34":0.17932857614058595,"35":0.18719561669779433,"36":0.13911230971762326,"37":-0.32354249507990007,"38":-0.08403401835179243,"39":0.012156165742458447,"40":-0.22793627212474837,"41":-0.29452270668560154,"42":-0.13201917747504416,"43":-0.23160971274675132,"44":-0.29817945960443465,"45":0.31880905162354667,"46":0.0113348551373743,"47":0.2657693844150746,"48":0.023617107939568147,"49":0.31322516961651736,"50":0.03814802015298822,"51":0.05953174203815724,"52":0.12421341473373719,"53":0.06644965462031639,"54":0.05476885183001655,"55":-0.15349312518154873,"56":-0.24824354126308462,"57":-0.0118252548252674,"58":-0.3107775125253477,"59":-0.21355406654107356,"60":0.10640980118238104,"61":-0.043405815586209075,"62":0.18573220698054316,"63":0.3027663037756005,"64":0.012561303905229424,"65":0.035216573447234764,"66":-0.007459718949962836,"67":0.009767841228562259,"68":-0.1112169649133716,"69":0.011734989475340768,"70":-0.10480345169146085,"71":-0.33731724108051975,"72":-0.016573059880766895,"73":0.23626424393048592,"74":-0.04010186835267808}},{"sx":5,"sy":5,"depth":3,"w":{"0":0.10377830551190909,"1":0.08719765752602453,"2":-0.24185103839917088,"3":0.15181241879331983,"4":0.0757347408159532,"5":-0.01205254308771455,"6":0.07679700962805557,"7":0.062398560300605324,"8":-0.01508247868507547,"9":-0.10958552114848714,"10":0.2085156087663678,"11":0.04810335428632136,"12":0.009471247742525644,"13":-0.1918767240973924,"14":-0.03538390412226382,"15":0.16495983664564418,"16":0.19552176184123116,"17":-0.10729848039963517,"18":0.08123901189311059,"19":-0.049969624397443825,"20":-0.021509601117330496,"21":0.0007465485976106482,"22":-0.028168857213571423,"23":0.05069528416609018,"24":0.10890394960483393,"25":0.09295526058419785,"26":0.04185443425604779,"27":0.05192205189849369,"28":-0.05396764361194734,"29":-0.04749473128774877,"30":0.16681606330354717,"31":0.22958539849745602,"32":0.08819155085033946,"33":0.10415449875117681,"34":0.09204332921691216,"35":0.09172084646827658,"36":0.07332750820001756,"37":0.26691198378430936,"38":-0.04542419455867971,"39":-0.1409837560419736,"40":0.09928798071627269,"41":-0.028954481707989768,"42":-0.10045935428926586,"43":0.18917429696922203,"44":-0.023337549771783296,"45":0.10593502559892828,"46":0.37140940111251336,"47":-0.01435747082691703,"48":0.039070421066548656,"49":0.11259467373366983,"50":0.10996903682804295,"51":0.12379613069540969,"52":0.010104248516335556,"53":0.0729998721300747,"54":-0.08324717934548763,"55":0.02240865882454711,"56":0.15408035486591015,"57":-0.12398366698007657,"58":-0.22410752250349292,"59":0.15719887759103265,"60":0.1868986747649484,"61":0.06557299233028903,"62":0.16451674701940788,"63":0.07052014051937691,"64":-0.10735815423108162,"65":0.03418054975174531,"66":-0.11159680465073697,"67":0.28741839222332954,"68":0.17318326371711448,"69":-0.07494698238076722,"70":-0.05925990316895641,"71":0.024365806761366394,"72":0.08489285514186526,"73":-0.07514129577539841,"74":0.024192871600041153}}],"biases":{"sx":1,"sy":1,"depth":32,"w":{"0":-0.1592494163978106,"1":0.0876346592457298,"2":-0.5649931065310049,"3":-0.4846797066613749,"4":-0.06694861626874303,"5":-1.1942070761447063,"6":-0.0519860860965189,"7":-0.02300241871893663,"8":0.06315088590404655,"9":0.1256298440626329,"10":-0.13166393034663773,"11":-0.14170524559574857,"12":-0.9035015788948904,"13":0.16106381722609112,"14":-0.1850535971289876,"15":-0.13598238415667413,"16":-0.17736037039126173,"17":0.06659628699817459,"18":0.006164998649328226,"19":0.1701595390708886,"20":-0.17887056941088236,"21":0.027150473530878436,"22":0.061525590792272176,"23":-0.02739767967975455,"24":-0.2705153048851468,"25":-0.20133715338603428,"26":-0.12209942453896826,"27":-0.08237880396068949,"28":-0.20354490946536763,"29":-0.07973569010433197,"30":-0.15561555167877072,"31":-0.15362261019411746}}},{"out_depth":32,"out_sx":64,"out_sy":64,"layer_type":"relu"},{"sx":2,"sy":2,"stride":2,"in_depth":32,"out_depth":32,"out_sx":32,"out_sy":32,"layer_type":"pool","pad":0},{"sx":5,"sy":5,"stride":1,"in_depth":32,"out_depth":40,"out_sx":32,"out_sy":32,"layer_type":"conv","l1_decay_mul":0,"l2_decay_mul":1,"pad":2,"filters":[{"sx":5,"sy":5,"depth":32,"w":{"0":0.006324726854353912,"1":-0.03889559408771408,"2":-0.04617837348112906,"3":0.06059886288886484,"4":0.033911521878739206,"5":0.005358852661011787,"6":0.05001641277926678,"7":0.03644938786465284,"8":0.03169248640309393,"9":0.0339829854128757,"10":0.003927961020774843,"11":-0.03198134921195126,"12":0.04699166969185688,"13":0.025382534379051257,"14":-0.0639021733265855,"15":-0.02007995442668829,"16":-0.0025397232332630797,"17":-0.010671744312768123,"18":0.014490074217407145,"19":-0.003483975912895044,"20":0.023239203955063223,"21":-0.03935711786169232,"22":-0.03356429866786622,"23":0.026491378032599856,"24":0.004667720488724917,"25":-0.031094474322448228,"26":-0.049124308280874864,"27":-0.013292135306527146,"28":-0.030785523743289234,"29":0.015506866275047571,"30":-0.001039518830337586,"31":-0.014858717539342887,"32":-0.040349632601876906,"33":0.025888604746626798,"34":-0.04662080730221471,"35":0.03282474767766269,"36":-0.04952393184449369,"37":0.012131406050807288,"38":0.02301459391323925,"39":-0.0513322721567349,"40":-0.019075130760609908,"41":-0.01824414705115451,"42":0.0040904639084774624,"43":0.04359538554019726,"44":-0.02156247301031825,"45":-0.01589006950350527,"46":-0.07325842507784153,"47":0.004849483361045438,"48":-0.009318037302948983,"49":-0.015639182689326046,"50":0.01854036409852251,"51":0.0004055629634247976,"52":0.04057142243223406,"53":-0.028957519978500844,"54":0.0035625975421961194,"55":0.05252880975182109,"56":-0.03468612071787966,"57":0.02195565636196772,"58":-0.012475450128560665,"59":0.03082492938443315,"60":-0.0035254620072416925,"61":0.027956797195582726,"62":-0.02372946113500011,"63":-0.032203970792595654,"64":0.02413174774471856,"65":-0.010529457282886418,"66":0.009951606090220569,"67":0.02269786646376773,"68":-0.022475532272226557,"69":-0.020874826760112535,"70":-0.002390388605207379,"71":-0.06671690002051532,"72":0.02749989335630447,"73":0.04857407349975782,"74":-0.039375145359202286,"75":0.03808329843334382,"76":0.059874641282252,"77":-0.019801582361560148,"78":0.046686321797006894,"79":0.022947885930294634,"80":-0.027002101248530166,"81":0.04936713586545477,"82":0.07439522942217719,"83":-0.04888499625398262,"84":0.010112794410515788,"85":-0.09124390990590393,"86":0.022195768509638992,"87":0.0017173453447515946,"88":-0.08529608181075884,"89":0.04151145807228025,"90":-0.03955774571662993,"91":-0.007827696761066521,"92":-0.03729175635659255,"93":-0.006162468775648246,"94":-0.07125273697257083,"95":-0.031514578207312405,"96":0.017388594367965658,"97":-0.0012726723836391043,"98":0.003518075816266037,"99":0.0607921487937685,"100":-0.020628687002465708,"101":-0.025082479096331357,"102":0.02529200318929769,"103":-0.03213664553344334,"104":-0.08995877002277618,"105":0.0322986657043663,"106":0.04271735971013696,"107":0.07583295305657112,"108":0.04963629401061629,"109":-0.026263642567393265,"110":0.003783346358661048,"111":0.09267878602203487,"112":-0.03412957403365508,"113":0.010491701991720918,"114":0.022156568646966777,"115":0.02970429254212825,"116":-0.03993264371045933,"117":-0.005327255796168975,"118":0.03146132654600241,"119":-0.011062066473233515,"120":0.03532420908219688,"121":0.028972721502661575,"122":-0.011445731213731136,"123":-0.020960525233101282,"124":0.02984205109175986,"125":0.03338198027853812,"126":0.027496358720448248,"127":-0.0104945295318711,"128":-0.052216002647747235,"129":-0.0011660803671168557,"130":-0.02507694834462188,"131":-0.015248826608433528,"132":0.019334003691966455,"133":-0.03110920437086048,"134":0.03662964043228907,"135":0.06885872662039515,"136":-0.018637336786055243,"137":0.005732022349542032,"138":-0.008765231990917163,"139":-0.05975502263949094,"140":-0.02898839417819998,"141":0.04632164559977387,"142":-0.016928964738297497,"143":-0.012832759808817821,"144":0.045540124438840604,"145":0.02218213124025344,"146":-0.03303677076038126,"147":0.0019970596337979796,"148":-0.042320351939433426,"149":-0.008702497026080511,"150":0.024394017840392974,"151":0.028534081091542336,"152":0.07916891059042754,"153":-0.010388175819465316,"154":0.08152584620241894,"155":0.03669696725003218,"156":-0.01017901453058521,"157":0.03509060158321802,"158":0.06752399305318342,"159":-0.005957860763179694,"160":-0.0018323302554411338,"161":0.021993673935494368,"162":-0.04593387879998543,"163":-0.06013483121438204,"164":0.007098569015953645,"165":0.026319106363130677,"166":0.0024384733855747397,"167":0.0025966841587039676,"168":-0.04165653059400758,"169":-0.00465828945040866,"170":0.006461020303702208,"171":-0.010944852814088041,"172":0.012633091270889739,"173":-0.027529551025455304,"174":0.004963141219493958,"175":-0.06259177927821134,"176":-0.049566313877702495,"177":-0.04058990011554832,"178":-0.05227325623438899,"179":-0.03056935002526771,"180":-0.020930233773352003,"181":0.014760284213392112,"182":-0.01130685607311941,"183":-0.018938850930651768,"184":-0.047065398124898856,"185":-0.04621520803882794,"186":0.0011319505297461175,"187":-0.03831731734874001,"188":-0.062738887638482,"189":0.0008495134318202697,"190":0.006396081274494293,"191":-0.05637135172724195,"192":-0.0005843445289221402,"193":-0.03833395364391427,"194":-0.10689584225366587,"195":0.006638616967773097,"196":0.0009901923572785691,"197":-0.037028634394625885,"198":-0.061549459692453845,"199":-0.0664077115846445,"200":-0.01689380428736969,"201":-0.09501674679462344,"202":-0.06501194811755999,"203":0.08249439708771207,"204":-0.050737226652211996,"205":-0.02489920667642801,"206":-0.026657909813891455,"207":-0.025092142551009472,"208":-0.04184344166542284,"209":0.007682594013200061,"210":0.02819914834972185,"211":0.0035407272571830947,"212":-0.006800720687515987,"213":0.024646232480513387,"214":-0.030331869095077187,"215":-0.03565571028302723,"216":-0.0146555170186118,"217":0.00845516866432094,"218":-0.025187904543407566,"219":-0.029210566593970224,"220":-0.05091870912561818,"221":-0.03805736655240792,"222":-0.08172983154267725,"223":-0.05535670446619081,"224":-0.006658395481323632,"225":-0.01779834379272005,"226":0.057889195567349526,"227":-0.021274353113441953,"228":-0.00504585827517206,"229":-0.04999921264231335,"230":-0.09284953984890655,"231":0.02763041353767601,"232":0.006825738898046639,"233":-0.07202927382777842,"234":0.033101178598593156,"235":0.02156447543905964,"236":-0.014239319106613949,"237":-0.004388912081295281,"238":-0.005802174748270138,"239":0.009758843671182276,"240":-0.037399465561848554,"241":-0.016707381754662534,"242":0.05855153994326647,"243":0.003003506755085744,"244":0.054082235238635104,"245":0.0198310971684947,"246":-0.03911967314191049,"247":-0.019274415625642107,"248":-0.007873457961811525,"249":-0.006266488409445813,"250":-0.0038450425340976835,"251":0.0016076468932748164,"252":-0.10503077249222383,"253":-0.024936533514821262,"254":0.006739322804685419,"255":0.020037121476172377,"256":-0.004212617138258755,"257":-0.018301847580408342,"258":0.024749342043592547,"259":-0.0745614879364352,"260":-0.004372640012601405,"261":-0.01697331746288021,"262":-0.00022974155621435373,"263":0.027205353423866496,"264":0.01406009666032836,"265":-0.05714393253190618,"266":-0.011124102291887207,"267":0.05249775106185634,"268":-0.03998064925423049,"269":-0.001472204769628152,"270":0.032505365550252456,"271":0.010591690956385832,"272":-0.043977288980234897,"273":0.025399456673458443,"274":0.08881851386230569,"275":-0.06452697334871452,"276":-0.014447286601025884,"277":-0.018007487062044143,"278":0.0019161454412419733,"279":-0.004733519543169747,"280":0.0401059052458021,"281":-0.030406822923137494,"282":0.016639233971053654,"283":0.09584078022244484,"284":-0.03611065566836358,"285":-0.02636166711114248,"286":-0.019915871709758243,"287":-0.05677296315000722,"288":-0.05094194348215314,"289":-0.026961491358377332,"290":0.030949327092242577,"291":-0.03573711637680702,"292":0.013403835466761561,"293":-0.015037322257977688,"294":0.00032453402904311553,"295":0.014655941471805,"296":-0.014409642838853823,"297":-0.035480326686144405,"298":0.052380309099059795,"299":0.01025025768439747,"300":0.03127045382856745,"301":0.05207125623952875,"302":0.038362856062333424,"303":-0.040343056247481496,"304":0.009513755566752958,"305":-0.03629575216925933,"306":0.030810233173832434,"307":-0.036580521315036876,"308":-0.02496216938777282,"309":0.04127035266090239,"310":0.028621213139962708,"311":-0.03253994930405448,"312":-0.06355810490939896,"313":0.014698318445970597,"314":0.060104763118513885,"315":-0.02354317031015932,"316":-0.07114087649415894,"317":-0.006812620100320973,"318":0.00902443759321057,"319":-0.02382307583970098,"320":-0.07823722427135048,"321":-0.03560038913852955,"322":-0.009752520797088285,"323":0.025792240899747784,"324":0.050418286895368744,"325":-0.021015807972304772,"326":-0.06380939357724504,"327":-0.03720399564318195,"328":-0.009203725808463126,"329":-0.058659891249710966,"330":-0.04258957488252774,"331":0.05098100948198424,"332":0.0016872512381270425,"333":-0.04475211710387778,"334":0.033110074918014966,"335":0.02403128276258291,"336":-0.004296570597236337,"337":0.020080790775640255,"338":-0.038025873590288854,"339":-0.017241977989711502,"340":-0.008469406427575087,"341":0.014764125175141455,"342":0.028330024543359117,"343":0.006133647775745636,"344":-0.01876721499815639,"345":0.047798893465186294,"346":-0.011416503760377544,"347":0.009988727289830615,"348":0.016947700800539613,"349":-0.017932636213965625,"350":0.019001803887154473,"351":0.004227374962627118,"352":0.04864723765902295,"353":0.03989540831670428,"354":-0.013398370657849169,"355":-0.01953879153293129,"356":-0.04842663647298943,"357":-0.04733233944470302,"358":-0.03180986953257879,"359":-0.020635914191453622,"360":-0.059852226107180856,"361":-0.04574312602612159,"362":-0.004979039813579988,"363":-0.018449777127015555,"364":-0.010666442491866488,"365":0.005447524250179172,"366":-0.08999458779970841,"367":0.03704363709812546,"368":-0.023950527088223816,"369":-0.02728123263132824,"370":-0.004415571511073225,"371":0.004302046417863304,"372":-0.06606992726524202,"373":0.03363522551092058,"374":0.035512651198964094,"375":0.00038875036609204713,"376":-0.04520318695236076,"377":-0.08066843615568092,"378":-0.022030601869619765,"379":-0.011319365092665169,"380":-0.06184581138656983,"381":0.027028820026096398,"382":-0.030542757879654114,"383":-0.09175893854813791,"384":0.047575252552226444,"385":0.033205406829657044,"386":-0.052884924481392474,"387":-0.026199613413812852,"388":-0.015565417535708245,"389":-0.046012575353472356,"390":-0.06880530592643935,"391":-0.014322657867915986,"392":-0.04641073339566109,"393":-0.08462507805704159,"394":0.039894688496086635,"395":-0.0158599686298407,"396":0.06816027931194053,"397":-0.03296290413831655,"398":0.03891668113112291,"399":-0.041642085058784535,"400":0.0023817160239406943,"401":0.028963708841510522,"402":-0.0968494412836153,"403":0.011250153988673428,"404":0.08144306743259713,"405":-0.07999997713277596,"406":-0.019879115724780336,"407":-0.049085762181296906,"408":-0.02244559299533294,"409":0.0011624048832752235,"410":-0.05243801405998763,"411":-0.030679624596970052,"412":-0.022484088569665404,"413":0.03534496768124667,"414":0.0035416035860207393,"415":0.04062310813759773,"416":0.011008110735832018,"417":0.018830614541704403,"418":-0.04899507802192431,"419":-0.0932812287385265,"420":-0.03880030789103102,"421":0.03106946761811979,"422":-0.017608097275431164,"423":-0.009894014277022207,"424":-0.05166165273799586,"425":-0.022333662524884473,"426":-0.009910451034571726,"427":-0.02685988194158462,"428":-0.0038540550962114224,"429":-0.042106869694697284,"430":0.007339622918496767,"431":0.03271191174526501,"432":-0.005597604729663388,"433":-0.07055537254704408,"434":-0.03826899469122964,"435":0.03706751488945823,"436":-0.042076681699045375,"437":0.038097495794835824,"438":0.007100751205461414,"439":-0.021546584671830855,"440":-0.024622215782163955,"441":0.052893512467835496,"442":0.021232610049138324,"443":-0.03683539519977579,"444":-0.022429951000177813,"445":0.04508800058209567,"446":-0.00634259441076377,"447":0.0006306898901183634,"448":-0.02106868441277899,"449":-0.0017728913868589014,"450":-0.001329103694639901,"451":0.05074606719380852,"452":-0.002301539815325191,"453":-0.014811957186412018,"454":-0.030774207884959975,"455":-0.010434223306055236,"456":-0.01611440171876937,"457":-0.0009158813847450939,"458":0.02790774379430608,"459":0.06884066644349554,"460":-0.00734964630316588,"461":0.03712844289619883,"462":-0.0412424085206641,"463":0.009646182168871167,"464":0.011900267854216325,"465":-0.015377064869823865,"466":-0.021276472348691695,"467":-0.03036697123197445,"468":0.006412405756392774,"469":-0.07435145506398436,"470":-0.031120103639051128,"471":-0.012257769107865881,"472":0.013485016646382962,"473":-0.03145121960115921,"474":0.046656306438471656,"475":-0.010941964662904743,"476":-0.06860433196812726,"477":-0.02996714879924713,"478":-0.05443780655507636,"479":0.06878719654507875,"480":0.0006178367525621585,"481":-0.060720462594747684,"482":-0.02159843146296962,"483":-0.0004196965675478845,"484":0.005795486930365462,"485":-0.03857893019390526,"486":-0.03157432551342559,"487":-0.05081804097727567,"488":-0.01727403627218018,"489":-0.036356942061513485,"490":-0.025069297584225072,"491":0.011860222827871279,"492":-0.026617405656690882,"493":0.001627949149374155,"494":-0.018603579003538873,"495":0.0026648114631070466,"496":-0.03401231583039769,"497":-0.04041541407219828,"498":-0.028721985374078357,"499":-0.029136681970174202,"500":0.04444827309254438,"501":0.009414553950982427,"502":-0.027157476704728074,"503":0.01687413896088107,"504":0.08629671196606925,"505":0.03552487356522026,"506":-0.03253327010303803,"507":0.019841028742692245,"508":0.00021107402273160694,"509":-0.055267918444943644,"510":-0.025569682186186684,"511":0.07147763064113834,"512":-0.04068720265302948,"513":-0.02930179576863831,"514":0.0018668473774447747,"515":-0.03707424179645704,"516":0.012949239989558511,"517":-0.049996216944732795,"518":0.038299288517533274,"519":-0.04394883202255212,"520":0.04303302653349699,"521":-0.00550227533689228,"522":-0.04230457748125222,"523":0.02870135800914224,"524":-0.03545347989820796,"525":-0.07858075895919955,"526":-0.0437051063599553,"527":0.017656657957898975,"528":-0.019645806632566376,"529":-0.02886535857278079,"530":-0.08503917177164373,"531":-0.047128337070112596,"532":-0.039219436038071875,"533":-0.09157650417421427,"534":-0.015776158269527794,"535":-0.04758943565935382,"536":-0.025746017153559227,"537":-0.05192756867711451,"538":-0.028772847193075705,"539":-0.06154447479602171,"540":-0.031054903596672158,"541":-0.0082725581865853,"542":0.022316934677150322,"543":0.05521233442498856,"544":-0.0030629166471249944,"545":0.006095710472832874,"546":0.009992120660196939,"547":-0.045702822861230744,"548":-0.047921486692076354,"549":-0.02122604529867283,"550":-0.016501763396210584,"551":-0.03560078999618424,"552":-0.005352339211340811,"553":0.008746558960025306,"554":-0.006437497337725201,"555":-0.02031427473924928,"556":-0.04321265847973883,"557":0.023009769070325158,"558":-0.028292645252667923,"559":-0.06653560868341099,"560":-0.006587678956036096,"561":0.012677410590946247,"562":-0.007152175979404228,"563":0.05356402613679049,"564":0.012591524868661604,"565":0.018324565958085282,"566":0.029024000344784546,"567":-0.042227043240816955,"568":0.026183239007139255,"569":-0.01785440728487812,"570":0.042601245200542016,"571":0.013240793132157501,"572":0.021238504057219502,"573":0.0357075731253165,"574":0.012634291408683005,"575":0.015664849612883277,"576":-0.029352822144617294,"577":0.02059541617868042,"578":-0.003957118626095867,"579":0.0070028195580206995,"580":-0.053395818721394234,"581":-0.02318184086242317,"582":-0.01660596313646631,"583":-0.01817129453737686,"584":0.002364399987943935,"585":0.05407408252289785,"586":-0.02645333279177155,"587":-0.02070330597921709,"588":0.0027835475760543955,"589":-0.017854443672653705,"590":0.03324976850416283,"591":-0.004309928621225128,"592":-0.06508302513187889,"593":-0.00014022580737582324,"594":-0.007724546220466934,"595":0.0024492657325899062,"596":0.0040366744637763225,"597":0.008820405097471508,"598":-0.014543972427403792,"599":0.0333701125928578,"600":0.03424969703279327,"601":-0.029569987793120034,"602":0.013465984992322206,"603":0.032600788573132713,"604":0.006112523876574771,"605":-0.059879948014767675,"606":-0.012813897210034739,"607":-0.027402761624669605,"608":-0.08069538767509175,"609":-0.018847248142637645,"610":0.00042885703843195173,"611":-0.04928074976433481,"612":0.011236678328234141,"613":-0.035384969527637075,"614":-0.009980535565903144,"615":0.01765248073646177,"616":-0.017320456871546083,"617":0.06542773798410503,"618":0.00945334688417197,"619":-0.0032815604475947982,"620":-0.0620639302665224,"621":-0.0003566298019308735,"622":0.022631190635802156,"623":-0.06361714341249491,"624":-0.0004718979097571536,"625":-0.04025402243527319,"626":-0.00820271661110513,"627":-0.015167343380651477,"628":0.016933257613653992,"629":0.005458673477101826,"630":-0.0484183201555889,"631":-0.018123595378625203,"632":-0.020120886395155333,"633":-0.08220804307215428,"634":0.0005256625631532381,"635":-0.022381876401838918,"636":-0.01764527777892609,"637":-0.03588992935340745,"638":-0.06975202029550492,"639":-0.027036609761006348,"640":-0.07136970917835918,"641":0.015812421996878073,"642":0.03263729555306326,"643":-0.03677107564861954,"644":-0.025869626632582556,"645":-0.0011791597757358427,"646":-0.05639509902324389,"647":-0.0045328485057960985,"648":-0.0025947750990168096,"649":-0.016205759117947624,"650":0.012530544777495998,"651":-0.015795387478019826,"652":0.011966097924649342,"653":-0.052148095646509754,"654":0.06462721221356214,"655":0.0242870460732772,"656":-0.008184427189428713,"657":-0.09461835184819675,"658":-0.02325933780640055,"659":-0.07204226055972791,"660":0.010847033641040865,"661":-0.025795957598235796,"662":-0.042849064683637306,"663":-0.03857949390821054,"664":-0.04779762473374012,"665":0.028394496988743936,"666":-0.029267218345154427,"667":-0.015044694900035151,"668":-0.05352124296070085,"669":-0.00971445974580324,"670":0.05053324974897573,"671":0.025045710681610555,"672":0.01080585926729693,"673":-0.018008607645667467,"674":0.002249409906080059,"675":-0.009471801972340084,"676":-0.05564429210037553,"677":-0.03014708472250939,"678":-0.015661519006975183,"679":-0.00943056646284294,"680":0.013877802591705854,"681":-0.004611526069912073,"682":-0.04214690614503408,"683":0.017957392640699264,"684":-0.0176477470202069,"685":0.0010122368830261577,"686":-0.023487462547228184,"687":-0.09562232934113692,"688":-0.0012460395010754056,"689":0.05437696541985838,"690":-0.05458759031948388,"691":-0.030871852836257027,"692":-0.00001675085776206693,"693":0.03178088097691602,"694":-0.06471365627216047,"695":0.014338176534844645,"696":-0.02032732537846064,"697":-0.06074810698774851,"698":-0.024428703836037697,"699":-0.03254935935842135,"700":-0.0013290548576975186,"701":0.009403414961903231,"702":0.009964578634604614,"703":0.012082752516974932,"704":-0.019964947785713845,"705":-0.025935526569933903,"706":-0.012969812505207635,"707":-0.03612959741939615,"708":0.035093214314076734,"709":0.009266405041897168,"710":-0.024993585479801104,"711":-0.0016619166243807262,"712":0.016469309434632907,"713":-0.05218919760640783,"714":-0.0371526044073153,"715":-0.0025344199735052838,"716":0.036564730553550404,"717":-0.05143024522963248,"718":-0.047517734144117106,"719":-0.0820800867399245,"720":-0.0443589080497449,"721":0.013311650752096005,"722":-0.020476669574741344,"723":0.036436207626182306,"724":-0.05480082867164066,"725":-0.0225050081955466,"726":-0.043106960773853994,"727":0.03460964327259854,"728":0.012740150220664275,"729":-0.03907229747410395,"730":-0.05060536480401262,"731":-0.010787499234146927,"732":0.016912349258987346,"733":-0.015946722570977925,"734":-0.03699449357049087,"735":0.020605511025101234,"736":0.05699020559681802,"737":-0.05238838210256231,"738":0.0017440574357601392,"739":-0.03253881729600541,"740":-0.029000759539200952,"741":-0.03569368121953481,"742":0.03958890016000677,"743":-0.014271930989451993,"744":0.01595839314315569,"745":-0.009814537417532656,"746":0.04219215618912858,"747":0.02928998913567199,"748":-0.008511706893009029,"749":-0.04725534454350125,"750":-0.03800681116525158,"751":-0.018854909604090565,"752":0.0017105618811029302,"753":-0.01609891666048934,"754":0.010791974646403758,"755":-0.043684659105671264,"756":0.013672914789980426,"757":-0.03223807714440042,"758":-0.005174261256561864,"759":0.015287295995445328,"760":0.052970364687386924,"761":-0.013962127056493247,"762":-0.03898524330727541,"763":-0.00032539439307856396,"764":-0.03176542765527671,"765":-0.02854320073019587,"766":0.004072551165830292,"767":0.05206176663180308,"768":-0.046621176412755407,"769":0.04356131260538026,"770":0.0037590199988456435,"771":-0.000309889802170111,"772":-0.0231063097809273,"773":-0.083569886193943,"774":-0.019244235237834913,"775":0.006434241805005628,"776":-0.01370135653021101,"777":-0.04265670015584305,"778":0.01341952947740728,"779":0.0336465647790985,"780":0.0038309039401364176,"781":0.02239496225099591,"782":0.02412947321987559,"783":-0.0179385377845042,"784":-0.0148385005093586,"785":-0.02304682850260589,"786":0.01137468665417979,"787":-0.043791915828472965,"788":-0.02039953736094729,"789":0.004075962815267543,"790":0.020903669451637373,"791":0.002921187088233939,"792":0.04870888777160405,"793":0.017675607705764693,"794":0.013701711128344177,"795":-0.08282254289570154,"796":-0.00461734736593696,"797":0.004342758446200954,"798":-0.007133202808570978,"799":-0.015759291374069458}},{"sx":5,"sy":5,"depth":32,"w":{"0":-0.03059564508412312,"1":0.07328536936434103,"2":-0.0607533230186345,"3":-0.006681697297981146,"4":-0.035983898994033495,"5":-0.011108605851786827,"6":-0.04788544127706461,"7":0.03001179016194433,"8":-0.044876759107152546,"9":0.014387625811049427,"10":0.04195066892214034,"11":-0.01444843734210989,"12":0.0443407884264251,"13":-0.0215799716727398,"14":-0.03485264164851521,"15":-0.0634884796547388,"16":-0.10655540899031156,"17":0.023191256801873245,"18":-0.026588310843152656,"19":0.08015728010077157,"20":0.00008030471248749473,"21":-0.05782399288383749,"22":-0.02030181688383249,"23":-0.02982729213318905,"24":-0.06478940548673914,"25":0.011211148335287415,"26":-0.027147755388201442,"27":-0.026506167257931413,"28":-0.05130597852235142,"29":-0.05209992884898901,"30":-0.05787273485954852,"31":-0.10147109705499179,"32":-0.03644221430265358,"33":0.026470452801965486,"34":-0.0765610482176234,"35":-0.07479960321771666,"36":-0.11484197333230166,"37":-0.0032965698402204237,"38":-0.109500898474362,"39":0.005807222763307464,"40":-0.03453503475433669,"41":-0.026370994332993804,"42":-0.0441484451256951,"43":-0.04428943114289808,"44":-0.08932361488251635,"45":-0.04392616316615104,"46":-0.06034975776093072,"47":0.02440287292291799,"48":-0.010854430391044305,"49":0.011012574550890412,"50":0.02243172860402453,"51":-0.04245873190268676,"52":-0.003862887063397055,"53":-0.01649820378609965,"54":-0.07905959449945694,"55":-0.002136004451663823,"56":-0.009959795686521118,"57":-0.045417717547613826,"58":-0.016687783905811705,"59":0.023893379999337137,"60":-0.06226465559826319,"61":0.03116158121589406,"62":-0.16649116246354087,"63":-0.07286561026481837,"64":-0.05819591473077634,"65":0.037756433918661354,"66":0.0054342229059547095,"67":-0.01873268461152441,"68":0.0025404782104882485,"69":-0.061412672050854884,"70":0.022482339264538662,"71":0.03355153585989814,"72":0.02297392347848286,"73":-0.020803227838572483,"74":0.018196694128229836,"75":-0.03009577217823739,"76":-0.03244285323526002,"77":0.043810833696855185,"78":-0.028543896314771052,"79":-0.07679926861077642,"80":-0.0041161326322772486,"81":-0.005976241359923136,"82":-0.026143445493669423,"83":0.08932865688581328,"84":0.020875004391621883,"85":0.0060677080985593775,"86":-0.01580929446415443,"87":0.0531859910333006,"88":-0.04894424632949988,"89":-0.04849760477197446,"90":0.01647320677305139,"91":-0.054027137208410354,"92":-0.13213065183718728,"93":-0.024612044594477377,"94":-0.1009502592777727,"95":-0.04650149851862511,"96":-0.009676997078166232,"97":0.02015448336473678,"98":-0.03387243176614286,"99":0.061591734346719086,"100":-0.03882173212075073,"101":-0.04373245614465141,"102":0.04592017327204404,"103":0.06112939873796859,"104":-0.036021328760785225,"105":0.014132816536431489,"106":-0.1203679640003454,"107":-0.016810961536644433,"108":-0.009205811010155935,"109":0.07921681362299944,"110":-0.013239130988922466,"111":-0.06238721201664689,"112":-0.1719686340173783,"113":-0.018335515696074136,"114":-0.0523371995783156,"115":0.0207436311175197,"116":0.03907732369329889,"117":0.0373770120226332,"118":0.04625047713505114,"119":0.028363727886412712,"120":-0.049418078566279285,"121":-0.046904956867372206,"122":-0.01586483120470649,"123":0.016629747326775857,"124":0.053759449653575944,"125":-0.03128798807381444,"126":-0.01794567656484352,"127":-0.08295150829152098,"128":0.011918205698403723,"129":0.033520262646855,"130":-0.10936107387824387,"131":-0.03478564516570488,"132":0.013979646271895357,"133":-0.08609254877069807,"134":0.06320543950645346,"135":-0.0730877636231536,"136":0.017460637594779522,"137":-0.052621472247744,"138":0.020717902776755885,"139":-0.033976779796550984,"140":-0.014864543518340375,"141":0.032893664496097125,"142":0.017262141819357327,"143":0.023493062335067365,"144":-0.0013596605802304556,"145":0.03056651219628388,"146":0.05605852494530154,"147":0.04964870620750747,"148":-0.0016155135212167647,"149":-0.018474943839759363,"150":-0.00027877935417150603,"151":0.034234224262913976,"152":-0.05178140934404777,"153":0.008687498166854697,"154":0.007270134309062763,"155":-0.0038710450596320385,"156":0.15486788964885906,"157":0.07173408079736011,"158":0.19895679045552067,"159":-0.022569160908515185,"160":-0.04273510438350341,"161":-0.06404537216683809,"162":-0.02109614175772831,"163":-0.05103446223863197,"164":0.0062776773798280585,"165":-0.08516866651978315,"166":0.01854616577113848,"167":0.014471349485783552,"168":-0.041199002064222986,"169":0.026887741785881842,"170":-0.07717799269014257,"171":-0.017924945318050497,"172":-0.0056176021101894645,"173":0.013619085240476869,"174":-0.07001825594013782,"175":-0.06543621624224226,"176":-0.0648427355383232,"177":0.013738676121428576,"178":-0.02718400374079845,"179":0.006207203856091842,"180":-0.02299285672826509,"181":-0.045350464444292936,"182":-0.0015465106284753764,"183":-0.05997247241918387,"184":-0.06064577616242606,"185":0.006470992072936132,"186":-0.07470062658467592,"187":-0.02816479235485812,"188":-0.09489633555099806,"189":0.002270130762704493,"190":-0.07668573665392518,"191":-0.10280029608309883,"192":-0.03128492784051976,"193":-0.023293084223950666,"194":-0.04702805935192344,"195":-0.07081291883237278,"196":-0.09063810462782039,"197":0.012132197249378114,"198":0.016551030894931474,"199":-0.0255297615427642,"200":-0.017874723196803277,"201":-0.0006085435672730446,"202":-0.012316997193245272,"203":-0.04014986348634026,"204":-0.03890319815498685,"205":0.0029590420134403936,"206":-0.04660302791848035,"207":0.02091953748334744,"208":-0.020808874173124593,"209":0.05791387515091604,"210":-0.06343700350123509,"211":0.006233577246451366,"212":-0.010813212473314375,"213":-0.03701452391328948,"214":0.06876465706263418,"215":0.03269648601979919,"216":-0.09907103138698109,"217":-0.0038111566025991164,"218":-0.016312197677068208,"219":0.006179693370946408,"220":-0.011392870486733325,"221":0.047792545235514405,"222":-0.015224667410245253,"223":-0.1322297308335928,"224":-0.07883499824359996,"225":-0.021726212966925885,"226":-0.06097224760483055,"227":-0.049585006278483376,"228":-0.10754321271383051,"229":-0.0782964362721126,"230":0.10687513047454376,"231":0.03662820403027379,"232":0.06957464650095367,"233":0.06389247058539047,"234":0.02759355615284267,"235":-0.006801093553849476,"236":-0.0647618018968015,"237":-0.08919478633742146,"238":0.028976000246927074,"239":0.05295077999748173,"240":-0.04961500530498835,"241":0.04516420573763849,"242":-0.039145511715174566,"243":-0.010919088044624138,"244":0.02752155999066968,"245":0.06463278588161983,"246":-0.07329376647868009,"247":-0.013046130381550317,"248":0.02780167725500626,"249":0.0065560405226043365,"250":0.07452251914088127,"251":-0.04817727747659721,"252":-0.10619424835572722,"253":0.04936100039150945,"254":-0.1168062989704184,"255":-0.09406501516589522,"256":-0.06504210705901624,"257":0.007909799247281126,"258":-0.021638269868074617,"259":-0.011835760415817258,"260":-0.06618697125113104,"261":-0.03726901058389258,"262":0.15981911323777678,"263":0.021446935860860595,"264":0.0706024458173576,"265":0.002940096961316566,"266":-0.05749078529136406,"267":-0.07126113199246371,"268":-0.03980835363380449,"269":-0.003357903359699033,"270":0.009169522551869995,"271":0.02184243550587965,"272":-0.10739006507872839,"273":-0.02774885069268625,"274":0.05595282814011829,"275":0.042497323646163106,"276":0.041087163550994545,"277":-0.05234504398767601,"278":0.030400148975441046,"279":0.06775925595814215,"280":-0.03743262501531072,"281":-0.0058555654270405506,"282":-0.08002195800773589,"283":-0.001182656816502636,"284":0.05123560225210749,"285":-0.07196376477001089,"286":0.06546333886842283,"287":-0.0843150176546706,"288":0.07093962931264439,"289":0.017495211017644924,"290":-0.06257358946484651,"291":-0.0072626041199239195,"292":-0.01785551665420292,"293":0.05961712325357456,"294":0.11759529092388721,"295":-0.04716648066292917,"296":-0.010912899547556526,"297":0.03551468788435026,"298":-0.063903417588947,"299":-0.028459928590343804,"300":-0.041832779970570486,"301":0.031006007300409668,"302":-0.03703224509252739,"303":0.040064471273074505,"304":-0.05001485808854541,"305":0.10293932305452343,"306":-0.034079276331909894,"307":0.010142984988786923,"308":-0.00309123315867689,"309":-0.034123117193589535,"310":0.058158232873211084,"311":0.0010421579467646076,"312":-0.06095617333772512,"313":0.012946859482997513,"314":-0.08668400048785743,"315":-0.014354895453177011,"316":0.0817027374614298,"317":0.028004055960705976,"318":0.22599153505437847,"319":-0.1292463771749788,"320":0.03178255969257608,"321":0.027973198737311904,"322":0.06118927544026483,"323":-0.06712279610984005,"324":-0.09193861352655529,"325":-0.051493482175109184,"326":-0.03968241203403202,"327":0.012735892169375918,"328":-0.06573706465311112,"329":-0.031442115008905175,"330":-0.059629460901776676,"331":-0.03868151810447502,"332":-0.06245546597665252,"333":-0.05915440226805451,"334":0.021074275573301972,"335":-0.02311227456255237,"336":-0.050985167777814665,"337":-0.061992824859964324,"338":0.014852432783673526,"339":0.031022590554515044,"340":0.01969284109694542,"341":-0.022390301780408572,"342":0.07976003624985206,"343":-0.0016086866832679071,"344":-0.10847175330899815,"345":-0.006756900140691873,"346":-0.0816993056615568,"347":-0.011928818006924814,"348":-0.08507277480740956,"349":-0.011047138915933357,"350":-0.062427273472265454,"351":-0.11090856860258218,"352":-0.015270049042549413,"353":0.06034667332645353,"354":-0.05284596930366058,"355":0.0363880768049685,"356":-0.01322762663743971,"357":-0.09549113255585576,"358":-0.08350917046981876,"359":-0.026022424732895805,"360":0.026022760748857607,"361":-0.0028503966233530344,"362":-0.02779382154126295,"363":-0.0180733225961311,"364":-0.07972337636729124,"365":-0.03827437962651665,"366":-0.04509149273838985,"367":0.0011824872439685974,"368":-0.12651191886603377,"369":-0.007016211307549749,"370":0.0103464673617495,"371":0.024803164526479904,"372":-0.009510757647764979,"373":-0.03993616097107878,"374":-0.04587837722982943,"375":-0.030211940763475637,"376":-0.0600148632143474,"377":0.028720250122631758,"378":-0.033505482575231844,"379":-0.03672882620410474,"380":-0.12220694545456653,"381":-0.03398698366726882,"382":-0.03775946040008745,"383":-0.17057717526763763,"384":-0.07739812429934197,"385":-0.03258941091198643,"386":0.022367758052051316,"387":-0.08877118617392032,"388":0.0018349986977486978,"389":-0.06589480375626092,"390":-0.061304787039113906,"391":0.05846027617346569,"392":-0.03414687555256381,"393":0.0696636316497533,"394":-0.02182833522891717,"395":0.006998420399025335,"396":-0.006531342116313619,"397":0.14828622814485024,"398":0.06037852733446456,"399":0.06779897100829138,"400":0.006183643502734203,"401":0.03998188502913484,"402":0.004685080291849538,"403":0.034747925249730506,"404":-0.000846803826111255,"405":0.004575784211288096,"406":0.017298982931980653,"407":-0.0024218930812278097,"408":-0.017145125736248296,"409":-0.017221012886569166,"410":-0.02038048596971715,"411":0.020000656242943945,"412":-0.14454399258851616,"413":-0.02488341490591103,"414":-0.12792352669855872,"415":-0.012050060681970216,"416":-0.05244535337970035,"417":-0.023891711747005735,"418":-0.0340277034437562,"419":0.031538622705615256,"420":-0.02314469954791821,"421":0.006232420788499482,"422":0.04237323398756128,"423":-0.007012837070899424,"424":-0.01885532023220378,"425":0.04420484565711321,"426":-0.012703668479922159,"427":-0.02583865898379207,"428":-0.05885081900313216,"429":0.03098418254482056,"430":-0.04274559555148557,"431":0.005034797358039124,"432":-0.03339390341284007,"433":-0.04375033106889261,"434":-0.01205264833978943,"435":-0.026756514003743796,"436":-0.019843845493212206,"437":0.033356798913350645,"438":0.10246254071096497,"439":0.024281413969041384,"440":-0.04437358637583745,"441":-0.020494069070845243,"442":-0.01420489163010953,"443":-0.05099294859931568,"444":-0.09487914367761967,"445":-0.04461645336494287,"446":0.0989413701331478,"447":-0.0870270194148073,"448":-0.059707370597289346,"449":0.07610107181310842,"450":0.009704813268872741,"451":0.08882115329166103,"452":-0.03447010201922073,"453":0.007084176186999732,"454":0.027511403079874295,"455":0.008766437973848002,"456":0.0732439991281129,"457":0.023162259142428695,"458":0.02577946278249125,"459":-0.057281595650623685,"460":-0.10516351032813025,"461":0.012514976942617051,"462":-0.038242819330345026,"463":-0.01301793202647571,"464":-0.10833049624720628,"465":-0.0502637144089283,"466":-0.07344651234529938,"467":-0.044422479644715226,"468":0.018501753116357114,"469":-0.03266057608365746,"470":0.03300251679585164,"471":-0.028971064956343894,"472":-0.03880072692402493,"473":0.006262991492624809,"474":0.01518682518717694,"475":-0.017135351415605512,"476":0.003373715604643764,"477":-0.03982683716369544,"478":0.17643151715469566,"479":-0.06452249634658229,"480":0.00572722011507335,"481":-0.0408110135672321,"482":-0.042321721547867584,"483":-0.021722150778765412,"484":-0.03318191557545353,"485":-0.011637336171262735,"486":-0.035796663420248134,"487":-0.017051188306635535,"488":0.04798651966278179,"489":0.026427164746019798,"490":-0.08638399805670752,"491":0.0383379622077791,"492":-0.020991903812642872,"493":0.08366144513786639,"494":0.08188709852845173,"495":0.02215096166349275,"496":-0.07913427223869964,"497":0.0512726599496815,"498":-0.017846709553212027,"499":0.1194711749644205,"500":-0.039238591181407476,"501":-0.04689028276381283,"502":-0.017220276912732996,"503":0.027734897934338854,"504":-0.024041076188028653,"505":0.06702121988782732,"506":-0.04564839178392465,"507":0.020842171436471425,"508":-0.05942777899826824,"509":0.07938195734230649,"510":-0.10729532799606283,"511":-0.19589760130018558,"512":0.011067996726629642,"513":0.01814474488538625,"514":-0.016426233982558647,"515":-0.042290124323866626,"516":-0.06860588033188826,"517":-0.1684864573292708,"518":0.00584142110502022,"519":-0.02368458859809372,"520":-0.05307100578573038,"521":0.055573946481384334,"522":0.030346952779253186,"523":-0.01826947868115557,"524":-0.040909117656559635,"525":0.027000859045458063,"526":0.09388330256514163,"527":-0.013700710624254141,"528":-0.13368130960996938,"529":-0.04249239714787313,"530":0.04750198207729933,"531":0.062491280039051654,"532":0.036624452088309355,"533":0.014848067384107873,"534":-0.038947304603904755,"535":0.024158880848291354,"536":-0.0796773747471588,"537":0.02990658378535265,"538":-0.028530650471726912,"539":0.058696367177474416,"540":0.029385008287305763,"541":-0.020723993831176096,"542":0.0020763305554010896,"543":-0.08146127398890247,"544":0.010137923511177127,"545":-0.022752818282461666,"546":-0.007084682478240331,"547":-0.05636841606853821,"548":-0.04732693900888008,"549":-0.09003576918981379,"550":-0.06465300334377336,"551":0.06285483404882845,"552":0.02084415984943224,"553":0.03684225354231318,"554":-0.07349431369391474,"555":0.036028064210156904,"556":-0.00139405059125512,