{"layers":[{"out_depth":3,"out_sx":64,"out_sy":64,"layer_type":"input"},{"sx":5,"sy":5,"stride":1,"in_depth":3,"out_depth":32,"out_sx":64,"out_sy":64,"layer_type":"conv","l1_decay_mul":0,"l2_decay_mul":1,"pad":2,"filters":[{"sx":5,"sy":5,"depth":3,"w":{"0":-0.017574895856240384,"1":-0.0026084388967710062,"2":-0.13829650858639553,"3":-0.005274775691041706,"4":0.023875277503596873,"5":0.21720984583607278,"6":0.033051902608853614,"7":0.2341119814738309,"8":0.032526078244731506,"9":0.22779458590247553,"10":-0.1763599764676721,"11":0.046591909365145304,"12":0.08060084430081223,"13":0.11635662370801442,"14":0.15725842194146317,"15":0.005791074759935114,"16":0.06199920464281053,"17":0.15629520387308654,"18":-0.08531717401265235,"19":0.09610773147008701,"20":0.02645798365504093,"21":0.07849972948286633,"22":0.11639773850235659,"23":-0.045943908249012136,"24":0.07669318663804546,"25":0.015002435050083298,"26":0.07266309917925312,"27":0.006921052436835259,"28":0.16582996932436056,"29":-0.0672150885440686,"30":0.08326507763721151,"31":0.08404589231851912,"32":0.16496566408127314,"33":-0.11908951251483842,"34":-0.04985685871973459,"35":0.0579446500638409,"36":0.0714275245995377,"37":-0.009144669705296394,"38":0.19981784954265475,"39":-0.07100299720922601,"40":-0.10817146203458512,"41":-0.005961356656242276,"42":-0.032293283321072584,"43":0.0806839986273086,"44":0.045659058054104994,"45":0.1952837552546957,"46":0.0758800181576546,"47":-0.07667271899628168,"48":0.2191878772228775,"49":0.11807723683473054,"50":-0.03939713400741602,"51":-0.04783102680411316,"52":-0.18837273600026,"53":-0.1493265457164201,"54":-0.07060493933132032,"55":-0.011334426947804508,"56":-0.17196992475701106,"57":0.035169316514791577,"58":0.036213110386651017,"59":-0.03973908595496669,"60":-0.05416930726267724,"61":-0.19822944965249,"62":0.010983540368124368,"63":-0.04003929457229985,"64":-0.28474924615302477,"65":-0.19330681290146157,"66":0.18949671372329288,"67":-0.27334311054852806,"68":-0.1225514258897212,"69":-0.009314510248751132,"70":-0.04546487974330867,"71":-0.2940113394023251,"72":0.005095749287595657,"73":-0.21513474212796416,"74":-0.1533463966414821}},{"sx":5,"sy":5,"depth":3,"w":{"0":-0.0026743434511703277,"1":-0.06565394148540549,"2":-0.05768427662058411,"3":0.3503322570804464,"4":0.048258215153093934,"5":0.27967183656014954,"6":-0.129531468523531,"7":-0.08794015323720479,"8":-0.19833854298707193,"9":0.008139270059763037,"10":0.07917571989415126,"11":-0.11030832934853495,"12":0.06807531074973754,"13":-0.1854163694948081,"14":-0.19970133372360846,"15":-0.016423717611685634,"16":-0.032226775204353,"17":0.02189537740476305,"18":0.16034867319157353,"19":-0.16450981297465178,"20":0.018305799439293644,"21":0.2563486565684975,"22":0.030011309221100145,"23":-0.08002349997650912,"24":0.2370093286257917,"25":-0.02731607445860493,"26":0.0006225086893853502,"27":0.06685722952222989,"28":0.1049306120466657,"29":0.09678694070556021,"30":-0.008886249789805217,"31":0.09298920188451575,"32":-0.034847130842261764,"33":-0.3328576791665083,"34":-0.01891485127041257,"35":0.12255571321728911,"36":0.03984951491837488,"37":-0.04832130332921391,"38":-0.27350285700339366,"39":0.10636657540030701,"40":0.05597754954281192,"41":-0.05059804402821282,"42":0.05725463038907186,"43":0.12153331126340673,"44":-0.05259181011477511,"45":0.20504116770072175,"46":-0.0805832785945114,"47":-0.18457542459092585,"48":-0.12676589744877506,"49":-0.022221012851729536,"50":0.030542606314086482,"51":-0.11662411502328933,"52":0.08946890329414137,"53":-0.0677189250201602,"54":0.046881325403833704,"55":0.17599086785195558,"56":-0.09002426312969383,"57":0.04129153178997503,"58":0.001610299770557653,"59":-0.103681849772013,"60":-0.02730588261186919,"61":0.16143618108984906,"62":0.15252682644086946,"63":0.024978142350246833,"64":0.11878442240609641,"65":0.03644517069602297,"66":0.06944617432076823,"67":0.2980295469840467,"68":-0.15708163021143084,"69":-0.04996389412133481,"70":0.04718770296318501,"71":-0.14016120317711558,"72":-0.10353187934908342,"73":0.10915194136211818,"74":-0.15856738271008072}},{"sx":5,"sy":5,"depth":3,"w":{"0":-0.09187966416568633,"1":-0.1247287207217087,"2":-0.01817383667706124,"3":-0.13242963696480226,"4":-0.0026238008517663826,"5":-0.37548398079149964,"6":-0.14936848369366504,"7":0.015197082686474439,"8":-0.06314586382674747,"9":-0.20432719189823095,"10":0.09833671262426634,"11":-0.09163240845422752,"12":-0.18333501973487284,"13":0.04095334705741935,"14":-0.12279699157465455,"15":-0.14082382704598373,"16":-0.00907793224270934,"17":0.2745451437752992,"18":-0.07051459627446582,"19":-0.060164860951313924,"20":0.11371398787543381,"21":-0.0408649146456356,"22":-0.15892396498486028,"23":0.1172007573100388,"24":-0.10602077236090118,"25":-0.14464927245779188,"26":0.16027494575844256,"27":0.011591069162700102,"28":-0.14456446408376955,"29":-0.097708929802312,"30":-0.0653553959736978,"31":-0.054067602352232076,"32":-0.20643310070287807,"33":0.26337292359780534,"34":0.17048656846004712,"35":-0.2009943341733081,"36":-0.1164805632556411,"37":0.07127478782443437,"38":0.16841596110844528,"39":-0.011803712442825104,"40":0.0009267269538690235,"41":-0.18864608355223858,"42":-0.4685484222631914,"43":-0.08832439258924168,"44":-0.20125946169531328,"45":0.08746806498917228,"46":0.1423721037858114,"47":0.20331410046163065,"48":-0.08159803689794072,"49":0.10175284234679725,"50":0.09310561175391513,"51":-0.1198206420134578,"52":0.05688266000104073,"53":-0.04175585628166461,"54":-0.025875362765788522,"55":0.22132561902040243,"56":-0.24337837750110503,"57":0.12332888283239704,"58":-0.13292618429739222,"59":-0.13844168189004988,"60":0.1543221913146733,"61":0.16477408717168515,"62":0.27396409197436083,"63":0.04636637267324216,"64":0.1623075154261357,"65":0.159720920373388,"66":0.10178523926408976,"67":0.051369153840977184,"68":0.11770644103667724,"69":0.07442982932895344,"70":-0.10324469220271938,"71":-0.12933787744564007,"72":-0.05629894195191493,"73":-0.13824592208189773,"74":-0.03170580495963273}},{"sx":5,"sy":5,"depth":3,"w":{"0":-0.043932083949348714,"1":0.03843335312379888,"2":-0.003238137215328776,"3":0.027332741927420724,"4":-0.07840632615826641,"5":0.013197722971462447,"6":-0.14693636260961865,"7":-0.003926426307131426,"8":-0.05714934600990105,"9":-0.19525244944534517,"10":-0.1441165547739518,"11":-0.10918243975660809,"12":-0.22186380834631628,"13":0.02385770556759844,"14":-0.12302550907297216,"15":-0.10251109105234486,"16":-0.019196590052786105,"17":0.047340894413245634,"18":-0.09338345933946916,"19":-0.03589942832441148,"20":-0.012176980336793148,"21":-0.036708425909631956,"22":-0.15926481475754503,"23":-0.05190900956967513,"24":-0.18095982889855147,"25":-0.0850930651323868,"26":-0.283318607285063,"27":-0.11870073750475964,"28":0.044400130063206436,"29":-0.1736188289286734,"30":0.02829028966539935,"31":0.06733252173445953,"32":0.12593206767791107,"33":0.020696905638063035,"34":0.20825184116079168,"35":-0.22743720311968102,"36":-0.00806087079664951,"37":0.009317146778686298,"38":-0.05816119748659833,"39":-0.020408457014822974,"40":-0.13074157435421502,"41":-0.2609282417695467,"42":-0.007673955049624728,"43":-0.0065262141560156585,"44":-0.15721289424102297,"45":-0.07873468771667894,"46":0.148512570094796,"47":0.258785687621949,"48":0.012621055280944798,"49":0.16600756864089986,"50":0.09651569655801329,"51":0.09079884274277962,"52":0.03799763024761852,"53":0.11505160656064292,"54":0.0289689501462957,"55":-0.2370354826756111,"56":0.01280543211369451,"57":-0.2913598632381664,"58":-0.2332248777937676,"59":0.22324102702687174,"60":0.20104150434906506,"61":-0.02644680910883025,"62":-0.022522731299016177,"63":-0.08618886137886661,"64":0.12031115718766482,"65":0.13835365632049917,"66":-0.19550853847595864,"67":-0.05849493780408033,"68":-0.15751467209604847,"69":-0.11817993245975124,"70":-0.06413472831777552,"71":0.07696670589609701,"72":-0.14099855934224184,"73":0.04143480029426816,"74":0.020416036741652155}},{"sx":5,"sy":5,"depth":3,"w":{"0":0.1517469568625499,"1":0.22203034859354123,"2":-0.007207135186595259,"3":-0.025501666828085377,"4":0.039175826235067754,"5":0.06569763169679586,"6":0.1054955991747623,"7":0.0997081022246793,"8":-0.23245191878108643,"9":-0.23820877257518475,"10":0.14459721202334008,"11":-0.2069354980867513,"12":-0.04051583921610447,"13":-0.10886455533401675,"14":-0.06299142057282826,"15":0.05583398820395384,"16":0.08663214534281505,"17":0.09021635664536105,"18":-0.03525157249431586,"19":0.12883304902276652,"20":0.0686736282760711,"21":-0.0682206796971828,"22":-0.1251994731900868,"23":0.1828849777122916,"24":-0.2395456199699836,"25":-0.029535359333169302,"26":-0.026687528641235362,"27":0.04575275826356184,"28":-0.07995333931696885,"29":0.1378718034122456,"30":0.13548200825865725,"31":0.007192768784025833,"32":0.16494308465576737,"33":0.3176871318818657,"34":0.08791446633426826,"35":0.015305096621007066,"36":0.1023193647404506,"37":0.04777883880756873,"38":-0.13901299587189558,"39":0.09331483853473531,"40":0.021010249131471856,"41":0.07594971488435079,"42":-0.11715779823818143,"43":0.02771366590172362,"44":0.0404832625870537,"45":0.1479581735177762,"46":0.1962673992155397,"47":-0.13980364999969372,"48":0.11455993575260764,"49":0.051196489259380557,"50":0.10669043895765969,"51":0.07829673982970345,"52":0.018670852512927646,"53":0.10918760509080692,"54":-0.007336695348433159,"55":-0.06122809485738994,"56":-0.1257307008286388,"57":-0.03376388106349783,"58":0.20176506046178264,"59":-0.1447221567830998,"60":0.03545589463226294,"61":-0.051118416545752055,"62":-0.08266171354051649,"63":0.11185772040339173,"64":-0.010360364558713395,"65":0.02557065442301342,"66":0.08313955516790032,"67":0.054508997097102066,"68":-0.15635227013454028,"69":-0.044486670342660906,"70":0.15786799353958786,"71":0.03260490575906828,"72":0.010790379320469699,"73":0.0014436188192330844,"74":0.005900215748054452}},{"sx":5,"sy":5,"depth":3,"w":{"0":0.13065928714199024,"1":0.05490013331883882,"2":-0.20659236756868485,"3":-0.15336709887560765,"4":0.19788012934432525,"5":0.038330481617717835,"6":-0.23248451564743752,"7":-0.05334596134429448,"8":-0.08635025734232629,"9":-0.07183881203367733,"10":-0.14980439727255143,"11":-0.06543029903160254,"12":-0.11146902371127737,"13":-0.12084123499900071,"14":-0.2723517778488542,"15":-0.26118358377995515,"16":0.1199750044797968,"17":-0.18283514554654803,"18":-0.25640346930854235,"19":-0.053089461601763414,"20":-0.22475568578746616,"21":-0.3273101066269788,"22":-0.1293866825901264,"23":-0.2630702994512669,"24":-0.2624159383027507,"25":-0.28626308439172143,"26":-0.13677427984124096,"27":-0.0536230434991011,"28":-0.008800240469812223,"29":-0.09744840359077969,"30":-0.1347776740593116,"31":-0.12831521089783698,"32":0.11089224838703408,"33":-0.07574851833622935,"34":-0.041890380382470394,"35":-0.039746420010674084,"36":-0.1091088217083669,"37":-0.16939019707870256,"38":0.28182686087591824,"39":-0.29852093411353886,"40":-0.056953613471500665,"41":-0.13026856554357485,"42":-0.12518855298027312,"43":0.08246171829442629,"44":-0.32431608382595256,"45":-0.138269048911031,"46":0.0011982594265151597,"47":-0.2034619597905954,"48":-0.12034204271379569,"49":0.08130176212697768,"50":-0.14785502549177776,"51":-0.21133423994270142,"52":0.0839255016473648,"53":-0.28602133197398255,"54":-0.25407684361696625,"55":-0.16453501196352607,"56":-0.02015604424106783,"57":-0.21192807927579585,"58":-0.09108668817382796,"59":0.031044247700494736,"60":-0.0630089927582345,"61":0.016241520368432297,"62":-0.15567635679861905,"63":-0.10028447996768201,"64":-0.031880466454011394,"65":-0.07703969474772031,"66":-0.1587484962043334,"67":0.1599004700679709,"68":-0.22537619952813295,"69":-0.06568246220830995,"70":-0.14290408276323305,"71":0.14917314095731063,"72":0.1926560487052545,"73":0.05379404096501207,"74":0.18588322368730267}},{"sx":5,"sy":5,"depth":3,"w":{"0":0.09963253641309576,"1":0.13277948104690335,"2":0.27329658327697515,"3":-0.01631706926156708,"4":-0.20431299830738966,"5":0.3157007475689877,"6":0.21777308955790872,"7":0.0173869880481732,"8":0.1271532223932394,"9":0.010359156876492753,"10":-0.11721960777248781,"11":0.13637551362007233,"12":-0.009260592385447615,"13":-0.08308732564389465,"14":0.2632102127094945,"15":0.005837070269457829,"16":0.01549378524071119,"17":0.006484495060067218,"18":0.019196797274128808,"19":-0.04423755832465398,"20":0.21653742587577063,"21":0.18310172057327243,"22":0.1043729542560482,"23":-0.06787847666595442,"24":0.14081572157393749,"25":0.1702814481863887,"26":0.08744030547708576,"27":0.1518052427805529,"28":-0.008126265868569224,"29":-0.03935920963565353,"30":0.14282066500064397,"31":-0.11583657463021363,"32":-0.11253828613942182,"33":0.0914204388667728,"34":-0.21680699841293494,"35":-0.01634911737540742,"36":0.14260003970559756,"37":0.12914934906002956,"38":-0.14579557980767383,"39":-0.278004083504794,"40":0.21505673011196652,"41":-0.14011518221948854,"42":0.13836532250865152,"43":-0.3043093321787673,"44":-0.3970538458763176,"45":0.050038359791471226,"46":-0.10894128913206183,"47":0.06582946822625196,"48":-0.10994999615243932,"49":-0.16739123085228194,"50":0.1128019393088145,"51":-0.014800961673740442,"52":0.26296139753319503,"53":-0.023425380897439365,"54":-0.08686540967809707,"55":0.004940460750963386,"56":-0.04373272859602803,"57":-0.03807428709069382,"58":-0.232419079059844,"59":-0.47941652624951814,"60":0.05568449604482066,"61":0.0643766420414322,"62":-0.10491596543198475,"63":-0.2455753006173514,"64":-0.05938758754956188,"65":-0.03656551710752498,"66":0.1403249558656229,"67":0.055108424736825555,"68":-0.005808072864450372,"69":0.04526757077875287,"70":-0.07640012434897012,"71":0.07386377126718026,"72":0.11875064669628951,"73":0.07569561688014151,"74":-0.2330156788327794}},{"sx":5,"sy":5,"depth":3,"w":{"0":-0.1395928334142971,"1":-0.09698217943993788,"2":-0.2540701385231138,"3":0.05954113711185071,"4":-0.06570005354248498,"5":-0.024334047082135095,"6":0.012587312725680772,"7":0.1168932546993575,"8":-0.036242670615665766,"9":0.1301562195697723,"10":0.1324016962002429,"11":0.0989058424993122,"12":0.07304059226001122,"13":0.15225302384467004,"14":0.06636911179224596,"15":-0.062965945137267,"16":-0.11054487832543795,"17":-0.08215163956413823,"18":0.15763078427720156,"19":0.02214277547804369,"20":-0.1351127264183913,"21":-0.052356987931705574,"22":-0.018111247537715713,"23":-0.13697598817369142,"24":0.014004808202351865,"25":0.15970973110258319,"26":0.22296303483058602,"27":0.05616441728868954,"28":-0.03481127068255791,"29":0.18421898275022514,"30":-0.13295218425242242,"31":-0.012899067180294913,"32":-0.16925176650632004,"33":0.11897073562599704,"34":-0.1286621934222356,"35":-0.11226179131765111,"36":0.1210628273589688,"37":0.1338132260051796,"38":0.23632333428740107,"39":-0.19830811438632112,"40":0.18499456611220283,"41":0.10213156314742898,"42":0.061431526621970996,"43":-0.010769506726171458,"44":-0.0442841976574045,"45":0.09312670526747241,"46":0.032022608434604395,"47":-0.31823128315833066,"48":-0.04824467333810707,"49":-0.290443027803624,"50":0.08169736561010524,"51":0.11128864255910532,"52":0.1714789775668765,"53":0.1368465019083715,"54":-0.004151362474715163,"55":0.17495049694964293,"56":0.07260117636409029,"57":0.05861297685872683,"58":-0.004786148939890536,"59":0.07945738651741499,"60":-0.0665184840149787,"61":-0.17993928368496248,"62":-0.2330392518471502,"63":-0.13899611440121448,"64":0.14396181254251195,"65":-0.1721153491153141,"66":0.15200235025646436,"67":-0.09206149678199603,"68":0.1644543149631224,"69":-0.16636944898591527,"70":-0.03790663772011835,"71":-0.20279538656040408,"72":0.1593149168589895,"73":0.046509676915564464,"74":0.06275056572436367}},{"sx":5,"sy":5,"depth":3,"w":{"0":0.15518069802466014,"1":0.03343836901866493,"2":0.13982392794785117,"3":0.15761769341412488,"4":-0.05623004084760562,"5":-0.024098839076082196,"6":-0.06479867428052882,"7":-0.16032445715813287,"8":0.09874889543340437,"9":0.296678810103577,"10":0.05487979817881448,"11":-0.06921256225103149,"12":0.134579430152826,"13":-0.08303263878162372,"14":0.18747613007530126,"15":0.07803617211925165,"16":-0.19146802652860714,"17":-0.0040398136762013395,"18":-0.019184036657744125,"19":0.1578260014008832,"20":0.2082033168767797,"21":-0.06234550353980107,"22":-0.03756045084508885,"23":-0.08825764023357348,"24":0.26267651387174545,"25":0.17331680416065173,"26":0.028103063404279798,"27":-0.05992261927766582,"28":-0.0858802624749429,"29":0.13413884368924436,"30":0.04719894526810346,"31":-0.15076421188021297,"32":-0.13298661192937228,"33":0.08309669485244416,"34":-0.03692290601457389,"35":0.10432239813626983,"36":0.1396275305007953,"37":0.056128547508790316,"38":-0.0772796799012216,"39":0.2864608764585097,"40":0.07200444121363492,"41":-0.030298766249917432,"42":-0.19612190398119125,"43":0.04088334952495279,"44":-0.08467002258607655,"45":-0.009815701444792047,"46":0.15000508682487368,"47":-0.05905323984133933,"48":0.05337148861134295,"49":0.008618187281738613,"50":-0.012158920013741286,"51":0.009942384878577949,"52":-0.1779215732147757,"53":-0.08597212124486953,"54":0.10073837949560564,"55":-0.08577828917432917,"56":-0.0830627887467467,"57":0.1360069107718744,"58":-0.08177755148422798,"59":-0.24950052500786563,"60":0.2629115014258949,"61":-0.1270629824276168,"62":-0.14976912715255822,"63":0.15977679754168045,"64":-0.2249716573343592,"65":-0.08575720874511521,"66":0.03362471933757933,"67":-0.0689215277052986,"68":-0.06140220752903548,"69":0.14225040087580343,"70":0.244616373876765,"71":-0.08537582103691675,"72":-0.13584899026926348,"73":0.08104590583733,"74":-0.2609995991694036}},{"sx":5,"sy":5,"depth":3,"w":{"0":0.0671834574795533,"1":0.018952474309840137,"2":-0.3278932501953115,"3":-0.02831776319566545,"4":-0.004587915364440762,"5":-0.14920957680772362,"6":-0.09472921330277512,"7":0.06527323798314268,"8":-0.007580095474579764,"9":-0.03067697826544563,"10":0.09111490854842563,"11":-0.048220273766512695,"12":-0.063094368102421,"13":-0.09613260161302242,"14":-0.07379733026510621,"15":0.19091430158878947,"16":0.02581567180248305,"17":-0.06137658191101017,"18":0.03890844458546314,"19":-0.06698671640359774,"20":-0.21664205480737983,"21":0.11373738895422866,"22":0.011563025286036642,"23":-0.10686046090823584,"24":0.372230082295075,"25":0.06144242327405668,"26":0.21460381668957926,"27":-0.07675943888474414,"28":-0.13574416142848933,"29":-0.28512707390262265,"30":0.22055110439645487,"31":0.21456719676238034,"32":-0.10756865073671722,"33":0.02914820704368259,"34":0.08098759914954103,"35":-0.36768100363940515,"36":0.2744142624879721,"37":0.020708557329389286,"38":-0.05875961601681568,"39":-0.002832175134707563,"40":-0.028731004520709064,"41":-0.19400995205188523,"42":0.03848419506743712,"43":0.12994275556675175,"44":-0.2037106166195974,"45":0.16704961293608311,"46":-0.17105941235461988,"47":0.02611323907518481,"48":0.2832556410571579,"49":0.023090424878018725,"50":0.08029412078704422,"51":0.21121283787426215,"52":0.14884339653987033,"53":0.16370674577247624,"54":-0.03543321545539351,"55":0.08217599680912695,"56":-0.047043400100312716,"57":-0.03264670233487801,"58":-0.0070873242802736445,"59":-0.062157543665690325,"60":0.31129318234388154,"61":-0.18214261280292945,"62":0.13976933615108408,"63":0.10495766814192135,"64":0.01206250745585126,"65":0.08769250796482432,"66":0.18594611713913384,"67":0.18603877689658804,"68":-0.03230435038587462,"69":0.06918828902675503,"70":-0.13146362085091806,"71":-0.06590808285847659,"72":0.1210831911248556,"73":0.025957184586385348,"74":-0.017899168038254427}},{"sx":5,"sy":5,"depth":3,"w":{"0":-0.09582884912141308,"1":-0.11580566055250083,"2":-0.0376124701661008,"3":-0.12188939707472299,"4":-0.04428291579214555,"5":0.07162066219248574,"6":0.004005517594654597,"7":-0.15491099984385165,"8":-0.14798793576567434,"9":0.08464993334266864,"10":0.05939924589530341,"11":-0.05302619991970207,"12":0.27030347235671365,"13":0.06995882574061933,"14":0.2821603671748853,"15":0.15120453992128685,"16":-0.15310987472969959,"17":-0.31127817941654007,"18":-0.25481363540518953,"19":-0.05064665901946464,"20":-0.06150481226612958,"21":-0.11225199487993888,"22":-0.12159008801235872,"23":0.003284565601446941,"24":0.03478959302197746,"25":-0.049821115110329425,"26":0.23372807107722768,"27":0.13702364806987172,"28":0.0773759595426152,"29":0.1281645913217496,"30":-0.20611772397361633,"31":-0.06289684710313778,"32":-0.11313598612122057,"33":-0.014697338114994515,"34":0.10018823400673155,"35":0.15732602426580602,"36":0.10837931546452433,"37":0.0957126907777608,"38":-0.10127190766798179,"39":0.133089362377155,"40":-0.2356866495616544,"41":0.1710216722697894,"42":0.14628526369255124,"43":0.10127858309307092,"44":0.0935371238148135,"45":0.030173745226084844,"46":-0.1244666695734286,"47":-0.09720195697421281,"48":0.02672185381027058,"49":0.0958070731962827,"50":-0.2571021439533046,"51":0.06396053340869907,"52":-0.004254509593523033,"53":-0.059498132658295594,"54":-0.05640412494424061,"55":0.16165395755827347,"56":-0.043831720990863486,"57":0.25003669844369436,"58":0.10706807390969213,"59":0.028229046666200398,"60":0.018304010205597965,"61":0.03571212145922039,"62":-0.05827604476511134,"63":-0.10557696761910004,"64":-0.05821135783436886,"65":-0.07461550885549524,"66":-0.04934606585403991,"67":-0.043508597753903144,"68":0.06929401000415727,"69":0.06484718755129265,"70":0.02599403298765295,"71":-0.03696337749713628,"72":0.010512764061072995,"73":0.02310169571000903,"74":0.08280000442871718}},{"sx":5,"sy":5,"depth":3,"w":{"0":0.02712560966470085,"1":0.14424931249666356,"2":-0.10738548895367203,"3":-0.0637780068592328,"4":0.11421409500520455,"5":-0.19565333517069175,"6":0.1981470476580047,"7":-0.0021435364256164146,"8":-0.05455366309268617,"9":-0.11165610800206562,"10":-0.25338642369052833,"11":-0.18481435479082564,"12":-0.1305165432441336,"13":-0.13588894831829168,"14":-0.3565486733379644,"15":-0.06728749613767311,"16":-0.11549269033163877,"17":-0.10940956353894954,"18":0.14736574057626248,"19":0.057587257905056394,"20":0.1645783941922948,"21":-0.3402058296778406,"22":0.15272705468230172,"23":0.17358253125424536,"24":-0.14099173755986363,"25":-0.09754942809818083,"26":-0.14047862177529044,"27":0.09408113739353913,"28":-0.010480209121709598,"29":-0.18396302236771706,"30":0.03384273347737245,"31":-0.0429096321791482,"32":-0.03947002276711078,"33":0.056661061154895206,"34":-0.07257380619498356,"35":-0.09785126659321418,"36":-0.026943504965722776,"37":0.06098429562808358,"38":-0.03912516398941737,"39":0.2115833536585721,"40":0.07861486007676283,"41":0.16363108169482118,"42":0.0868239868330406,"43":0.010547233872331233,"44":0.026196692408596393,"45":0.19802516159349126,"46":0.03547636069045568,"47":0.036432921073729585,"48":0.07613201021822331,"49":-0.051599191564071875,"50":-0.10974895288302351,"51":-0.055153387630278106,"52":0.019704908161385797,"53":0.24881305820179261,"54":0.0632214675539059,"55":0.07653669849958947,"56":0.17732809483554446,"57":-0.027005477185542047,"58":0.06636462198226675,"59":0.0186848886898611,"60":0.04608656768641989,"61":0.03107546024700929,"62":-0.061123171634453834,"63":-0.2541237573060513,"64":0.12371145436867166,"65":-0.008794661797200088,"66":0.1475341092736387,"67":-0.0927672563369468,"68":-0.2307635094685939,"69":0.11684453512878971,"70":0.10786012946735414,"71":0.013653870783599082,"72":0.19960017047951686,"73":0.15665094317049952,"74":0.1486377982986596}},{"sx":5,"sy":5,"depth":3,"w":{"0":-0.25537833102949764,"1":-0.13132478620039534,"2":0.08313051172916196,"3":-0.2362284809005894,"4":-0.06171386040193389,"5":-0.008642833020787381,"6":-0.23297608695109653,"7":0.021383877356679865,"8":0.009107290363600124,"9":-0.23705753790344133,"10":0.06352836811981373,"11":-0.16135982485012146,"12":-0.018768432169134614,"13":-0.01166579414308847,"14":-0.2536185548374637,"15":0.08716245156679557,"16":0.05899984215115251,"17":-0.12892770903378079,"18":-0.10623332451874425,"19":0.0991173568531403,"20":0.0004677637743008391,"21":-0.11276289439263591,"22":-0.06227722305654556,"23":0.1138064061656404,"24":-0.12069464762019917,"25":-0.10514388075171018,"26":0.0625988328127953,"27":-0.022483508208614576,"28":0.2185821641363601,"29":-0.0822211429720442,"30":-0.1425343524285268,"31":0.06690191172374807,"32":-0.041865483923390685,"33":-0.031957006591435605,"34":0.14023109041198822,"35":-0.16678918381361216,"36":-0.15772524378477937,"37":-0.2270662224588227,"38":0.18456163272161397,"39":0.11768390111979825,"40":0.07579098642250273,"41":-0.18473002737403085,"42":-0.1031986202314093,"43":0.0879241460922012,"44":-0.22117075998347605,"45":-0.12357934490474122,"46":-0.011406254832810023,"47":-0.06516626872794293,"48":-0.17354464189799226,"49":-0.036167672592556904,"50":-0.23330147688946307,"51":-0.19109929070727288,"52":-0.15546386035929913,"53":0.07604230641299638,"54":-0.1517569905147027,"55":-0.013797507389788194,"56":-0.243357037663671,"57":-0.027331002927903043,"58":-0.16253062268034973,"59":-0.0684545893821118,"60":-0.07984144643975771,"61":-0.016415166658323745,"62":-0.2777352612115283,"63":-0.21817817966703337,"64":-0.14316619617698564,"65":0.05856675059589179,"66":-0.10840151530113659,"67":-0.13844230106700633,"68":0.1143409278369084,"69":-0.07313116704880196,"70":-0.059209174026492555,"71":0.05839935376474816,"72":-0.1020375289316995,"73":-0.18562444105901027,"74":-0.09009228580835203}},{"sx":5,"sy":5,"depth":3,"w":{"0":0.05433257668287068,"1":-0.1796032221217035,"2":-0.45829526375774526,"3":0.0058829440191608354,"4":-0.18939428154095114,"5":-0.3594246674993968,"6":0.21315681373934153,"7":-0.030500686599983867,"8":-0.022337772089811216,"9":0.244862031375115,"10":0.1902647428673717,"11":-0.0728795834478301,"12":0.14773551644425104,"13":0.20250124461785143,"14":-0.18362172902861204,"15":-0.3223855945622684,"16":-0.1289053592125295,"17":-0.10758711707588527,"18":0.3361492396086916,"19":0.10557502346194148,"20":-0.046678516323707564,"21":0.000938867006622555,"22":0.024923905159205516,"23":-0.12479032438938022,"24":-0.09723641340364007,"25":0.2291412788473228,"26":0.13866693942989458,"27":0.07250134221290039,"28":0.11624787668372208,"29":-0.051188296853568016,"30":0.04790122773523296,"31":-0.3843573770733317,"32":-0.04061963363311329,"33":0.061503490543398084,"34":-0.07159208625413897,"35":0.031782566439286064,"36":0.2935858160847912,"37":0.06846128952770428,"38":0.15068031279219413,"39":0.18262729824217358,"40":0.09587126046124021,"41":-0.1443810280918766,"42":-0.060151062932961866,"43":0.022847922617590197,"44":-0.04941502290618455,"45":0.08694498762310916,"46":0.23397776387332925,"47":-0.042594868602705734,"48":0.20632331180239272,"49":0.05113965055333412,"50":0.04603330617343385,"51":0.11603664034068677,"52":0.08565932439628603,"53":-0.02680145687852364,"54":0.24748104400989163,"55":0.1966106454942819,"56":0.14063477790455128,"57":-0.12925765733144845,"58":-0.15693488187216845,"59":-0.010046390971090724,"60":0.18439628857741014,"61":0.11059920087508975,"62":-0.13523858801883543,"63":-0.10078563074597058,"64":0.1893772760930361,"65":-0.07004408518584404,"66":-0.034538200769696825,"67":-0.03869120578617699,"68":-0.12729774453737205,"69":-0.0655824302049149,"70":-0.018515359733823455,"71":-0.15180415797950075,"72":0.11989146824430892,"73":0.15006362208821547,"74":-0.248505688035995}},{"sx":5,"sy":5,"depth":3,"w":{"0":-0.13520080998401518,"1":0.23418416216155397,"2":0.10517380071881141,"3":-0.04268480354110769,"4":0.22443378605414685,"5":0.14409516263601663,"6":0.26177806536353976,"7":0.061548971786407884,"8":0.09382237621162,"9":-0.20725623599352944,"10":-0.11706543210333203,"11":0.21278971893335458,"12":0.06842488340109198,"13":0.01470603420849998,"14":0.07980571600765923,"15":-0.05234381023095342,"16":-0.0008317822543683651,"17":-0.022447999494181782,"18":0.09499427818227509,"19":0.24155430139214532,"20":0.07579503811417003,"21":-0.08507378034504434,"22":0.213616318429505,"23":0.22565436486696383,"24":-0.0808126966671738,"25":-0.0031928911371870987,"26":-0.04004539848394683,"27":0.04496224077878516,"28":-0.12548060034619685,"29":-0.055279575947051504,"30":0.0620401913929517,"31":0.08703223034519916,"32":0.047391300648643844,"33":-0.028815927686739667,"34":0.26740839796271626,"35":-0.037733456820116126,"36":0.10325764238091636,"37":0.006413552403710335,"38":0.24643877644747877,"39":0.3325876027081157,"40":0.20641685415491218,"41":0.20500500243018674,"42":0.10898148145916092,"43":-0.06800388456719149,"44":-0.18570588714964711,"45":-0.03361089614255456,"46":-0.1316682540068306,"47":-0.14185124201385813,"48":-0.17282678719377145,"49":-0.22949824077689215,"50":-0.09600782865541653,"51":-0.049752091617020724,"52":-0.09009814706106169,"53":-0.04026894909955912,"54":-0.047840151811387316,"55":-0.14463372447604708,"56":0.10672215399324674,"57":0.15723118469033967,"58":0.11727269791026841,"59":0.1754545855880814,"60":-0.14755063414107938,"61":-0.2021390152265296,"62":-0.3412730304901934,"63":-0.04677160002002278,"64":-0.03645114384737883,"65":-0.41260552794931027,"66":-0.20198948647724171,"67":0.17625724854086114,"68":-0.251375740579847,"69":-0.051444936392308356,"70":-0.1195669673707385,"71":-0.2372496245029458,"72":-0.034055492655189465,"73":-0.28794072588496655,"74":0.007399116814475387}},{"sx":5,"sy":5,"depth":3,"w":{"0":-0.0552749534074396,"1":0.13169810258185546,"2":0.1677403706147625,"3":0.05529658700851507,"4":-0.0023813360393688783,"5":0.1028763999532942,"6":0.08805304564913201,"7":0.061159715774508516,"8":0.29845794643731477,"9":0.0897117700200084,"10":0.20326441964407058,"11":0.009658743431013778,"12":-0.0017923308235342817,"13":0.07420847718587711,"14":0.1878856776075373,"15":0.010476465097380464,"16":0.031522331999028104,"17":0.03919542273290832,"18":0.01886692445367088,"19":-0.2404605277881785,"20":-0.12632532085129436,"21":0.09838835405820709,"22":-0.17990246308873165,"23":-0.3892057817568287,"24":0.08993167593194956,"25":-0.15438471236417056,"26":0.08105800020757213,"27":-0.06672959137198985,"28":0.07290219134823563,"29":-0.07219550046978994,"30":0.012080571095957691,"31":-0.05384639214745991,"32":0.1258319587740851,"33":0.029083821831008657,"34":-0.1214890369646118,"35":-0.1375652672935527,"36":-0.14010391846166137,"37":-0.2677376416161301,"38":-0.1839458978165215,"39":0.04239306000062178,"40":0.08679501933999571,"41":0.1199930139641252,"42":-0.06328103700379809,"43":-0.024840463352352394,"44":0.1175400960994607,"45":-0.19514310571968144,"46":-0.01605086710627705,"47":0.029580915454549692,"48":-0.12456776609437666,"49":0.08700928269162937,"50":-0.06795366860378829,"51":-0.06369404531652212,"52":-0.23504775616103143,"53":-0.15794453427319513,"54":0.03991721560533787,"55":-0.055581742183186796,"56":-0.002632753229853875,"57":0.014878573546031044,"58":-0.05245946505592167,"59":0.23347834014844263,"60":0.09065971166073206,"61":0.05383036627942951,"62":0.010085204687179713,"63":0.02723087622291423,"64":-0.018097653129436737,"65":0.052100826245325235,"66":0.02077291852891317,"67":-0.08787694056913285,"68":-0.3066738636371705,"69":0.010868621769969935,"70":-0.08602193273006932,"71":-0.11874487417963508,"72":-0.164327444389653,"73":0.07263937769780918,"74":0.13184949906167281}},{"sx":5,"sy":5,"depth":3,"w":{"0":-0.1016169677797004,"1":-0.1340207980959734,"2":-0.23609404005632492,"3":0.03747077648302516,"4":0.03594092661693419,"5":0.010703721327962674,"6":0.09895073996752315,"7":-0.020439192472114405,"8":0.06030156639066326,"9":0.06388882343146958,"10":0.08963886236786647,"11":0.003934686907192119,"12":0.25081127268035036,"13":0.1076001640036169,"14":0.3203321189593591,"15":-0.037455109904865155,"16":-0.13503487628986777,"17":-0.20708219301800324,"18":-0.04367668896564555,"19":-0.1803091755117194,"20":-0.12216983511772969,"21":-0.028480860780872627,"22":0.09174954353674208,"23":0.04576591052937577,"24":0.12467313846707717,"25":0.047820733859767435,"26":0.2008458393102936,"27":0.3792330990429498,"28":0.14562538844249626,"29":0.11952066519355463,"30":0.0730016671082028,"31":-0.0916693951535222,"32":-0.16554206922950598,"33":0.2289170541471771,"34":0.15313644898878076,"35":-0.06906855014191642,"36":0.1876767672800993,"37":-0.0768521392053464,"38":0.023133819226661044,"39":0.052058424955521834,"40":0.0777772041057191,"41":-0.047608219315161085,"42":0.11982227813686881,"43":-0.030858724136582822,"44":-0.027530987441262814,"45":0.09328633610975087,"46":-0.17501627067751718,"47":-0.0951950981555688,"48":-0.021563648515233867,"49":-0.09459537214826934,"50":-0.03549710886351718,"51":-0.05483149876970765,"52":-0.02109968547693405,"53":0.005908192499348328,"54":0.2181210518167054,"55":0.14138802586615012,"56":0.17041052313564645,"57":0.034460821794094515,"58":0.14624310123508535,"59":0.11316772058339129,"60":-0.004331152254787353,"61":0.1352688002609883,"62":0.07220214450957971,"63":-0.15496922425610263,"64":-0.2235674879336044,"65":-0.1811914129428741,"66":0.05506731070232849,"67":0.11916912982831541,"68":-0.09382291481106428,"69":-0.03983330164769986,"70":-0.04567450854113884,"71":0.03283816452070364,"72":-0.000811692773513619,"73":-0.13136459995580121,"74":0.08438257445972945}},{"sx":5,"sy":5,"depth":3,"w":{"0":0.005393690310108333,"1":0.03861574463999038,"2":-0.059067092577423576,"3":0.02576053977454548,"4":0.2614816601150846,"5":-0.10273143216251027,"6":-0.005899146633439399,"7":-0.024986066639040495,"8":-0.08539216915022066,"9":-0.10719127217439602,"10":0.2519998637091274,"11":-0.1701201444368014,"12":0.00038169069268767524,"13":-0.11915154909957527,"14":-0.12066283740111103,"15":0.037756931122156834,"16":0.1339806615529535,"17":0.14167908661917022,"18":0.1010235828993631,"19":-0.15090458317515668,"20":-0.24790997349375135,"21":-0.015860945672142995,"22":-0.10563309237951214,"23":-0.28601320720865026,"24":-0.016181651167512155,"25":0.020663989602034496,"26":-0.277428391674214,"27":0.30683337890766776,"28":-0.0016640875807148647,"29":-0.17912283433881368,"30":0.12056154898966324,"31":0.030778628338813407,"32":0.14914284896008498,"33":0.2254920474133551,"34":-0.2593029782785281,"35":-0.030831517410437173,"36":-0.14388060551283313,"37":-0.14304886000491365,"38":-0.3120692522719148,"39":0.06464958193422071,"40":-0.07428924440951959,"41":-0.18128381812956132,"42":0.23169725810301905,"43":-0.02205095111635054,"44":0.2098776559397308,"45":0.3453683074465956,"46":-0.047422556739104615,"47":-0.011972366060912946,"48":0.03525133161814629,"49":0.06320443648924103,"50":0.13113341236888992,"51":0.2873099574868799,"52":-0.09604373652444954,"53":-0.34123149583033013,"54":0.33207791598865416,"55":0.2911932156320315,"56":0.10400499323980188,"57":0.24327083950959033,"58":0.1467569697092177,"59":0.27788667192436534,"60":0.011026261428949254,"61":0.029939983080585833,"62":0.03435134350825961,"63":0.03388892158449293,"64":-0.1366111028710994,"65":-0.18740070532339353,"66":0.304325023712197,"67":-0.1969154673838341,"68":-0.28175287104070507,"69":-0.05631166351540089,"70":0.19917674204859803,"71":0.15447169630739457,"72":0.3505256126820921,"73":0.016902019060107985,"74":0.10940161473987219}},{"sx":5,"sy":5,"depth":3,"w":{"0":-0.050123353067746276,"1":0.19613469072230835,"2":0.12683955469593888,"3":0.0020713338957627056,"4":0.0014184540693863352,"5":-0.32084497710943743,"6":-0.3297069889013078,"7":-0.42752715604921604,"8":-0.5691669438501678,"9":0.011471749113348037,"10":-0.18103243457378806,"11":-0.33414075910372315,"12":0.14922009869536074,"13":-0.06901508771818192,"14":-0.009884548037537489,"15":0.131628791604704,"16":0.2781199859261783,"17":0.008815774357624883,"18":0.1819224493984893,"19":-0.016077405079671685,"20":-0.11031383815803004,"21":-0.09920474394754636,"22":-0.04183184446107707,"23":-0.26417398664662217,"24":-0.10252066503737227,"25":0.10859890017189376,"26":-0.15145944047489898,"27":-0.06120034259762198,"28":0.04562669031888478,"29":0.03181707063503843,"30":-0.058516545777194874,"31":0.14190938989340696,"32":0.07536275634643602,"33":0.12496590562568187,"34":0.11186378713435306,"35":0.019545712899522297,"36":0.014172145339507926,"37":0.06187197814716977,"38":-0.07551877671325723,"39":0.08689345708529021,"40":0.022403438570474866,"41":0.226027384219662,"42":-0.09843785194789763,"43":-0.09405619244714782,"44":-0.1192418032566203,"45":0.01663404099426151,"46":-0.008874343979251005,"47":0.045311046490113915,"48":-0.21234287998053075,"49":-0.1273486036335379,"50":-0.12176008572368967,"51":-0.056538310461832504,"52":-0.15236659105193712,"53":0.17613676726392966,"54":0.12739120900857612,"55":0.12124361298247498,"56":0.16461119002351549,"57":-0.08730280908859685,"58":0.30423589712412885,"59":0.11244920487437719,"60":0.11036720061102728,"61":-0.21792885564822892,"62":0.3009778497048713,"63":0.0008077216336521287,"64":-0.032181677327564384,"65":0.18609783098324678,"66":0.13254647078688317,"67":0.1252415782445018,"68":0.17845796513156637,"69":-0.1608645671378892,"70":0.04570255711427098,"71":0.008166619480520016,"72":0.21363546597979116,"73":-0.03582073059705872,"74":-0.029725107195408048}},{"sx":5,"sy":5,"depth":3,"w":{"0":-0.07159507943025609,"1":-0.047791897247399275,"2":-0.043328334533753024,"3":0.2783003183603729,"4":0.04857628750656585,"5":0.027274449453910804,"6":0.25623891267826926,"7":0.22223692527486325,"8":-0.29744633013018273,"9":0.0032528725089328433,"10":-0.05496774326707599,"11":-0.2746043616191584,"12":0.10042279783000985,"13":0.03296213100540403,"14":-0.34243753196164106,"15":0.21588921986609258,"16":-0.01660494857150676,"17":-0.025791177798699542,"18":-0.10748799580718904,"19":-0.025043863548697125,"20":-0.13729286160877702,"21":0.30953723547805617,"22":0.04265970878917021,"23":-0.053934347128171335,"24":-0.049049850116075246,"25":0.29260044541481633,"26":-0.4302337461443865,"27":0.06281873444904916,"28":-0.0057609017934509175,"29":-0.12737461110588266,"30":0.2515858132981796,"31":0.15808727025937278,"32":0.11714724252173808,"33":0.19752414870080245,"34":-0.14090307007569436,"35":-0.0486302255485414,"36":0.040366533158870954,"37":0.14477036507988678,"38":0.02460293097510446,"39":0.22472863316378575,"40":-0.034237597556004334,"41":-0.08966760896588814,"42":0.20845700841250064,"43":-0.16523801499878424,"44":-0.209039410879637,"45":-0.05305159731412295,"46":-0.29430618069092074,"47":-0.21749846604322387,"48":-0.13575698004830808,"49":0.20194280666125006,"50":-0.49526907498058065,"51":0.08939311306736908,"52":0.07757766616359003,"53":-0.21234891238791898,"54":0.13845091124917858,"55":-0.004608584656156963,"56":-0.2538016407859393,"57":0.16105150300721624,"58":0.277245875745372,"59":-0.01945820170483286,"60":-0.01559820441127293,"61":-0.09988047766120163,"62":0.2929254511577095,"63":0.1324780627538659,"64":0.28327546863281067,"65":-0.11542742577779098,"66":0.12227580424310763,"67":0.3099539333013428,"68":0.03983547865086167,"69":0.14958976052094863,"70":0.009145873556928306,"71":0.17985248605156276,"72":-0.041297587305480894,"73":0.16640911221926863,"74":-0.21164752100759798}},{"sx":5,"sy":5,"depth":3,"w":{"0":-0.2198523618186658,"1":-0.11094873202068535,"2":0.015070017973529179,"3":-0.1711709568089809,"4":0.13235127276151828,"5":0.04575531802587311,"6":-0.09933573185153331,"7":-0.016088040807838374,"8":0.11611378890308717,"9":0.14349584682202784,"10":-0.04238080995660359,"11":0.1412341133450752,"12":-0.03488273386673947,"13":-0.08753828140451175,"14":-0.035043388382693504,"15":0.16268109236830194,"16":0.14045844717370262,"17":-0.06261656546084961,"18":0.1132123937951531,"19":-0.05727557250201751,"20":-0.028756791109288388,"21":0.15312109954234973,"22":0.25422663671131324,"23":0.08602296500694852,"24":-0.007490916011044416,"25":0.028728412502454375,"26":0.08750023978050349,"27":0.02104063580643187,"28":0.12213663863033104,"29":-0.03785032637442921,"30":0.1332258270330798,"31":-0.10744970718289891,"32":-0.016799631389927166,"33":0.05967629983109313,"34":0.04892398542026712,"35":0.1975556719305964,"36":-0.011392880671744054,"37":0.0851663345398398,"38":-0.19084624138564305,"39":-0.10983856863769885,"40":-0.1075616956236058,"41":-0.0046604372951882566,"42":-0.12009202485203962,"43":-0.08853314691746203,"44":-0.22424364730091503,"45":-0.0643809360006123,"46":-0.025204234538237266,"47":-0.0658111003900951,"48":-0.23730851808212053,"49":-0.012208530537065799,"50":-0.08939375208760698,"51":0.10911260541720384,"52":-0.017339390259386352,"53":-0.055926340929569426,"54":-0.052684793766907656,"55":0.14086608428020755,"56":-0.03161722139124584,"57":-0.04550848138466235,"58":0.10746023266499198,"59":-0.24526071548792197,"60":-0.21534423126086744,"61":0.09362204892425154,"62":-0.12700494523947647,"63":0.05943749766535571,"64":0.13657769919545243,"65":0.03758867974459451,"66":0.18896487289283767,"67":-0.14378452308051415,"68":-0.05342498398526285,"69":-0.17053150556815197,"70":-0.19342794498755664,"71":-0.2718609411448711,"72":-0.03468652996177713,"73":0.008029685108746092,"74":-0.13314243335704865}},{"sx":5,"sy":5,"depth":3,"w":{"0":0.171605153748408,"1":-0.08056292990350238,"2":0.033879117419110295,"3":0.014748965176578381,"4":0.02204569720459563,"5":-0.08588493149542716,"6":-0.18478551155533804,"7":-0.049036121607412574,"8":-0.15064068531709016,"9":-0.079010013836664,"10":0.030783566200826642,"11":-0.08428591239705459,"12":-0.04738791543744686,"13":0.151851484557832,"14":-0.011362708372348599,"15":0.47176864071125124,"16":-0.03926296108642722,"17":0.043173435706175614,"18":0.016497851693800535,"19":0.115481366629671,"20":-0.21823273708437543,"21":0.034636475254110344,"22":-0.03139420478606871,"23":0.1060331478955576,"24":0.13842442685195083,"25":0.09096670773676431,"26":-0.3546648903548758,"27":0.1434567233732797,"28":0.19752635822695896,"29":0.06983837355706113,"30":0.05887487544166477,"31":-0.04790333935365589,"32":0.0706601751095873,"33":-0.06593283063966762,"34":0.2457910753161509,"35":-0.03762627400028105,"36":-0.013971023679418448,"37":0.2232319063467064,"38":-0.002308931193656604,"39":0.1374479547981902,"40":-0.21298114477899943,"41":0.06249320426280338,"42":0.20644874716043185,"43":0.28181672592368584,"44":0.048029289010312275,"45":0.020735091967917993,"46":-0.1766897185042106,"47":-0.09431681748761682,"48":0.0006717376855723217,"49":-0.06034060178627732,"50":0.08821686950639514,"51":-0.02626449180312948,"52":-0.046141362612783905,"53":-0.07721149389968403,"54":0.013702329544964496,"55":0.0072664337317030914,"56":-0.0766818490410188,"57":0.04534422985753224,"58":-0.044545677650681584,"59":-0.15938038766835685,"60":-0.02243296793447716,"61":0.09822794223858233,"62":-0.09508981960120137,"63":-0.12546811366150162,"64":0.061761582138079585,"65":-0.0050313640811680375,"66":0.08258609478008168,"67":-0.25226225425423443,"68":-0.06366773870921924,"69":0.06892416141629132,"70":-0.02320676091104272,"71":0.08362641991625895,"72":0.09101838566520508,"73":-0.10303625498306675,"74":-0.04986641111000057}},{"sx":5,"sy":5,"depth":3,"w":{"0":0.05345796433702859,"1":0.18510825443497936,"2":-0.07633884336222092,"3":0.06656846556348321,"4":0.07219082793200482,"5":0.05021359234142605,"6":0.14063124816253714,"7":0.15828250088593485,"8":-0.09637567689124817,"9":-0.20367192559373667,"10":-0.14718776235807465,"11":0.012100476261181886,"12":-0.005808570021681304,"13":-0.1609570070035619,"14":0.051839128934576685,"15":0.30246529626134044,"16":0.1685539928256718,"17":0.09272903521576872,"18":-0.16471036427789387,"19":0.13103908401732167,"20":0.1551492050901132,"21":0.08547953888068353,"22":-0.08961659330093062,"23":0.005951702178150518,"24":-0.02878246706595129,"25":-0.1783286344681448,"26":-0.3241407241045073,"27":0.03942629181580887,"28":0.13963083192770512,"29":-0.21277184182089406,"30":0.015591263924047966,"31":-0.13965875732708333,"32":-0.3654907841542116,"33":0.17281833553580894,"34":0.07570132950056473,"35":0.060826378048555785,"36":0.18943650351583807,"37":0.2535582453257822,"38":0.07886205818514888,"39":0.07522787667283054,"40":-0.08283578812220134,"41":-0.15874297734604537,"42":0.43385454434635273,"43":0.030393443420192425,"44":-0.1929373577686943,"45":-0.05839751823026395,"46":-0.04617805051243683,"47":-0.07603907052509849,"48":0.06954146912464254,"49":0.0002579836393782527,"50":-0.02940663345277335,"51":0.16383419949672914,"52":0.13280426898081965,"53":0.027704605884869987,"54":0.03553232574161706,"55":0.01233320258695277,"56":-0.06209001605822872,"57":-0.01849680868323764,"58":-0.0021255751789949155,"59":-0.08086556728872142,"60":0.060819174864237595,"61":0.06390412027296255,"62":-0.07492550942834335,"63":0.03173923473629633,"64":-0.25641900357899533,"65":-0.08363653610888437,"66":-0.04302041474778969,"67":-0.014628193593560256,"68":-0.12924046149897433,"69":0.10173092076345704,"70":0.05607032588537069,"71":0.04307490763149885,"72":-0.012216951956978216,"73":0.04003821146584281,"74":-0.027120749992850746}},{"sx":5,"sy":5,"depth":3,"w":{"0":-0.2366925755340873,"1":0.10861060137550699,"2":0.27808335652325633,"3":0.19439086461212757,"4":-0.15730426159421687,"5":0.3838212664362169,"6":0.1724292512805882,"7":-0.0008676356409675833,"8":0.09979268436171324,"9":0.24026832900354048,"10":-0.10653214684283789,"11":0.26717248473015687,"12":-0.1955502816347413,"13":-0.08844634297063997,"14":-0.4721950494979744,"15":0.13467178322078124,"16":0.17758096731361692,"17":-0.07376407426602283,"18":-0.05944534980750539,"19":0.2606139139256394,"20":-0.13668264307724945,"21":0.10095900094228637,"22":-0.1532695474482591,"23":-0.20425970589973153,"24":-0.13784650169420679,"25":0.13683428517199758,"26":0.09397258729578631,"27":0.006402426618040539,"28":0.10183905206584978,"29":0.0011393257051665736,"30":0.050560777525482485,"31":-0.1029670752573123,"32":-0.0034659835318788974,"33":0.011360072234920717,"34":-0.12110152780758451,"35":-0.20636582298871986,"36":0.2073443861194334,"37":-0.1094092750576764,"38":-0.06331817268481743,"39":0.21110897177148596,"40":0.013311429100927705,"41":0.059119654688806124,"42":0.2593094517595139,"43":0.12618966539103385,"44":0.07093999819420117,"45":0.1607467562880871,"46":-0.19091399604555706,"47":-0.06955733785487846,"48":-0.07213652067135752,"49":-0.1692008247621739,"50":-0.128592851966579,"51":-0.08652081966442414,"52":0.026437852137416125,"53":-0.0445595098445845,"54":0.05643655822540864,"55":-0.015990305509515596,"56":-0.21634171531140675,"57":0.009157915691754183,"58":0.06600794317528401,"59":-0.00512294689003766,"60":-0.1972179854870775,"61":0.20054161556157332,"62":-0.10832654623595127,"63":-0.06728076330769141,"64":-0.05185657971186829,"65":0.011295714215088763,"66":-0.021957662115132722,"67":0.222838614941181,"68":0.1611873889966665,"69":0.05970754087957808,"70":-0.09401798090072394,"71":-0.07716368415552567,"72":-0.01980021213728306,"73":0.18575059985380882,"74":0.021898443895081218}},{"sx":5,"sy":5,"depth":3,"w":{"0":-0.1354711998026132,"1":0.17738856986690912,"2":-0.0211623033248759,"3":0.009085204811828082,"4":-0.23862302418646245,"5":-0.24016567887172002,"6":-0.2721595133485006,"7":0.03503843705050582,"8":0.062117605073579024,"9":0.09931300942115354,"10":0.03721343356169921,"11":0.09398808660313271,"12":-0.06666512277192577,"13":0.1644328328275765,"14":0.2092118398083977,"15":-0.19758823271662254,"16":-0.0438620419509295,"17":-0.02150893822982322,"18":0.22991922070365553,"19":0.03635813588342569,"20":-0.04858133395476273,"21":0.04100972414485494,"22":0.16365855733049922,"23":0.14974563607501362,"24":0.10286597965854392,"25":0.042745028690263344,"26":-0.09678676621999248,"27":0.007112378016236801,"28":0.1586990586717981,"29":0.16908919803556,"30":-0.017714915268193573,"31":-0.10941587677232147,"32":-0.17922976438648852,"33":-0.01981465971531326,"34":0.1208021074258821,"35":-0.06566851618457896,"36":-0.009754963751002384,"37":0.0019445807876529737,"38":0.12584700383977873,"39":0.15337125048523678,"40":0.007846734433461377,"41":0.11982099884519466,"42":-0.004009727401966504,"43":0.02205127155266587,"44":0.16685954695206687,"45":0.056949340367835326,"46":-0.3251498601613697,"47":-0.2899905812624692,"48":0.02875068584391394,"49":-0.0623507115814616,"50":0.06384389529250287,"51":-0.005823100581318235,"52":0.018861619075128396,"53":-0.0784656727824867,"54":0.05426837158905561,"55":-0.08899957243282684,"56":0.10759268003503063,"57":0.3014257460623808,"58":0.12790837021404228,"59":0.0020742905997664933,"60":-0.19670212587235847,"61":-0.0043251335447352934,"62":-0.031233751385719856,"63":-0.25206829068080816,"64":0.11384707705424767,"65":0.1932570820961083,"66":0.0013384648496839904,"67":-0.13933569594925677,"68":0.26174314087430306,"69":0.055978186475231284,"70":0.07024487193136714,"71":0.04777418789023427,"72":0.23119543641985607,"73":0.022362315968165528,"74":0.0025689395469335537}},{"sx":5,"sy":5,"depth":3,"w":{"0":0.0014091863263173264,"1":-0.01803833874157722,"2":-0.12728344769830013,"3":-0.009561669071515884,"4":-0.023967059046794796,"5":-0.041486807907600315,"6":-0.23416933061309025,"7":0.025229122276954622,"8":-0.11503333580289764,"9":-0.1490361845298746,"10":0.09791217748610827,"11":0.018484115878446557,"12":0.04439284865311146,"13":-0.07919246421397838,"14":0.1587145554119993,"15":-0.1696970598048432,"16":0.09578032519299047,"17":-0.1538312126862095,"18":0.11500415372993564,"19":0.19439014366272872,"20":-0.10972302628456852,"21":0.013351587195693394,"22":0.07312767897443283,"23":-0.151220765662943,"24":0.11876725173874239,"25":-0.19392139023487484,"26":-0.09769054265395344,"27":0.15992161282461312,"28":0.022058278496190232,"29":0.04764961897766608,"30":-0.052908703773596015,"31":-0.0990959783667533,"32":-0.3808541665174209,"33":0.028083989355774466,"34":0.060784256782295924,"35":-0.09236459168162518,"36":0.14558452883323392,"37":0.02634659307058155,"38":-0.3802706189771599,"39":-0.1364712515659766,"40":-0.003530853076358806,"41":-0.17332508852415615,"42":0.07935602802826833,"43":0.07862893711279631,"44":-0.2258188938169619,"45":-0.09428263940058895,"46":-0.08591748832582795,"47":-0.291809651872304,"48":0.05076491372197294,"49":-0.21618837446002223,"50":-0.1729745539799324,"51":0.04554247904229249,"52":-0.11182877787897756,"53":-0.05519326017720294,"54":0.13800299882613706,"55":-0.0007835940631301407,"56":-0.030972495786130018,"57":0.013059610664579018,"58":0.0743373207511716,"59":-0.044027950487082086,"60":0.0823123969430076,"61":0.14656480401525884,"62":0.19931693030427278,"63":0.051857945138136304,"64":0.1533414092696727,"65":0.21336668486967691,"66":0.08561216835135568,"67":0.05701767731844864,"68":0.34618289184682133,"69":0.27160478047155545,"70":0.09733921472478259,"71":0.17346622576755413,"72":0.29341394963063516,"73":0.00924811695569702,"74":-0.0886654998330712}},{"sx":5,"sy":5,"depth":3,"w":{"0":0.01616938482878168,"1":-0.1839120651469206,"2":-0.1331328278333833,"3":-0.08878511603624262,"4":-0.1904675032553364,"5":-0.20898791340365422,"6":0.07238960642346842,"7":0.043963412839545774,"8":0.11157963955349746,"9":-0.12518957037941658,"10":0.10549812109083324,"11":0.18664363141786408,"12":0.07670092718627784,"13":0.16031529511024326,"14":0.16733338478326906,"15":0.05499382478226006,"16":-0.25642933043506166,"17":-0.5132053050970337,"18":-0.1203926658695162,"19":-0.10162216945949124,"20":-0.34088635723419897,"21":-0.03321285860425697,"22":0.085878388359341,"23":0.07666828140779065,"24":-0.09179408661757495,"25":0.005629982363138145,"26":0.15605652879436074,"27":0.13012214652811074,"28":-0.12355405136368723,"29":0.28587544704300283,"30":-0.05258516181174069,"31":-0.0015878072430967308,"32":-0.11740003482948676,"33":-0.011215793921000423,"34":-0.04379682879314142,"35":-0.046749751037042805,"36":-0.06255595022066898,"37":0.034617471630697755,"38":0.06844576006625969,"39":0.11552098614981501,"40":0.011972416600383722,"41":0.25032916991158694,"42":-0.046925089932068065,"43":-0.00849979775668327,"44":0.11824389872491047,"45":0.13820608795779651,"46":0.07641712755438428,"47":-0.05839624766432168,"48":-0.0399914110356002,"49":-0.09806194642684975,"50":0.04492182830678652,"51":-0.09580692042191058,"52":-0.05828959397032689,"53":-0.005849538890444322,"54":0.03194261367397842,"55":-0.16671238481904746,"56":0.0013593423736648364,"57":0.04299517825671827,"58":0.003384926400364725,"59":0.12557133927716768,"60":0.29818325955181985,"61":0.10834993765349268,"62":-0.10149281135280394,"63":0.13765399472903425,"64":0.03705771503160628,"65":-0.11356728304250965,"66":0.13878747895188126,"67":0.05424578365694701,"68":0.05851032376018256,"69":-0.010782022474851676,"70":-0.15558790185909704,"71":0.1043867004696554,"72":-0.006440848015001216,"73":-0.0003693135978415951,"74":-0.09777143672864055}},{"sx":5,"sy":5,"depth":3,"w":{"0":-0.17795739469839977,"1":-0.11341909838458288,"2":-0.09243910584745871,"3":-0.19834830090262243,"4":-0.17076769435132166,"5":-0.13783472963768004,"6":-0.1749138711761081,"7":-0.0768672989651119,"8":0.10574539271627686,"9":0.1566712416312883,"10":-0.03515035034966475,"11":0.24401951493904536,"12":0.16993936797840534,"13":0.07025611427601629,"14":-0.08866054859126049,"15":-0.24731591841559789,"16":-0.1139252652361498,"17":-0.09475577780224044,"18":-0.1629247458353845,"19":-0.11742083796116587,"20":0.07130280340583417,"21":0.0012914746854732514,"22":-0.009256759349114315,"23":-0.060813486653747514,"24":-0.0719131155843948,"25":-0.0713404007839473,"26":-0.025639715897345525,"27":0.3127860802851817,"28":0.30341901182910086,"29":0.14113729534630412,"30":-0.08334795137046434,"31":-0.13045905320288417,"32":-0.22704725391753616,"33":-0.013704864820402323,"34":-0.11798861540701996,"35":-0.1793905479238774,"36":-0.027213380569919714,"37":-0.09761165077856215,"38":0.07212803374897075,"39":0.04953586918284208,"40":-0.05076854669585854,"41":-0.15162580444497786,"42":0.12674047754601364,"43":0.04244653853624443,"44":-0.061766918857682374,"45":-0.10502647985358424,"46":0.02685400976185004,"47":0.053573970276653664,"48":0.33794081158115336,"49":0.08470407922548535,"50":-0.09686170807514978,"51":-0.00404222487292058,"52":0.14162652814022503,"53":-0.09401461360021478,"54":0.10301730261224001,"55":0.09065813081109257,"56":0.14991484758231116,"57":-0.038472368539607386,"58":-0.0649898598048592,"59":0.13552542496358028,"60":0.17333860383182456,"61":0.0009836467390430441,"62":-0.06191186996008193,"63":0.1991302871818993,"64":0.1167277641872373,"65":0.012252028798901079,"66":-0.03835712887729898,"67":0.1362295141037354,"68":-0.1104214355567829,"69":0.2722866146921054,"70":0.17801360528148907,"71":-0.08599645928164464,"72":0.3135183612828168,"73":0.07643960479357391,"74":-0.214675627298202}},{"sx":5,"sy":5,"depth":3,"w":{"0":-0.07993918217015175,"1":0.11242178921431066,"2":0.06734956553012846,"3":0.03046293049565732,"4":-0.03152105707877708,"5":0.27147262684837953,"6":0.2124584728563071,"7":-0.18116413350470886,"8":0.05563709922516981,"9":0.26068000206068526,"10":0.11787117620550842,"11":0.32497709777327016,"12":0.09860951209726077,"13":0.18075614390235478,"14":0.5361929771131612,"15":-0.12091956473733935,"16":-0.1858519665573332,"17":0.21541709211904547,"18":0.11221501338538628,"19":-0.014137899337353916,"20":0.11431771264624417,"21":0.12126754052349766,"22":-0.054989020284733826,"23":0.13357099300328495,"24":0.11744081734290773,"25":-0.12847688496634735,"26":0.4050670808559388,"27":-0.1361344620597381,"28":0.1525421989533441,"29":0.2739477134816181,"30":0.3042048944079242,"31":0.017988657747106413,"32":-0.060369141417825165,"33":0.22875744652655727,"34":0.19374936260649156,"35":0.14905715435910977,"36":0.19497274345039406,"37":0.12479928620764838,"38":0.14165080033777727,"39":-0.1521489650542961,"40":-0.036931925923927106,"41":-0.12965819375254922,"42":0.07443799338012409,"43":-0.14052276775083083,"44":-0.04398693271021744,"45":0.2086367517967859,"46":0.20440400725941027,"47":0.21006220133178022,"48":0.12664966209104497,"49":-0.1913712098790918,"50":-0.12726558535887453,"51":0.00418668180496178,"52":0.04584657937579633,"53":0.03284608812112016,"54":-0.10664779797140074,"55":-0.3616550004787355,"56":-0.4986080268266054,"57":-0.05925124194041584,"58":-0.07857864695351278,"59":-0.10171074652268872,"60":0.15321473269499394,"61":-0.02832472513300722,"62":0.38787998552284453,"63":-0.1685707810877248,"64":-0.08913169899418799,"65":-0.12631075366805702,"66":0.09046538656291832,"67":-0.06130125241559093,"68":-0.05840797509876422,"69":-0.06730442533565352,"70":-0.21477280996504472,"71":-0.5588499887341112,"72":0.09538338147349185,"73":-0.434306765186447,"74":-0.40858712597597746}},{"sx":5,"sy":5,"depth":3,"w":{"0":-0.17235593453402145,"1":-0.1565005030581991,"2":-0.10607190629494628,"3":0.12470902163258041,"4":0.0052526324344717434,"5":-0.008032804753888427,"6":-0.025005908517713463,"7":0.2862299271150239,"8":0.06732895079474067,"9":0.22952937033765,"10":0.06814908996488714,"11":-0.06820747616920535,"12":-0.03853741556784404,"13":0.11502780019284894,"14":0.2490539982592607,"15":0.08759743511109842,"16":-0.1662695437047674,"17":0.27150062555782256,"18":0.08965909791364558,"19":0.008177989100118308,"20":-0.06653355083385228,"21":-0.15052126027528578,"22":0.19694881587299917,"23":0.09647818269431443,"24":0.28644312379038056,"25":-0.16136398971891702,"26":-0.09598096728993286,"27":0.13887883109562088,"28":-0.0034206086691829893,"29":0.19103233981551992,"30":0.015636090053703974,"31":0.06047985640123888,"32":-0.07444474227382353,"33":-0.14383789697906219,"34":-0.05443898897259303,"35":0.12435779113911634,"36":0.11701276163270614,"37":-0.0010060591176716306,"38":-0.19133120324880126,"39":0.1949605287876224,"40":-0.004301481070185789,"41":-0.027499021894673653,"42":-0.09450620464768651,"43":-0.0270821532844919,"44":0.035576027150837596,"45":0.09990424188385105,"46":-0.053713626885214485,"47":0.007895889695534468,"48":-0.13180885403609935,"49":0.048284579251006376,"50":-0.37709178494355694,"51":-0.05517091640097314,"52":-0.1118925750889399,"53":-0.4036770463397593,"54":0.06231556890699461,"55":0.03713612990956363,"56":0.1818098516376833,"57":-0.04473812378399488,"58":0.02632361318120416,"59":0.052691596258954025,"60":0.07561615485081646,"61":0.06677115051164323,"62":0.14428543564530177,"63":0.19087663539317373,"64":0.0485265537919444,"65":-0.2128851815315,"66":-0.08122541615108128,"67":-0.15866569777903808,"68":-0.12584737799251017,"69":0.2563264666713277,"70":-0.16769965893994032,"71":-0.13007862672941928,"72":-0.010466720801351526,"73":-0.04236584669600256,"74":0.10636458525692001}},{"sx":5,"sy":5,"depth":3,"w":{"0":0.17812995552143093,"1":0.06249690341769486,"2":0.1538229015752313,"3":-0.21054824491294455,"4":-0.2747823921024676,"5":0.21088916585770212,"6":-0.17735846586957157,"7":-0.05887160067614215,"8":0.1779672166796582,"9":0.007801079352173686,"10":0.10526134955882095,"11":-0.11777098954555532,"12":-0.016566852894960304,"13":-0.020687471297091677,"14":0.0494482419092839,"15":0.05011855725475696,"16":0.09249926360278707,"17":0.24096878658183998,"18":0.0979949942458527,"19":0.0841896401650132,"20":0.05885168522216857,"21":-0.1519283416956184,"22":-0.0013472957627516853,"23":0.02071425066247176,"24":-0.3507612775401219,"25":0.03425226084250132,"26":0.055423899389463675,"27":-0.08880503690133656,"28":-0.06981575596011005,"29":-0.1712684265852848,"30":0.029457619770659894,"31":0.06377428803402695,"32":0.2771652533474668,"33":0.12599944068849714,"34":0.1785675499187513,"35":0.18797520716030508,"36":0.13710301623942753,"37":-0.3254764041603896,"38":-0.08469136826353034,"39":0.00948364036317799,"40":-0.23051409588499086,"41":-0.29586277349995693,"42":-0.13521250047218686,"43":-0.2347620537324604,"44":-0.3001941046084313,"45":0.3191427850762637,"46":0.011974736368988093,"47":0.2680933868961835,"48":0.023355443972950855,"49":0.31315110511298166,"50":0.03974203740208288,"51":0.058110561401426675,"52":0.12290712915295138,"53":0.06659720323324254,"54":0.05290513307024088,"55":-0.15521062865651894,"56":-0.2484727836423374,"57":-0.014525922438269943,"58":-0.3133952689971428,"59":-0.21484856215470888,"60":0.10676891825219534,"61":-0.04273159132396706,"62":0.1880515249089375,"63":0.3027922843369772,"64":0.012820598227588497,"65":0.03708256895398774,"66":-0.008523565693885514,"67":0.008873581237065708,"68":-0.1106008154565526,"69":0.010204991185868663,"70":-0.10616540220094553,"71":-0.3371308348682313,"72":-0.018803656887160916,"73":0.23414845537253345,"74":-0.040770857847916696}},{"sx":5,"sy":5,"depth":3,"w":{"0":0.10460576688796679,"1":0.08838730290251882,"2":-0.2394396068258331,"3":0.15270845605222894,"4":0.07700520640269645,"5":-0.00946949689315208,"6":0.07757023635558787,"7":0.06353385124853751,"8":-0.012597795325505637,"9":-0.10905130552226461,"10":0.20936873820429272,"11":0.050388744411137804,"12":0.009733859306855575,"13":-0.1913054893084273,"14":-0.03340383549413148,"15":0.16574022959257537,"16":0.1966877729977905,"17":-0.10477794485011857,"18":0.08203658933091203,"19":-0.04877457552651786,"20":-0.018831609167708045,"21":0.0014351429587770603,"22":-0.027105391441229733,"23":0.05329067522152149,"24":0.10936438584745241,"25":0.0937485942614693,"26":0.04424236166712421,"27":0.05202476930150333,"28":-0.053565085687963226,"29":-0.04556597171448643,"30":0.16796064658093357,"31":0.23117124624174734,"32":0.09126129292652235,"33":0.10531051280569878,"34":0.09366090064623656,"35":0.09496292931661317,"36":0.0743696566252571,"37":0.26838738340958435,"38":-0.04225736108304516,"39":-0.14028225742668574,"40":0.10035649025861108,"41":-0.026184127886035163,"42":-0.10002506365083058,"43":0.1899225914245104,"44":-0.020941536492914775,"45":0.10713074907929793,"46":0.3730866825181252,"47":-0.011153854863685916,"48":0.04025043115122829,"49":0.11429053609403665,"50":0.1132823855894872,"51":0.12505397951709613,"52":0.01188164372055426,"53":0.07648002899658062,"54":-0.08233620422368797,"55":0.02375181365352305,"56":0.1571430179413677,"57":-0.12336136878096056,"58":-0.22313442040456635,"59":0.15979909156343888,"60":0.1879394306526997,"61":0.06709673915088836,"62":0.16760317043886683,"63":0.0716646123903019,"64":-0.10569928868161284,"65":0.03749487910727141,"66":-0.11028728012115625,"67":0.28925794219172507,"68":0.17677861365033454,"69":-0.07395848013708002,"70":-0.05780326699021592,"71":0.02762933920592876,"72":0.08567170818501794,"73":-0.07397573935446106,"74":0.027056367929020424}}],"biases":{"sx":1,"sy":1,"depth":32,"w":{"0":-0.16086526934015846,"1":0.08629741177788096,"2":-0.5644743297120577,"3":-0.4812271905802791,"4":-0.06426104292376981,"5":-1.1849709318269879,"6":-0.055369169506680395,"7":-0.020082743474003722,"8":0.061494940587036015,"9":0.12718301155569317,"10":-0.12913552805960768,"11":-0.1430104555524459,"12":-0.8962463616763184,"13":0.15821469756872536,"14":-0.189534625378148,"15":-0.1381462655481193,"16":-0.17474844208596213,"17":0.06498831168280815,"18":0.009859193786507316,"19":0.16803498574050652,"20":-0.17858984543702783,"21":0.026195666555607098,"22":0.06055518945502348,"23":-0.02975299239744694,"24":-0.26672441249598905,"25":-0.20325326534584243,"26":-0.12002338162732697,"27":-0.08057786438672736,"28":-0.1998899356172471,"29":-0.08125028136059295,"30":-0.1454129595989793,"31":-0.14520118660025078}}},{"out_depth":32,"out_sx":64,"out_sy":64,"layer_type":"relu"},{"sx":2,"sy":2,"stride":2,"in_depth":32,"out_depth":32,"out_sx":32,"out_sy":32,"layer_type":"pool","pad":0},{"sx":5,"sy":5,"stride":1,"in_depth":32,"out_depth":40,"out_sx":32,"out_sy":32,"layer_type":"conv","l1_decay_mul":0,"l2_decay_mul":1,"pad":2,"filters":[{"sx":5,"sy":5,"depth":32,"w":{"0":0.0063116553468630186,"1":-0.03887694094042958,"2":-0.046295530141207054,"3":0.060423026574469865,"4":0.033887607578872575,"5":0.005250681797978771,"6":0.04996677271882581,"7":0.03642236182163074,"8":0.03168920098482533,"9":0.0339555210754651,"10":0.003927617037726422,"11":-0.03209872490406608,"12":0.04694478089725084,"13":0.02538808817487683,"14":-0.06393673591416468,"15":-0.02009791528793575,"16":-0.002535011046688989,"17":-0.01070640079474846,"18":0.014138666889117569,"19":-0.0034434088085156843,"20":0.023236325255396602,"21":-0.03935118279021238,"22":-0.03357626979624053,"23":0.026499533231832118,"24":0.0046967996455118816,"25":-0.03119931949598198,"26":-0.04917920956047483,"27":-0.013306852195502683,"28":-0.030970904869942154,"29":0.015512118452628624,"30":-0.0011554758354220657,"31":-0.015059779481305192,"32":-0.040349431880786144,"33":0.025889736025432954,"34":-0.04679141694134744,"35":0.03253027911827196,"36":-0.049526076727452434,"37":0.011970019245814945,"38":0.022981076849020815,"39":-0.05133438783779476,"40":-0.01907576506540633,"41":-0.01829426239934205,"42":0.00410393200192245,"43":0.043476552799811705,"44":-0.021643744195566524,"45":-0.015866286528535098,"46":-0.07326073235790113,"47":0.00482874665195721,"48":-0.009330790586117048,"49":-0.015648819467338253,"50":0.01810852487949903,"51":0.00044989857140184496,"52":0.04056675687984204,"53":-0.02895436370011408,"54":0.0035846100940933536,"55":0.05253200966484885,"56":-0.03468764404065156,"57":0.021871670675699076,"58":-0.012510313921598981,"59":0.03080979864622967,"60":-0.0037032399790562958,"61":0.027956795337679027,"62":-0.023862251526911824,"63":-0.03232863973296511,"64":0.02411727524777105,"65":-0.010529480590121959,"66":0.009747625206918869,"67":0.02231901092150099,"68":-0.022469072435620477,"69":-0.021204728432280565,"70":-0.002486669852437909,"71":-0.06668932060857502,"72":0.027493001923997593,"73":0.04852590893293288,"74":-0.03938599579466115,"75":0.03797070157197886,"76":0.05972380611470232,"77":-0.019766311752420804,"78":0.046691303462470746,"79":0.02289694158157553,"80":-0.027006906111142717,"81":0.04935110478328064,"82":0.07393837611271536,"83":-0.0488464366001777,"84":0.01008954429864773,"85":-0.09124796932017339,"86":0.022193702605043168,"87":0.0017310522581648563,"88":-0.08528582357972483,"89":0.04142692988107278,"90":-0.0395565827813419,"91":-0.007845553399296532,"92":-0.037596059644933594,"93":-0.006170427243681239,"94":-0.07147828017440255,"95":-0.03159977711211764,"96":0.017369855133418047,"97":-0.0012752467593758884,"98":0.0032940362841703355,"99":0.06041715840888709,"100":-0.02060593327726964,"101":-0.025473208545850525,"102":0.025245604492661642,"103":-0.03219095323472287,"104":-0.08997242221626986,"105":0.03223141230790481,"106":0.042629060419452705,"107":0.07576102474663525,"108":0.04945540161463954,"109":-0.02632288948773062,"110":0.0037526468627173287,"111":0.0925762205353907,"112":-0.03416719079550405,"113":0.010477724339614948,"114":0.021751638868564592,"115":0.0297612420677704,"116":-0.03995171588403642,"117":-0.005338288570549936,"118":0.03148408333610743,"119":-0.011083473524580775,"120":0.03532448216974259,"121":0.028830576719562302,"122":-0.011515679940638934,"123":-0.02107511285114668,"124":0.02958356478353596,"125":0.03330283841605129,"126":0.027311419058674815,"127":-0.010530396822326675,"128":-0.05222415708765811,"129":-0.0011725285906408092,"130":-0.025290022068910213,"131":-0.01559784335974358,"132":0.019342387735181387,"133":-0.03146487275426722,"134":0.0365685439784372,"135":0.06884335446872686,"136":-0.018653534384890518,"137":0.005685286658534028,"138":-0.008792332055898137,"139":-0.05982527016708809,"140":-0.029131205047916674,"141":0.04631395157508917,"142":-0.016974368078154948,"143":-0.012903759980211529,"144":0.04552576641664445,"145":0.022136756874015395,"146":-0.03330406483794273,"147":0.0020102698341320307,"148":-0.042361543068639,"149":-0.00870291907204663,"150":0.0243866664324799,"151":0.028497978015823006,"152":0.07914283819426575,"153":-0.010523916421614498,"154":0.081499812495348,"155":0.03661045400635699,"156":-0.010416527650106925,"157":0.03503808657351552,"158":0.06735992685201657,"159":-0.00594028266144445,"160":-0.0018395695108900532,"161":0.02198926188720553,"162":-0.04600134088901719,"163":-0.060224333212031425,"164":0.006992755123423259,"165":0.02632082555209705,"166":0.002431342875909083,"167":0.0025519527406022277,"168":-0.04166035336982988,"169":-0.004658709087669948,"170":0.006450290014624049,"171":-0.011046159657869998,"172":0.012651364325578509,"173":-0.02754067579361994,"174":0.004918368953403789,"175":-0.06259612613249635,"176":-0.049540211326030176,"177":-0.040561270719010036,"178":-0.05256041970404579,"179":-0.030556641621749175,"180":-0.02092747011157743,"181":0.014765869514877112,"182":-0.011326384143689543,"183":-0.018943788152184168,"184":-0.047088235095131985,"185":-0.04620315740947412,"186":0.0010982683866831808,"187":-0.03831796808818383,"188":-0.0629219420893903,"189":0.0008506311549603754,"190":0.006247273374227545,"191":-0.056713743386179225,"192":-0.00058431280998204,"193":-0.03832434085138602,"194":-0.10697072651896881,"195":0.0065051416275418,"196":0.0009128464579842914,"197":-0.037068785192398354,"198":-0.06153990220083839,"199":-0.06640130354929229,"200":-0.016893864859163273,"201":-0.09503511653018916,"202":-0.06498945359515892,"203":0.08243016057067398,"204":-0.05073706604230153,"205":-0.024886187703948272,"206":-0.026667626887005517,"207":-0.025099282442132557,"208":-0.04182797262080096,"209":0.007730864918025572,"210":0.02784495651320012,"211":0.003575661042207443,"212":-0.006797563480200735,"213":0.024654190805780244,"214":-0.03031174543670026,"215":-0.035643764115210336,"216":-0.014660362191609554,"217":0.008476885141602448,"218":-0.025175474891221437,"219":-0.029187012188740407,"220":-0.051089767992792724,"221":-0.03805446809316075,"222":-0.08182750229373542,"223":-0.05562689431952856,"224":-0.006658765465469945,"225":-0.01778283166350074,"226":0.05777961396628071,"227":-0.021484061083656872,"228":-0.005088515021735541,"229":-0.050101833829732136,"230":-0.0928657648716301,"231":0.027656389744275773,"232":0.006831251009092422,"233":-0.07204136619210266,"234":0.033096225532874654,"235":0.02144599322677331,"236":-0.01428039123367354,"237":-0.004355692482222319,"238":-0.005804594712130787,"239":0.009732468376584133,"240":-0.037368736056782974,"241":-0.016697093611418197,"242":0.058117655637076514,"243":0.003014859364041805,"244":0.05407376987682968,"245":0.01984392352990722,"246":-0.03911596792277578,"247":-0.019265272401391583,"248":-0.007829354105953052,"249":-0.006254047071057198,"250":-0.0038208840628863833,"251":0.0016143615721459146,"252":-0.10516308488285502,"253":-0.024935630020095106,"254":0.006566718113579378,"255":0.019857740149676638,"256":-0.004221757725756678,"257":-0.018302748751324115,"258":0.024604753333214165,"259":-0.0747903126483688,"260":-0.004400203053594312,"261":-0.017089318524294243,"262":-0.00023702279754920944,"263":0.027149283132010104,"264":0.014048779922100858,"265":-0.05719503025169947,"266":-0.011193678865199697,"267":0.052367758648122216,"268":-0.040014676312323375,"269":-0.001518129641081849,"270":0.0324955450593185,"271":0.010555235517273904,"272":-0.04398609408587414,"273":0.025346880908655143,"274":0.08833513814290436,"275":-0.06454474330480447,"276":-0.014458119102750848,"277":-0.018015485199173228,"278":0.001908887285177871,"279":-0.004737992315320154,"280":0.04011539827681143,"281":-0.030424389958455884,"282":0.016590444459961485,"283":0.09575271287760644,"284":-0.03626605240173928,"285":-0.02638703032885185,"286":-0.020090607161150364,"287":-0.05685123062188357,"288":-0.05099684526922713,"289":-0.02697719806086044,"290":0.030794313458946076,"291":-0.03598353472712028,"292":0.013400095784055181,"293":-0.0151457189330724,"294":0.0002876818771971907,"295":0.01461314161314608,"296":-0.014448614095077857,"297":-0.035546733737700155,"298":0.05231661811634568,"299":0.010097014731499727,"300":0.031234145609867477,"301":0.052003534359893966,"302":0.03830713752457442,"303":-0.04037890316194652,"304":0.009474226999746085,"305":-0.03640561923459414,"306":0.03033318483814186,"307":-0.03660454985729472,"308":-0.024985397897009265,"309":0.04125606688993714,"310":0.02860547875819126,"311":-0.03257000417439637,"312":-0.06358926899835218,"313":0.014652387395011107,"314":0.06001676161630233,"315":-0.02366914201002279,"316":-0.07133738357031356,"317":-0.006876508505248583,"318":0.008835074264427407,"319":-0.02386605700900799,"320":-0.07822649763908741,"321":-0.035600794499302646,"322":-0.009800141096592876,"323":0.02574076361222789,"324":0.05023173533763038,"325":-0.020960434994776008,"326":-0.06380887910667919,"327":-0.03727177465768296,"328":-0.009199670480354366,"329":-0.05866913465085775,"330":-0.042634126293598244,"331":0.05098525120195944,"332":0.0017131767808576434,"333":-0.04478368904725574,"334":0.03310910588193299,"335":0.024024498542375587,"336":-0.00431428726386674,"337":0.020097854256848475,"338":-0.038106319341619045,"339":-0.017245339730373933,"340":-0.008468208170231686,"341":0.014761209892614872,"342":0.028316265267774716,"343":0.006121411906400211,"344":-0.018850454247508263,"345":0.04779891587082238,"346":-0.011499417448030735,"347":0.009951731189275207,"348":0.01677299702856684,"349":-0.017930381566729124,"350":0.018810937500085338,"351":0.0037319660729111513,"352":0.04865701251470262,"353":0.03990247536417328,"354":-0.013421995998344151,"355":-0.019584343790436453,"356":-0.04857003999850196,"357":-0.047329029518805715,"358":-0.03181320878570413,"359":-0.020621925944364815,"360":-0.05984657674472706,"361":-0.04574014820918943,"362":-0.004958569249353164,"363":-0.01842900368585164,"364":-0.01067884308882012,"365":0.005464316721333984,"366":-0.08997165869155474,"367":0.03704018759036672,"368":-0.0239246655635254,"369":-0.027255580020195787,"370":-0.004488048916628114,"371":0.0043106220851593085,"372":-0.06607125573937725,"373":0.033634413866274415,"374":0.03551333323163178,"375":0.0004003983190435507,"376":-0.045208501084401685,"377":-0.08065174219432106,"378":-0.022024903391751893,"379":-0.011295456988074127,"380":-0.062041887106098974,"381":0.027034735708044794,"382":-0.030685293841715536,"383":-0.09216789582436316,"384":0.0475596583465451,"385":0.033208013288619116,"386":-0.052899166018783535,"387":-0.026266021897400068,"388":-0.015666298647412685,"389":-0.04604822079421428,"390":-0.0687990508317916,"391":-0.014276485427277769,"392":-0.04640365908053435,"393":-0.08460133507412648,"394":0.03989599450530847,"395":-0.015883030263933763,"396":0.06813102710830996,"397":-0.0329235756177397,"398":0.03891864758477463,"399":-0.04167733446960993,"400":0.002434082772526008,"401":0.02896133538581432,"402":-0.09701211261415772,"403":0.011262725370826763,"404":0.08142607243285742,"405":-0.07999723595596482,"406":-0.01987481783660834,"407":-0.049099047860488985,"408":-0.02243148459043119,"409":0.0011626616623969758,"410":-0.052416470291721896,"411":-0.03068741414019872,"412":-0.022663125570184482,"413":0.03534611706026355,"414":0.0034159426773235396,"415":0.04033338417479243,"416":0.010983241415011414,"417":0.018820170140061487,"418":-0.04901753537598404,"419":-0.09335392462440605,"420":-0.038865515312458083,"421":0.031038986389287364,"422":-0.017651011429321222,"423":-0.0099565970520587,"424":-0.05167321647537798,"425":-0.022325949350606937,"426":-0.00996558718575157,"427":-0.026906610074875405,"428":-0.0038828486775097392,"429":-0.04212059687326807,"430":0.007306833047401374,"431":0.03269105917816179,"432":-0.005613527008879527,"433":-0.07056482568335465,"434":-0.038499944803167235,"435":0.03705853084436799,"436":-0.04210388950004444,"437":0.0380917235177821,"438":0.007090693069269403,"439":-0.021545149557186515,"440":-0.02467477131125382,"441":0.052885825789803276,"442":0.02116790219344399,"443":-0.03689541113759726,"444":-0.02253843948418966,"445":0.04508766559180005,"446":-0.006462658117184714,"447":0.000427168338735848,"448":-0.021119410353683126,"449":-0.0017892873937278302,"450":-0.0013738253261921535,"451":0.050656834944184194,"452":-0.0023482963881682178,"453":-0.014850844205990161,"454":-0.03085820092251142,"455":-0.01046157485662999,"456":-0.016163868919981773,"457":-0.0009252540546997746,"458":0.027886810900656103,"459":0.06875821735025964,"460":-0.0073693115954543455,"461":0.037070522785989685,"462":-0.041282690179780514,"463":0.00961474399690103,"464":0.011880130272927508,"465":-0.01544432264632979,"466":-0.021563052876001323,"467":-0.030366481721684362,"468":0.006388698606508961,"469":-0.07437538838205103,"470":-0.031137675207790413,"471":-0.012278250437239796,"472":0.01344649942341979,"473":-0.031451517246324466,"474":0.046620162375599496,"475":-0.011017329504960274,"476":-0.06875356356188934,"477":-0.029996406520435583,"478":-0.05456234006801335,"479":0.06859362695318687,"480":0.0006110688708238938,"481":-0.06072315526689818,"482":-0.021629003533592706,"483":-0.0004601289523576946,"484":0.005536130458372705,"485":-0.03855314575235229,"486":-0.0315551517192224,"487":-0.05091249749138148,"488":-0.017271595969761366,"489":-0.03640176692964359,"490":-0.025103683352494847,"491":0.01185622308067775,"492":-0.026605881829646728,"493":0.0015863292779908966,"494":-0.01870044292224703,"495":0.002659717491100548,"496":-0.034070181385157085,"497":-0.04041196868600694,"498":-0.02880302725858623,"499":-0.02914301961705609,"500":0.044446396379001656,"501":0.009412037594299002,"502":-0.0271662704616151,"503":0.0168454210456176,"504":0.08615763526211903,"505":0.03550956762941692,"506":-0.0325962215552689,"507":0.019799794794651396,"508":0.00003093975109709486,"509":-0.05527582794590147,"510":-0.025725609565535563,"511":0.0708104107229351,"512":-0.040688011639026585,"513":-0.02929917013971259,"514":0.0018487243226805452,"515":-0.03711374702549705,"516":0.012730449585482377,"517":-0.04999936173413014,"518":0.03824638599543257,"519":-0.0439478179522157,"520":0.043024666792574655,"521":-0.005527533804955828,"522":-0.0423003217739898,"523":0.028698784438191065,"524":-0.035460151416944294,"525":-0.07857275081158493,"526":-0.04370454869200657,"527":0.017659042557636815,"528":-0.01963715731462744,"529":-0.02885603928560222,"530":-0.08514201749685747,"531":-0.04713275571909514,"532":-0.0392251567632448,"533":-0.09157613429971476,"534":-0.01577987246068472,"535":-0.047582995178994336,"536":-0.02577924373429375,"537":-0.05192619191338801,"538":-0.02878157470753301,"539":-0.06153070344499713,"540":-0.03130997975825979,"541":-0.008259287232016537,"542":0.0221068893424796,"543":0.05463841001437595,"544":-0.00310256276817325,"545":0.0060987860659903375,"546":0.009979636033609952,"547":-0.04575151398877897,"548":-0.04807643042405408,"549":-0.02126120203400836,"550":-0.01655827179716357,"551":-0.03558221692212872,"552":-0.00535990161381461,"553":0.00874975116977704,"554":-0.0064570800193876655,"555":-0.02031080156163833,"556":-0.04324056111157576,"557":0.023030058610793658,"558":-0.028287208819174264,"559":-0.06656033177501754,"560":-0.00657370182683899,"561":0.012673295752813275,"562":-0.007290119700381703,"563":0.05357610213812525,"564":0.012567073884218809,"565":0.01832362252985244,"566":0.029032128517543984,"567":-0.04221445722081789,"568":0.0261249190693454,"569":-0.017852239830960116,"570":0.0425988762847244,"571":0.013223489586801042,"572":0.020924850785882045,"573":0.03570270760634107,"574":0.012409142200828949,"575":0.015237457963497101,"576":-0.029398140178532987,"577":0.020591004344042985,"578":-0.0039668151058396255,"579":0.006970125292284967,"580":-0.05347662074242919,"581":-0.023246632937938907,"582":-0.016626009943333728,"583":-0.018243962715730498,"584":0.002359510460335751,"585":0.05407727799155469,"586":-0.026515915723888554,"587":-0.020711012846105367,"588":0.002744940637044872,"589":-0.017874152357755097,"590":0.0331936807677483,"591":-0.004370803769845132,"592":-0.06514481873924516,"593":-0.00013639593344805332,"594":-0.00783170809677621,"595":0.0024457482096894106,"596":0.004026782475866285,"597":0.00882667621253105,"598":-0.014541099847566682,"599":0.03332924396650399,"600":0.03413931556137997,"601":-0.029590356820856742,"602":0.01340066818216119,"603":0.032546657996271405,"604":0.005914921225464148,"605":-0.0599403359135261,"606":-0.012915774870918864,"607":-0.027719403693977598,"608":-0.08070642374061247,"609":-0.018856122123844774,"610":0.00042359362134959216,"611":-0.04930714587635118,"612":0.011146778669424904,"613":-0.035433086285998984,"614":-0.009965072051442989,"615":0.017595558460714752,"616":-0.017322124343932193,"617":0.0654252238331555,"618":0.009430602138395479,"619":-0.0033133331798410174,"620":-0.06209869115928206,"621":-0.00037857197403786893,"622":0.022566767990478964,"623":-0.06361853028849544,"624":-0.0005080508194381608,"625":-0.040287911521459906,"626":-0.008383726979628695,"627":-0.01518176130301025,"628":0.016942416021132865,"629":0.0054513946217116275,"630":-0.04843157926423712,"631":-0.01816202090969659,"632":-0.020233904864583204,"633":-0.0822172522865298,"634":0.0005463834665839024,"635":-0.022436424355454457,"636":-0.01767706707533637,"637":-0.035909021181015195,"638":-0.06981303977257376,"639":-0.027332504140750863,"640":-0.071416394033968,"641":0.015804070018831516,"642":0.03261281696168836,"643":-0.036812360492772096,"644":-0.02618175858554935,"645":-0.0011611281747833555,"646":-0.05640030910895866,"647":-0.004741731127997921,"648":-0.002641124506610186,"649":-0.016258848459378635,"650":0.012437292033334765,"651":-0.015801675912843535,"652":0.011978645223312842,"653":-0.05219252687407629,"654":0.06432309066975093,"655":0.02421677031525097,"656":-0.008332572365603048,"657":-0.0946566738461882,"658":-0.023353944451327328,"659":-0.07203974556214572,"660":0.010845742261901015,"661":-0.025803180808847855,"662":-0.04286761910363798,"663":-0.03868045147586395,"664":-0.048024537450779184,"665":0.028391093252294802,"666":-0.02935244759008249,"667":-0.0150967102865621,"668":-0.05383724155897451,"669":-0.00977797021466035,"670":0.05041579428290778,"671":0.02427200404363624,"672":0.010808988690612786,"673":-0.018015029514487396,"674":0.002231252391249843,"675":-0.009510559487095475,"676":-0.055920528877114954,"677":-0.03015273833381955,"678":-0.015693598278670208,"679":-0.009487556484958854,"680":0.013860299340095864,"681":-0.004654926090304655,"682":-0.04216473502971043,"683":0.017935160945543007,"684":-0.017649300908164037,"685":0.0010115884973709356,"686":-0.02358222691312541,"687":-0.09561236795285433,"688":-0.0012746909595573483,"689":0.05436555965722595,"690":-0.05470378933008644,"691":-0.030868609616761893,"692":-0.000015225394717010414,"693":0.03178447007713387,"694":-0.06472763606694477,"695":0.014295986392728206,"696":-0.020419196820895432,"697":-0.06075101310263237,"698":-0.024459955860505832,"699":-0.03255574843624984,"700":-0.001617691082471837,"701":0.009411147468590873,"702":0.009778723384199963,"703":0.011393556773627408,"704":-0.019967516758692405,"705":-0.025938188291290205,"706":-0.012987253096051978,"707":-0.03619635028358128,"708":0.03485937632433179,"709":0.00923458073421947,"710":-0.02503620109422678,"711":-0.0016660165675801493,"712":0.016471337681771163,"713":-0.05219493724365849,"714":-0.03718257897646445,"715":-0.002565260184987816,"716":0.03654391428334597,"717":-0.05141902413252952,"718":-0.047529227313953266,"719":-0.08205828821898742,"720":-0.044375805048184176,"721":0.01325731213751604,"722":-0.020677030198411186,"723":0.036444767486429025,"724":-0.05480621746735503,"725":-0.022504148502415267,"726":-0.04311613740630333,"727":0.03461036152595661,"728":0.012654995770678837,"729":-0.03907495658603151,"730":-0.05062894713744338,"731":-0.01080792345690409,"732":0.016607655037005533,"733":-0.015922828731493373,"734":-0.037226508043662676,"735":0.020057878066741534,"736":0.05693195686297893,"737":-0.052394514032687356,"738":0.0017315723726635168,"739":-0.03257536727580941,"740":-0.029146310438374786,"741":-0.03573376495467119,"742":0.039557938713468854,"743":-0.01433296213110229,"744":0.01594633398707981,"745":-0.009833077916688216,"746":0.042119294372776804,"747":0.029278909686197244,"748":-0.008537625136486567,"749":-0.047301451290154894,"750":-0.03803986676210237,"751":-0.018913905241920624,"752":0.0016300529501144185,"753":-0.01615804412182405,"754":0.010636510115583423,"755":-0.043684052901021245,"756":0.013658588672449632,"757":-0.032238548096060374,"758":-0.005167223267627242,"759":0.015252039545733115,"760":0.05286188994115643,"761":-0.01397924937134515,"762":-0.039103773810385004,"763":-0.00041331780341553035,"764":-0.03209013956005296,"765":-0.028568305237347113,"766":0.00391475039366416,"767":0.05163512689394897,"768":-0.04666148706308885,"769":0.04355252091745017,"770":0.003762193983696985,"771":-0.0003128421924308823,"772":-0.023215666130942836,"773":-0.08362336899905902,"774":-0.0192232781997805,"775":0.006346247395819363,"776":-0.013719358877662928,"777":-0.042672608456124875,"778":0.013358182973363929,"779":0.03363842864920857,"780":0.003794056897928159,"781":0.0223459683723835,"782":0.024022545297511556,"783":-0.017957627604543152,"784":-0.014952402195963261,"785":-0.02306483246336249,"786":0.011281023970626077,"787":-0.04379720541075461,"788":-0.02038390083497036,"789":0.004077668370588943,"790":0.02090930760266968,"791":0.00288032596480935,"792":0.048561132941710224,"793":0.017675678666978115,"794":0.013624744444817694,"795":-0.08289381610941214,"796":-0.004795386759662182,"797":0.004306604642839985,"798":-0.00716323316017246,"799":-0.016156294033787436}},{"sx":5,"sy":5,"depth":32,"w":{"0":-0.030696582626902027,"1":0.07319576070866579,"2":-0.06076567916852298,"3":-0.006726301353089222,"4":-0.03602280512303663,"5":-0.011179010401795836,"6":-0.048037848646464834,"7":0.029911127055278517,"8":-0.045023679398995875,"9":0.0142956177630342,"10":0.041866082840984746,"11":-0.014473988533026118,"12":0.044293826635571465,"13":-0.0217458027305779,"14":-0.034976809312894624,"15":-0.06362053261549641,"16":-0.10662040192652712,"17":0.02309030336097986,"18":-0.026700899893528984,"19":0.0800331511774962,"20":0.000004646477814729947,"21":-0.057892798616558945,"22":-0.02041706296400221,"23":-0.029917363242093743,"24":-0.06478110219177607,"25":0.011179033818634195,"26":-0.027267475639903054,"27":-0.026579568584150386,"28":-0.051494873016370485,"29":-0.05217757330895563,"30":-0.05801257427160686,"31":-0.10147224298593832,"32":-0.036546692738321084,"33":0.02635565953905612,"34":-0.07656261028076435,"35":-0.0747988938302034,"36":-0.11485506002262441,"37":-0.0033429350478985298,"38":-0.10961815147561137,"39":0.005662775640265612,"40":-0.03467978301332064,"41":-0.026449384296892017,"42":-0.0443022222404544,"43":-0.04430271177233296,"44":-0.08935763541259363,"45":-0.04408883092872509,"46":-0.06052545084837465,"47":0.02426689180569494,"48":-0.011023394287155477,"49":0.010850805906736087,"50":0.022365960418603364,"51":-0.0425796901858617,"52":-0.003922741592197511,"53":-0.016605048791111455,"54":-0.07912825009018715,"55":-0.00225150730863978,"56":-0.010060936046409659,"57":-0.04545901175645862,"58":-0.016793150897274345,"59":0.023782146380728446,"60":-0.06241464304116888,"61":0.031035741767311036,"62":-0.1665390767269069,"63":-0.07282174404427692,"64":-0.05826765651798404,"65":0.037669951602125336,"66":0.005439977444988641,"67":-0.01873500538405025,"68":0.002533270009920502,"69":-0.06144149252648704,"70":0.022360780807312828,"71":0.03344195529509049,"72":0.022812714971487052,"73":-0.020899315381960226,"74":0.01812390746969807,"75":-0.030110497642409844,"76":-0.03245755809739127,"77":0.04360648178747839,"78":-0.02873564326035915,"79":-0.07687733580407143,"80":-0.004253035051685235,"81":-0.006052893868230264,"82":-0.026171596549518124,"83":0.08921270785313724,"84":0.020812521316812015,"85":0.005991174818998667,"86":-0.0159084450951132,"87":0.053066608430573106,"88":-0.04901522275583031,"89":-0.04851503347331976,"90":0.016468815737983394,"91":-0.05412293203461466,"92":-0.132232380508056,"93":-0.024711309241827066,"94":-0.10095002350464043,"95":-0.0464930350511218,"96":-0.009802705607842297,"97":0.020066554267297438,"98":-0.03385581179934975,"99":0.061611255536821015,"100":-0.03888808414186748,"101":-0.04377137325987589,"102":0.045782959547406236,"103":0.06103837464800257,"104":-0.036195044236398244,"105":0.014043583181503606,"106":-0.12036726785340979,"107":-0.016845561646685263,"108":-0.00922597701511259,"109":0.07904239427425372,"110":-0.013343667035299961,"111":-0.062443825695335006,"112":-0.17201065289213197,"113":-0.01839319013162553,"114":-0.052389170588388566,"115":0.020642177024647754,"116":0.03901277923874876,"117":0.03729752702311242,"118":0.04612986918365094,"119":0.02830522402063759,"120":-0.04941704742756613,"121":-0.0469170046455571,"122":-0.015858426268383807,"123":0.01662326867573493,"124":0.05350825786305117,"125":-0.03136261078917328,"126":-0.017958906894504724,"127":-0.08301406779684248,"128":0.011818770308717627,"129":0.033444861587704745,"130":-0.10930894809729376,"131":-0.03470180164523522,"132":0.013944168611011156,"133":-0.08609738144225576,"134":0.06312882054337303,"135":-0.07315235845791809,"136":0.017325247898894298,"137":-0.0527105596552556,"138":0.02066336059812422,"139":-0.03398460857988276,"140":-0.014860040538339066,"141":0.03278477401192733,"142":0.017150692871167644,"143":0.02337751521549129,"144":-0.0014028401717101175,"145":0.030515065649809547,"146":0.05601979311945451,"147":0.04954595304429927,"148":-0.0016629610743499874,"149":-0.018550801552360843,"150":-0.00033309622091172794,"151":0.03417808752398672,"152":-0.051791216975962735,"153":0.008670338180603787,"154":0.007183273660217227,"155":-0.0038949823347764084,"156":0.15467764245862162,"157":0.0716012533999994,"158":0.19911079121827474,"159":-0.022641297190150067,"160":-0.042782719615326634,"161":-0.0641630696320026,"162":-0.02109137350937642,"163":-0.051086210900716834,"164":0.006246253515333739,"165":-0.08526986584795164,"166":0.01839511686136221,"167":0.01444779562019453,"168":-0.041317852693572785,"169":0.026773174761281666,"170":-0.07722059375205576,"171":-0.01795772850612183,"172":-0.005688290364193146,"173":0.013464806151879522,"174":-0.07003918468379483,"175":-0.065533666604415,"176":-0.06485890160040711,"177":0.013618408016375178,"178":-0.02733933925075054,"179":0.00604749922688948,"180":-0.023075373198482924,"181":-0.04541496031566663,"182":-0.0016557391335912833,"183":-0.06003546479768782,"184":-0.06063998934180597,"185":0.006410007321851236,"186":-0.07477617734695988,"187":-0.028233054952515723,"188":-0.0949745282544679,"189":0.0022163101373400764,"190":-0.07679132109497742,"191":-0.10281456853945985,"192":-0.03136353411431128,"193":-0.023412881633231904,"194":-0.04703429396274707,"195":-0.07084262397496427,"196":-0.09065882772746209,"197":0.012047025836701836,"198":0.016401571783632107,"199":-0.025661764511468205,"200":-0.018011596548328946,"201":-0.0007062082911593479,"202":-0.012462520792949504,"203":-0.0401742539931417,"204":-0.03895728795425971,"205":0.00275646006497645,"206":-0.04666348482061792,"207":0.020788712252959873,"208":-0.020947490280058354,"209":0.05776052704081831,"210":-0.06354792530201338,"211":0.006079423561388847,"212":-0.010900674529432554,"213":-0.037121929325686254,"214":0.06867337219658462,"215":0.03260817615890354,"216":-0.09914436129218508,"217":-0.003919957250535558,"218":-0.01642011087709242,"219":0.006030564893044937,"220":-0.011500518651907335,"221":0.04768857926264942,"222":-0.015294446806050271,"223":-0.1322100740956879,"224":-0.07895524802549048,"225":-0.021845862812925276,"226":-0.060982696529240585,"227":-0.04961850408894477,"228":-0.1075502922171169,"229":-0.07837305477084773,"230":0.10669451990008937,"231":0.03650191759699396,"232":0.06938404506834309,"233":0.06376133397940258,"234":0.027490948245935422,"235":-0.006814769830107056,"236":-0.06480775626390486,"237":-0.089425080157494,"238":0.02884643827512685,"239":0.052834565234083176,"240":-0.04974855031938051,"241":0.0450338610264316,"242":-0.03919821000000764,"243":-0.011072009602804599,"244":0.027393470515693574,"245":0.06455406154258864,"246":-0.0733688685458142,"247":-0.013120610887149187,"248":0.027741446452179058,"249":0.006447328746544091,"250":0.0744369095341395,"251":-0.04831181287937227,"252":-0.10636241431932895,"253":0.04924789291960905,"254":-0.11684149661333647,"255":-0.09403839065672336,"256":-0.06515223263004626,"257":0.007762505619167257,"258":-0.021628690563097193,"259":-0.011843955803454669,"260":-0.06623549132996451,"261":-0.03736734206540982,"262":0.15968330000566686,"263":0.02134585986912341,"264":0.07044112708642275,"265":0.002818732700146862,"266":-0.05752324950867761,"267":-0.07128962022904298,"268":-0.039860588440912434,"269":-0.0035086008053422627,"270":0.009011089240657456,"271":0.021725132235609054,"272":-0.10743437128928501,"273":-0.027842612345905626,"274":0.05588143030820583,"275":0.04230859556891079,"276":0.04097753591356224,"277":-0.0524131975564492,"278":0.03023110365209518,"279":0.06765669590021052,"280":-0.03744948868457125,"281":-0.005923591383020185,"282":-0.08007817842988095,"283":-0.0012152792672771057,"284":0.051153713145098326,"285":-0.07206169375822348,"286":0.06550340810643406,"287":-0.08433285851610346,"288":0.07090692483466814,"289":0.017420285492824778,"290":-0.06255221494092994,"291":-0.0072189741538186605,"292":-0.01789764589994891,"293":0.05954049743079967,"294":0.11755644069141369,"295":-0.047195000532923435,"296":-0.011013581880894654,"297":0.035385235274686254,"298":-0.06390363004714752,"299":-0.028491148791557182,"300":-0.04186891831965476,"301":0.030899969196888474,"302":-0.03711680074000318,"303":0.039922713977909814,"304":-0.05000392021739749,"305":0.10279529921328252,"306":-0.0341763536643764,"307":0.009977841671552207,"308":-0.003151193367810832,"309":-0.03418122776866724,"310":0.058027380072998964,"311":0.0009858403875967156,"312":-0.060961006003429935,"313":0.012898405937856645,"314":-0.08669964437346979,"315":-0.01437018721595684,"316":0.0817080410877267,"317":0.027945282089839343,"318":0.22613207502349628,"319":-0.12926294941238778,"320":0.03179386054319827,"321":0.027864482525508223,"322":0.061159854614558216,"323":-0.06720837632436379,"324":-0.09197906137844529,"325":-0.05161486350311876,"326":-0.0397647610779648,"327":0.012743772013901393,"328":-0.06581954724786321,"329":-0.03162749853469138,"330":-0.05962790413655359,"331":-0.038779272298557786,"332":-0.06250815718411637,"333":-0.05933822909145763,"334":0.02116285364096337,"335":-0.02312552653690466,"336":-0.05097419702103079,"337":-0.06220911472961682,"338":0.014602379310070523,"339":0.030798415822766656,"340":0.019659003618870553,"341":-0.02245530128463575,"342":0.07964060366890807,"343":-0.0016607427132166288,"344":-0.10846979950864734,"345":-0.006881731669279156,"346":-0.0817435965279735,"347":-0.012055466739670853,"348":-0.08507993744119058,"349":-0.011061894632968014,"350":-0.06249661902984748,"351":-0.11094747022168737,"352":-0.015300444722857168,"353":0.06023322709277496,"354":-0.05289497933305288,"355":0.03629967539299152,"356":-0.013273797077806335,"357":-0.09557705956098501,"358":-0.08361067907951286,"359":-0.026078401436865333,"360":0.025908491809628505,"361":-0.0030602559478289937,"362":-0.027887897010726272,"363":-0.018165413842140227,"364":-0.07976074274872316,"365":-0.03852012747107669,"366":-0.04502493578009413,"367":0.0010981091643876518,"368":-0.12658410971676773,"369":-0.007252571055181973,"370":0.010127299861720885,"371":0.024592252242472534,"372":-0.009578898980235956,"373":-0.04001083746847586,"374":-0.045976230231587076,"375":-0.030251538953982283,"376":-0.06005885745497113,"377":0.02857488930060857,"378":-0.03359694013351928,"379":-0.03689234099308688,"380":-0.12226351166711621,"381":-0.03404959630149293,"382":-0.03782523826434197,"383":-0.17061342831477633,"384":-0.07747346123468525,"385":-0.03271092385734878,"386":0.02229769577018626,"387":-0.08887515774212401,"388":0.001802155442720118,"389":-0.06599500356519673,"390":-0.06140242444094181,"391":0.05836299465988809,"392":-0.03427791146386348,"393":0.06944684886026688,"394":-0.02191883589765556,"395":0.006921416778839687,"396":-0.006571859272666299,"397":0.14801274125455788,"398":0.06035459434256695,"399":0.06770940391702793,"400":0.006100608424240491,"401":0.039780213872198676,"402":0.004483014875207401,"403":0.03454834774887056,"404":-0.0009235526986086055,"405":0.004487259058832388,"406":0.017193942472587494,"407":-0.0024769438098272128,"408":-0.017188123485592382,"409":-0.017360221027968966,"410":-0.02046935897335346,"411":0.01983585751854265,"412":-0.14464824271366702,"413":-0.024964433897112934,"414":-0.12798120711089098,"415":-0.012074202216511669,"416":-0.05247650816971998,"417":-0.0240295875500759,"418":-0.03411869721420188,"419":0.031471330117844275,"420":-0.023183724364584123,"421":0.006134073281237758,"422":0.042360833144887186,"423":-0.007101043361853904,"424":-0.018975481976973158,"425":0.04401130515364469,"426":-0.012730241096636582,"427":-0.025934193959546176,"428":-0.05889013242133134,"429":0.030750762626020074,"430":-0.04283243415765212,"431":0.00494939975671727,"432":-0.03341327055481208,"433":-0.043915803528792936,"434":-0.012210542569235197,"435":-0.026979402792576827,"436":-0.01985442901864413,"437":0.03327098405872006,"438":0.10233040978262445,"439":0.024180189500220595,"440":-0.04437553193094604,"441":-0.020601638736658275,"442":-0.014301573509074685,"443":-0.05108136017259662,"444":-0.09485718772576267,"445":-0.044688329962549574,"446":0.09903688557436864,"447":-0.08704584893188477,"448":-0.05970042920514553,"449":0.07599605858647814,"450":0.009633517966444523,"451":0.08880518935425478,"452":-0.03447777752337416,"453":0.007009038748816179,"454":0.027524481488449652,"455":0.008721846696766287,"456":0.07315343596274061,"457":0.022965525279380724,"458":0.02576419763315122,"459":-0.05728797301774672,"460":-0.10517962924480685,"461":0.012348119140928256,"462":-0.038298117043153015,"463":-0.013063364603757215,"464":-0.10834017566905167,"465":-0.05040839631922827,"466":-0.07351751915936326,"467":-0.04463753321627226,"468":0.018510581289021052,"469":-0.03273257128570305,"470":0.03289999872583783,"471":-0.029017062843477565,"472":-0.03881332933475948,"473":0.006178378680424518,"474":0.015140232666275047,"475":-0.01717258057459288,"476":0.0034507757419743835,"477":-0.03986404047983459,"478":0.1765454285164006,"479":-0.06451207520776868,"480":0.005817801402668513,"481":-0.04094864831382466,"482":-0.04238093453072527,"483":-0.021792875875359954,"484":-0.03323189866662971,"485":-0.01166047611412995,"486":-0.03580174137701264,"487":-0.017096705996907234,"488":0.0479492691771226,"489":0.026210710806677202,"490":-0.08643360643535929,"491":0.03823311200390454,"492":-0.020920446809111586,"493":0.08341296242297432,"494":0.0819967893017482,"495":0.02224387332881147,"496":-0.07917765722443265,"497":0.05102673112987403,"498":-0.01811318046480017,"499":0.11926802673805902,"500":-0.03916976908341952,"501":-0.04698039909974221,"502":-0.01732784261732083,"503":0.027694630996543894,"504":-0.024085188905414317,"505":0.06693397968337862,"506":-0.04567156705127698,"507":0.02074316885866013,"508":-0.0593781992643897,"509":0.0794104039912635,"510":-0.10738902479952783,"511":-0.1959852937777372,"512":0.011134060969297501,"513":0.018046046012209736,"514":-0.016483987195539684,"515":-0.04235030783438075,"516":-0.06866271885727727,"517":-0.16854267296252484,"518":0.005815614785351634,"519":-0.023695180522999775,"520":-0.05311619156373174,"521":0.05534904795520199,"522":0.030310112709891802,"523":-0.01839064288643591,"524":-0.040908344163853055,"525":0.026748257887387154,"526":0.09407534405418208,"527":-0.013646059868585308,"528":-0.13374325852331703,"529":-0.04278867734969359,"530":0.04720439428301578,"531":0.062263260543802885,"532":0.03664340664709933,"533":0.014759579239317974,"534":-0.03905563811302072,"535":0.024133595254272767,"536":-0.0797356135827668,"537":0.02978095207664932,"538":-0.02856916873346934,"539":0.05856142653718267,"540":0.02934745949663423,"541":-0.020719452081246263,"542":0.001983698065150939,"543":-0.08153397688824324,"544":0.01017437738435573,"545":-0.022875792551865365,"546":-0.007125831657846428,"547":-0.05642437956779228,"548":-0.047398270395894,"549":-0.09009866231783648,"550":-0.0646831655759443,"551":0.06282235727278343,"552":0.02077143009343164,"553":0.03659905575819602,"554":-0.07355815853085257,"555":0.03587974847038782,"556":-0.0014113093923171479,"557":0.07800776990557291,"558":0.09304710039580692,"559":-0.014501220629932454,