{"layers":[{"out_depth":3,"out_sx":64,"out_sy":64,"layer_type":"input"},{"sx":5,"sy":5,"stride":1,"in_depth":3,"out_depth":32,"out_sx":64,"out_sy":64,"layer_type":"conv","l1_decay_mul":0,"l2_decay_mul":1,"pad":2,"filters":[{"sx":5,"sy":5,"depth":3,"w":{"0":-0.043375106493584614,"1":-0.060709210301884524,"2":-0.0017320946072182323,"3":-0.0436950054462829,"4":0.017567741892561245,"5":-0.2337937883532594,"6":-0.05832772709232089,"7":-0.04077356670535453,"8":-0.12642026522164249,"9":0.1771863576447004,"10":0.1903762171112544,"11":-0.10578905179020391,"12":0.10936834310338549,"13":-0.03526962784909378,"14":-0.13253514585476955,"15":0.12324852667027489,"16":-0.06987355825713404,"17":0.18498155990397008,"18":-0.08887481505570594,"19":-0.05472094329823947,"20":0.09005972634951058,"21":-0.08278598370594616,"22":0.04272847121528053,"23":0.049108137437892115,"24":-0.05675858791097806,"25":0.01693912942227996,"26":-0.02521194221635279,"27":-0.07592391151749255,"28":0.19180663876835466,"29":-0.0952176560296148,"30":0.16199923541239375,"31":-0.021742002202191055,"32":0.13618390419390766,"33":0.08419368953127028,"34":0.020505575415497957,"35":-0.10103325822777914,"36":0.04820031735743798,"37":-0.05534980853964641,"38":-0.0678631927961534,"39":-0.11862313653539504,"40":-0.14414387783408342,"41":-0.004897525963001259,"42":-0.15430012849346292,"43":-0.29991823939252016,"44":-0.1618427542910148,"45":0.0008992518615902594,"46":0.2803038598294118,"47":-0.08762404406130982,"48":-0.12010450701686694,"49":0.015499353553949248,"50":-0.07550783182542772,"51":0.14032731603659615,"52":0.12516984140586385,"53":0.07866657274185543,"54":0.06931691077393731,"55":0.002864623507119647,"56":-0.2723460684992918,"57":-0.0072503849063338685,"58":-0.12756443397839645,"59":-0.1427735980862262,"60":0.13207150011277832,"61":-0.0990784447800095,"62":-0.006182967247367298,"63":0.14358821824795467,"64":0.15733465923179893,"65":0.1080864146218843,"66":-0.10439970506170447,"67":0.06006724020575693,"68":0.1857527906092819,"69":0.1452343849086682,"70":-0.14464932123949753,"71":0.1322243872325015,"72":-0.034666672265944325,"73":0.25138298450152774,"74":0.18432411649477312}},{"sx":5,"sy":5,"depth":3,"w":{"0":0.09492883794505158,"1":0.08264647819950262,"2":-0.01421553570186689,"3":0.013195155828103546,"4":0.012992738053754165,"5":0.12674483728615146,"6":-0.12877552158594463,"7":0.058896636750636264,"8":-0.26993126752210544,"9":0.07212522490175353,"10":-0.07139640008515563,"11":0.0002111143103609835,"12":-0.06676612894609145,"13":-0.08428547033683478,"14":-0.02700312035350469,"15":-0.09436949708111766,"16":0.06775500705632218,"17":-0.20594124038343367,"18":0.09984269021955837,"19":-0.09848222909717938,"20":-0.12343546016263053,"21":-0.040940918908551914,"22":0.22245925987300127,"23":0.07914072336318616,"24":0.15357170757313018,"25":0.07562977266270711,"26":0.009002633933569534,"27":0.0010009470117660598,"28":-0.14392010264943683,"29":-0.0016254091311792116,"30":0.3449598591803118,"31":0.09784268236882428,"32":0.10330159879557076,"33":0.20448015944474252,"34":0.07589042788585859,"35":0.022522756059215585,"36":0.027502106994121586,"37":-0.043661384599205974,"38":-0.02195445392090832,"39":-0.07356562597212232,"40":-0.1676589979418092,"41":-0.09309460166523131,"42":0.14579803387463233,"43":0.15322960246357661,"44":0.1388979937289698,"45":0.10879953611090247,"46":0.06124344041424717,"47":0.08481140061399345,"48":0.1085468159844266,"49":-0.0470340302382915,"50":0.013227083307618527,"51":-0.14270442118719603,"52":-0.04834355218006491,"53":0.02256793665252937,"54":-0.033675153961933886,"55":0.08956811511851034,"56":-0.08773438390003525,"57":0.027037043317476618,"58":-0.09192819084713758,"59":-0.09463215452091218,"60":-0.10589345474168058,"61":0.03336623720344301,"62":-0.08436644053254196,"63":0.04000150312701301,"64":-0.12165077494141067,"65":-0.060473609275016806,"66":-0.32023652603168806,"67":-0.0718380020157973,"68":-0.03349943573755642,"69":-0.034931417803023695,"70":0.0744454298928223,"71":-0.07565126598465433,"72":0.0999514534961849,"73":0.08390490478944872,"74":0.023219582276050185}},{"sx":5,"sy":5,"depth":3,"w":{"0":-0.1447660335175417,"1":0.0342315835128209,"2":-0.21655507832744472,"3":0.1286300479435381,"4":0.19792974589099463,"5":0.20079080508358718,"6":0.23869126770119123,"7":0.05660540320549002,"8":0.027046590855548298,"9":0.25125084760786665,"10":0.14971023160513522,"11":-0.06860508592620804,"12":0.10218804388277648,"13":-0.029477267219573822,"14":0.036153558805441924,"15":-0.010847398140201876,"16":0.1095792657052084,"17":0.04382553196128336,"18":0.030375104987549084,"19":0.036530852778873114,"20":0.0759826183070235,"21":0.02094953267659285,"22":-0.09304981823343786,"23":0.09677160109099345,"24":-0.15358598421190547,"25":0.162479769145477,"26":0.19749016524031351,"27":0.060887706021284765,"28":0.10265301985573808,"29":-0.0066206404126460386,"30":0.16360557777751342,"31":-0.12297238104489448,"32":-0.005636145906995934,"33":0.1275794409912271,"34":0.006565480449022701,"35":-0.00558981548019212,"36":0.15350882143064126,"37":-0.08754413840357922,"38":-0.0005869765242048366,"39":-0.14974399411878858,"40":-0.0892017050765839,"41":-0.10448493079854045,"42":0.02608232548584913,"43":-0.04114665989988156,"44":-0.12692270014213655,"45":-0.072868972537474,"46":-0.22852767614685238,"47":-0.07771649413345534,"48":-0.23773557375160925,"49":-0.19212407981133847,"50":-0.10705611488961139,"51":-0.044029277795531056,"52":-0.011059845097109148,"53":0.076337029117731,"54":0.07103700441314388,"55":-0.10798291741024192,"56":0.09620939104879603,"57":-0.10799671581838123,"58":0.16088937699816577,"59":-0.07381771591478949,"60":0.03217572565913145,"61":-0.14206119788866486,"62":-0.10091416659055838,"63":0.026765609598124625,"64":-0.03035176482824689,"65":0.05838672091423903,"66":-0.2595569617013075,"67":0.054809311157019605,"68":0.039342507830153486,"69":-0.04077229554202457,"70":-0.04915654493117203,"71":-0.0883726305021521,"72":0.1621235305328099,"73":-0.05788279079543341,"74":0.020770797057757855}},{"sx":5,"sy":5,"depth":3,"w":{"0":0.007800132595984919,"1":-0.00002381221041083758,"2":0.08616929493633653,"3":-0.08156361335805186,"4":0.027464355599902693,"5":0.04241376846115962,"6":-0.12927959732105465,"7":0.09112263701042556,"8":0.06562964531765313,"9":-0.06382070231831528,"10":0.12790079519154887,"11":-0.05842431370254449,"12":0.045494297299205365,"13":-0.13055899187540196,"14":-0.03295549211492316,"15":0.141512057842128,"16":-0.026854670168614952,"17":0.2979893308447094,"18":0.08435963931803951,"19":0.17094831390730997,"20":0.09231144313295878,"21":-0.05082696701614362,"22":-0.09054084146174425,"23":-0.22975883870236083,"24":-0.006277341040143275,"25":0.121014614757933,"26":0.01470240935631565,"27":-0.12660221991324866,"28":-0.12887854625438205,"29":0.09741356194817784,"30":0.15666461033392004,"31":0.11142897657761955,"32":0.025036769559488577,"33":-0.007829142295424649,"34":0.2873214409593385,"35":0.2308661912606379,"36":0.01743079532568153,"37":-0.026721516408115126,"38":-0.1099468050674435,"39":-0.06159213149740902,"40":0.11846328984636315,"41":0.009654786272988576,"42":-0.08134983313984151,"43":0.1946092761446157,"44":-0.0961187013047785,"45":0.04262470381798184,"46":0.11187316956282317,"47":0.02919466799316357,"48":-0.13721557432999232,"49":0.028717648065220105,"50":0.10049159678090622,"51":-0.1904936776059338,"52":0.14465746915683636,"53":-0.2436953778702982,"54":-0.21633770414871625,"55":-0.06046692132209942,"56":-0.11017230460779658,"57":0.04256929850657837,"58":-0.057865823896993275,"59":-0.18402373477367143,"60":0.09647318389347036,"61":0.062194926184800034,"62":0.18030753654107987,"63":-0.0885769317813448,"64":-0.16781806926899842,"65":0.061970701003177545,"66":0.15152099949371658,"67":0.03815783863636553,"68":-0.07218302941497798,"69":-0.17043623548532275,"70":-0.017746606507211757,"71":0.0036772811648480464,"72":-0.12273939448919867,"73":-0.20483821249247294,"74":-0.09874757919496657}},{"sx":5,"sy":5,"depth":3,"w":{"0":-0.053210760995778754,"1":-0.018998963665853928,"2":-0.09667562449394253,"3":0.07396199357588276,"4":-0.10589986113000757,"5":-0.05287502357806735,"6":-0.09082445100537785,"7":0.21479977474234452,"8":-0.1213871814668574,"9":-0.008853205838777061,"10":0.002404559842065852,"11":-0.08803144744178504,"12":-0.19951821689070376,"13":-0.0021633339133404522,"14":0.0591653545092518,"15":0.12729320079321457,"16":0.05076847763618879,"17":0.15316104572469402,"18":-0.15063807069937651,"19":0.019316526831722622,"20":-0.11794350397437761,"21":0.2438036807340958,"22":-0.04491804234560029,"23":-0.07930704003034997,"24":0.10059589647180299,"25":0.28612786566748266,"26":-0.03921245695343535,"27":0.07937033935043758,"28":-0.014549522746395918,"29":-0.08549146763845457,"30":-0.03525120437004489,"31":0.18124308393577412,"32":0.312964469614699,"33":-0.014710484070425234,"34":0.19889250612928752,"35":-0.0754396381476927,"36":0.04274304290758815,"37":-0.22136873624932518,"38":-0.05423050230646011,"39":-0.03508149832802244,"40":0.07859835806314103,"41":0.00517686492183944,"42":0.135982954301331,"43":-0.19206157654763015,"44":0.28571987258268994,"45":-0.17662278967203468,"46":-0.04028175001730562,"47":-0.19145200871250231,"48":-0.2685843362086952,"49":-0.19405177120971867,"50":-0.03008112108644955,"51":0.05012194858370242,"52":-0.053287950305146256,"53":0.16107538527523746,"54":0.043448797989775516,"55":0.030923861798185306,"56":0.10435676331530712,"57":0.13245776152876623,"58":-0.25915544331055607,"59":-0.06394819064729117,"60":-0.02573490363154802,"61":-0.11795770118445915,"62":0.0516364223592455,"63":-0.06699277139336905,"64":0.06030429654330282,"65":-0.04192819223536878,"66":-0.10709284710350309,"67":0.05532647035509574,"68":-0.02001110891171556,"69":0.2049257739537454,"70":0.1483994787976351,"71":0.06989100038222444,"72":0.005162732123159105,"73":0.18270126869778777,"74":-0.035382225780386155}},{"sx":5,"sy":5,"depth":3,"w":{"0":-0.0038778228852044375,"1":0.0864755364594199,"2":0.1400261426225144,"3":0.2184056151296631,"4":0.07674429339733412,"5":0.19564355304639167,"6":-0.0010613847129654487,"7":0.19790417938007368,"8":0.16086737680544025,"9":0.08959059723694139,"10":0.039733308779436274,"11":0.15225158418381424,"12":-0.10108921019234623,"13":0.15791611606931008,"14":0.09984532680219135,"15":-0.18709380598027459,"16":0.056850824936270236,"17":0.15246556663133937,"18":-0.05267740147782439,"19":0.0734246813066043,"20":0.07582035576572181,"21":-0.03925905056331715,"22":0.15439553413390428,"23":0.04278216532825077,"24":0.23577796146010466,"25":0.18785857813345863,"26":0.14536518550303493,"27":0.06541251764162581,"28":0.01495500952138258,"29":0.06620436155187315,"30":-0.1113121196406944,"31":0.019647339794246637,"32":-0.0828585328283927,"33":-0.041198766785970696,"34":0.1361152158371719,"35":-0.09283831383207741,"36":-0.24482798537775144,"37":-0.020317190113268904,"38":-0.08701164315451121,"39":0.010138985123448623,"40":-0.17226120762754632,"41":0.047533991662106215,"42":0.0008945912703589157,"43":0.03434040161512297,"44":0.20848973967827314,"45":-0.15467025498513728,"46":0.11469544635690372,"47":-0.1007668783048324,"48":-0.0392144816996036,"49":0.0037213624049990115,"50":0.03948585337214428,"51":-0.09991123218962207,"52":-0.07630960135227502,"53":-0.008604780413045424,"54":-0.1609915714452577,"55":-0.22408831421044234,"56":-0.2551948528558296,"57":-0.14152791483030133,"58":-0.16206977183909044,"59":-0.0778651277259133,"60":0.17544171626762942,"61":0.05119629519017548,"62":-0.035160919280346654,"63":0.13846314510059402,"64":-0.242314850898633,"65":0.04831871828604596,"66":-0.05778595379147036,"67":-0.06300063941564238,"68":0.06380880203622784,"69":-0.08830786728105602,"70":-0.13699326000911155,"71":-0.1429625281783593,"72":0.13157361400590206,"73":-0.1554694024589985,"74":-0.15572908818867853}},{"sx":5,"sy":5,"depth":3,"w":{"0":0.09983731545806018,"1":-0.0016143637133653485,"2":0.051897417930959644,"3":0.04495118828655076,"4":0.07411814781936987,"5":-0.030310525786744966,"6":0.051446912998313644,"7":0.23429987005747394,"8":0.08079793393309516,"9":0.06966581777191463,"10":0.27350749963912957,"11":0.10330132315132746,"12":-0.03900773983546102,"13":0.06959652855715084,"14":0.0672755629275259,"15":0.24728069680056167,"16":0.013864721158374454,"17":-0.1028688564990903,"18":-0.15019683927150515,"19":-0.22760933317175133,"20":-0.02071573501619874,"21":-0.07035424444593748,"22":-0.05341587151440725,"23":-0.2771085375517029,"24":-0.05248228741717587,"25":0.114442056335314,"26":0.03499112281682246,"27":0.09311187380842985,"28":-0.126830856944507,"29":-0.15570458736634948,"30":-0.13865667804265897,"31":0.2838663016963931,"32":0.2595293290320186,"33":0.23619880197415577,"34":0.051991633238438056,"35":0.021885971802571503,"36":-0.09163427545881916,"37":-0.12872886540148906,"38":-0.13648199446528037,"39":-0.17024222689932178,"40":-0.052354564288008595,"41":-0.1882419969499117,"42":0.15087852826700504,"43":-0.010914168257402861,"44":-0.010183579192691293,"45":-0.14887751265153704,"46":-0.05391941996469268,"47":-0.14393902720201823,"48":0.06607192867423946,"49":-0.017137357633364787,"50":0.023569515460704914,"51":0.13267492506486211,"52":-0.17585426476719096,"53":-0.17963816558992127,"54":0.24336592769192186,"55":-0.0674613008973361,"56":-0.051451518665008605,"57":-0.019152623333337303,"58":-0.09766787133304596,"59":-0.17009305433567345,"60":-0.020009941986539343,"61":0.09772550045796267,"62":-0.06564599049583839,"63":-0.08882671377633128,"64":0.1346640875792946,"65":0.07013315212243637,"66":0.2939784145705628,"67":-0.05958936528155589,"68":0.09939309282787925,"69":0.05255037421029205,"70":-0.16141299405418674,"71":0.10426329575721996,"72":-0.12652469892465465,"73":-0.1293768540041198,"74":-0.01770631270611506}},{"sx":5,"sy":5,"depth":3,"w":{"0":0.2166567013139232,"1":0.01887239968002421,"2":-0.0008403622789326144,"3":-0.25257030418891796,"4":-0.07709857352741299,"5":-0.04629326910757929,"6":-0.16934518855053257,"7":-0.1860121522021772,"8":-0.12144291474985412,"9":-0.1907221538437797,"10":-0.14831313055612627,"11":-0.4630659538104234,"12":0.09257475536330864,"13":-0.0914827703785304,"14":0.051326992227932876,"15":0.05640565452341598,"16":0.056707021781361285,"17":-0.07575319411107198,"18":-0.21241699064558633,"19":-0.10656222096920197,"20":-0.057335909812059604,"21":-0.11914945677353761,"22":0.0952521056441811,"23":-0.17845759026043745,"24":-0.0000680255761448288,"25":-0.14458199904997018,"26":-0.016807665706796402,"27":-0.00647051179418149,"28":-0.09942715428866984,"29":-0.15807012417673166,"30":0.23626067298409278,"31":-0.003580470691000195,"32":0.0904072215002734,"33":-0.08047081366197473,"34":0.017466376153955385,"35":-0.0850971779254037,"36":-0.0369865797355438,"37":0.03764483424061893,"38":-0.050253565315162556,"39":-0.04590926860476299,"40":0.045254361427011766,"41":-0.11012889069272963,"42":-0.14021067399450457,"43":0.19546464764178687,"44":-0.26891657991099127,"45":0.14532895529848958,"46":0.26242864618122275,"47":0.11978694382427083,"48":-0.07594785146416497,"49":0.15675792094022112,"50":0.09560075813397183,"51":-0.0044863675133486585,"52":-0.05019942536684436,"53":0.010456831523577811,"54":-0.10688383632520808,"55":0.2085126525618535,"56":0.02352154497873125,"57":0.13897918789864044,"58":-0.08237912047707029,"59":0.054455718545282826,"60":0.21751155783029796,"61":-0.04267197783996546,"62":0.40941042408060024,"63":0.027115612136853137,"64":0.1579007763832457,"65":0.14278094063032834,"66":0.04299661873719481,"67":0.08969816076179196,"68":-0.00965106396325707,"69":0.14881690327205344,"70":0.13267178475401528,"71":0.09879080378583083,"72":-0.04296780182577246,"73":-0.09247918530623181,"74":0.10380566035386726}},{"sx":5,"sy":5,"depth":3,"w":{"0":-0.06408725923050461,"1":0.08145868370954118,"2":0.1576098482855832,"3":-0.040507526023328015,"4":0.052088157538341354,"5":0.00814763546350441,"6":0.10583253033330024,"7":-0.024652577192723096,"8":0.12510610990505613,"9":0.08613989044210298,"10":0.000022827339742747475,"11":0.07757312751938714,"12":0.18920156687657874,"13":0.026017994419620917,"14":0.19314407161670422,"15":0.24866223526627643,"16":-0.03820016485762509,"17":0.2415378571469521,"18":0.12211014601060832,"19":-0.0725009284303027,"20":-0.08074454067874479,"21":0.04924837810640448,"22":0.2579588303641981,"23":-0.06322559585055677,"24":0.014566563767292207,"25":0.032754789262237856,"26":0.15676205860977221,"27":0.15542416191585318,"28":0.014522801468068332,"29":0.196423217333473,"30":0.2055025468806058,"31":0.13201243827652503,"32":0.010994882642192044,"33":0.1338778446575907,"34":-0.3262608472090916,"35":0.029539142401777692,"36":0.031759427669495535,"37":0.1886206495612763,"38":-0.04359306793002111,"39":-0.06729743390882847,"40":0.11287699599464633,"41":-0.07523698206615059,"42":0.017307516316143603,"43":0.0717176806529801,"44":-0.05034644697616157,"45":0.14996446432940383,"46":0.1631313753899622,"47":-0.0439760315089299,"48":0.22436014227159234,"49":-0.07801914776694228,"50":-0.1962195208414518,"51":0.08935930809779032,"52":0.11825715500579963,"53":-0.029829145079747287,"54":0.09151780921060004,"55":0.2669540422662748,"56":-0.05556232576459359,"57":-0.09569450129063059,"58":0.0616399275332139,"59":0.08678491350297957,"60":0.13308601195828057,"61":0.14624350676990416,"62":0.07830410980417693,"63":-0.0035388003783145875,"64":0.11494546596561074,"65":0.1143486023638248,"66":0.025375614888568186,"67":0.04181996940043216,"68":0.13550023225263183,"69":0.017792230791168814,"70":-0.0008761498676040347,"71":-0.04048452564654439,"72":-0.048243642358325345,"73":0.03658477732822492,"74":0.14044974644084873}},{"sx":5,"sy":5,"depth":3,"w":{"0":-0.23876389874453674,"1":0.20601070052411763,"2":-0.006633243964429854,"3":-0.010929848276015175,"4":0.008564804930114979,"5":-0.0754535710912496,"6":0.011168291993764836,"7":0.04776696513825461,"8":-0.052917351418331954,"9":-0.1365888956040749,"10":-0.058249716576487275,"11":0.20380070759471963,"12":-0.03652813557229185,"13":-0.20402299424569345,"14":-0.26006805367385777,"15":0.3027469657525973,"16":0.0057297977602521425,"17":-0.01731184891884595,"18":-0.04031570657773456,"19":-0.09603812559412317,"20":-0.2116343043044298,"21":-0.019523343611284893,"22":0.17911962440921006,"23":0.05808102861790689,"24":0.1583990848836153,"25":-0.1682628249336289,"26":0.14888778121977006,"27":0.029526652504385142,"28":0.06295775339138103,"29":-0.1436244968266372,"30":0.05403026903718242,"31":0.007930312827099996,"32":0.11247178871046354,"33":0.07677363576911238,"34":-0.095255531375941,"35":-0.1812348751705661,"36":-0.07504904203070895,"37":0.05030173301685951,"38":-0.17379048771622876,"39":0.18381943940844808,"40":0.09542335241351776,"41":0.3195294289479675,"42":-0.1278823480509933,"43":-0.0419486196714369,"44":-0.14643541266832844,"45":-0.12351504188233675,"46":-0.11192031856854529,"47":-0.011179692385757833,"48":0.11463182801973605,"49":0.05795328085992264,"50":0.1783333239900703,"51":0.059782904614889054,"52":-0.19354868461618588,"53":0.06369249555871614,"54":-0.1820376932453893,"55":0.034083887972182814,"56":-0.18226230285073328,"57":-0.19631624779687856,"58":0.15718358187622242,"59":-0.08818895983978178,"60":0.1550142047027577,"61":0.22865957163525658,"62":-0.013321096515073688,"63":-0.03500756442332865,"64":0.020818089753502585,"65":0.002286283343857642,"66":-0.030969186984877044,"67":0.22255512702765823,"68":0.11151683584432134,"69":0.13191171538041313,"70":-0.09780985832038978,"71":-0.013335464342681718,"72":-0.014729552659153112,"73":0.11083632474463564,"74":-0.08910135974040127}},{"sx":5,"sy":5,"depth":3,"w":{"0":0.07766842404486388,"1":-0.12623450033908423,"2":-0.05623822407470099,"3":-0.017588077021818076,"4":-0.19354729548628974,"5":-0.14912841707030672,"6":0.14967868441986476,"7":-0.1069005365885831,"8":0.09618182716463568,"9":0.08746811680205242,"10":0.025264008868853254,"11":0.1798188333769864,"12":0.01085799154373889,"13":-0.023871674911437973,"14":0.054130266085597525,"15":-0.1104018720140964,"16":0.12343504020990961,"17":-0.2946116157340111,"18":0.07785720908214998,"19":0.026703160898164314,"20":-0.12140704792747611,"21":-0.014674212782423162,"22":0.010204909353835724,"23":-0.04930587624201296,"24":0.08822632044529642,"25":-0.024391843023687413,"26":0.0010489053658398093,"27":0.05058332906770734,"28":-0.06781281796063358,"29":-0.21705099002057346,"30":-0.08753410437543502,"31":-0.13855116375091595,"32":0.14246303250096218,"33":0.0651999247880967,"34":0.06717399354650763,"35":-0.27186271272808626,"36":-0.06586314782989035,"37":-0.11025308018966465,"38":-0.23900307389655207,"39":0.05185598411843666,"40":0.0329001797570525,"41":0.0247878642464539,"42":0.06419303280814037,"43":0.28883139779153766,"44":0.0017232402072165395,"45":-0.05990199886529803,"46":0.0066100378106320945,"47":0.011961040134423147,"48":0.15005656672677686,"49":-0.1929780448901115,"50":-0.014721861895983549,"51":0.17703109668302294,"52":-0.11695145088694707,"53":-0.20115829230913265,"54":0.17662802180067821,"55":0.01849531601929972,"56":-0.1511974774089822,"57":-0.11668284890473088,"58":0.10129685122120122,"59":0.11740744987790462,"60":0.008859612761358477,"61":0.23508389943718558,"62":-0.02293774371051344,"63":0.10766283308962862,"64":0.14629016725773905,"65":-0.06329622256524195,"66":0.02335845239127023,"67":0.1532496861279589,"68":-0.026430517450304728,"69":0.19995043943038499,"70":0.08437388217232371,"71":0.2284835216536702,"72":0.025099018942093126,"73":-0.09408034456810738,"74":0.0772805689814518}},{"sx":5,"sy":5,"depth":3,"w":{"0":0.060486071022060106,"1":-0.196390940171957,"2":-0.02638762242554085,"3":0.10930032420447018,"4":0.030506987601966278,"5":0.09752607543252768,"6":0.068002125643099,"7":0.14808789244239007,"8":0.03430750787945114,"9":-0.01563185331206468,"10":-0.029866906810049734,"11":0.09604686795149568,"12":-0.0886150080450343,"13":-0.06744008429343455,"14":0.10217898778761557,"15":0.007719665036400097,"16":0.10074002959865289,"17":0.05527248189304596,"18":-0.1129729293108305,"19":-0.17199628673777093,"20":0.1234794986137867,"21":0.13479686253103393,"22":-0.06145894003660209,"23":0.02735984290767692,"24":0.2037374283319565,"25":0.06441398518041605,"26":0.1388261580526233,"27":-0.15618224764877797,"28":-0.06416737785921751,"29":0.15837870031099646,"30":0.34813383602185516,"31":0.22746873639665127,"32":0.04863677776313711,"33":0.17882846339779218,"34":-0.053417863431746454,"35":-0.007771256635352889,"36":-0.014326238088947285,"37":0.06663156616491553,"38":-0.02236754928332571,"39":-0.031227948508532746,"40":-0.07165357280045152,"41":-0.252801398259611,"42":-0.235485242125269,"43":0.07216384369037916,"44":-0.15656552349280778,"45":-0.059077926337154855,"46":0.01471876841013415,"47":0.031995355683627456,"48":0.1862343911951507,"49":0.09843933651075755,"50":-0.00033024101070902655,"51":-0.04719777066854474,"52":0.007346826864520376,"53":-0.07126554547068865,"54":-0.22518961495285203,"55":0.1565330854995175,"56":-0.13301531962021265,"57":0.12041509577415352,"58":-0.0763196084309511,"59":-0.30694191684705624,"60":-0.027063926278377108,"61":-0.057547360891775444,"62":-0.1444242124333622,"63":-0.016236052538556034,"64":0.1694362982745895,"65":0.024998174633235632,"66":0.028122623933579474,"67":0.008925596783034104,"68":-0.029296492812854895,"69":-0.15128132770667183,"70":-0.039170470221608744,"71":-0.13715709624698447,"72":-0.12069535308480611,"73":-0.12467928022614806,"74":-0.08814638855008519}},{"sx":5,"sy":5,"depth":3,"w":{"0":0.03938251119372832,"1":-0.04802409888274518,"2":-0.13884142124819762,"3":-0.07479288467726232,"4":0.025410904259274895,"5":-0.14164158167259322,"6":-0.07278982893797646,"7":-0.1389191065117436,"8":-0.13571183418413146,"9":-0.17332644991540808,"10":-0.02474431357297476,"11":0.022664997139510572,"12":-0.13127843108009926,"13":-0.12085035179727374,"14":0.008654289836777468,"15":0.06610418682809087,"16":-0.12262443530809056,"17":-0.2112586506324003,"18":-0.10880194771739779,"19":-0.21092104536364267,"20":-0.12467229214972608,"21":-0.07913347842771822,"22":0.03160395051977031,"23":-0.04364062637286899,"24":-0.09819910563111503,"25":-0.04328028315702749,"26":-0.11138567923114265,"27":-0.0976776442381255,"28":0.13961411152359623,"29":-0.01939818373516863,"30":0.04223905509785561,"31":0.059949265845076545,"32":-0.08056467250369294,"33":-0.09194215165712218,"34":-0.04284665752699306,"35":-0.07405981640209434,"36":-0.038827305343408516,"37":0.005000072644135693,"38":-0.23742376892828704,"39":0.012213629643725637,"40":0.08230991220959609,"41":-0.026928082944580153,"42":-0.08493271494366265,"43":-0.12669997276159478,"44":-0.19332731738339895,"45":-0.015313131873259543,"46":0.02550994809358782,"47":0.046514405127183196,"48":0.016038936675839176,"49":0.01949095524534988,"50":-0.2592585995795152,"51":-0.09776062804777147,"52":0.058731847151940124,"53":-0.023952516850952874,"54":-0.052358537688702876,"55":-0.12959578552220252,"56":-0.18003486522573978,"57":0.003548002800103922,"58":-0.0355343823059693,"59":-0.038423032763220975,"60":-0.1618583077578441,"61":0.015284329262858587,"62":-0.08665716722911791,"63":0.02085763567831737,"64":0.19478182394000584,"65":0.02090996500142328,"66":-0.003580411468479711,"67":0.1538774887105498,"68":-0.008888419279677312,"69":0.07077798463278286,"70":-0.049086937537934715,"71":-0.008162328992045529,"72":0.18315068555917302,"73":-0.12892870550379898,"74":0.037630788948255826}},{"sx":5,"sy":5,"depth":3,"w":{"0":0.09869583838505523,"1":-0.10830540785124332,"2":0.01263821302578665,"3":-0.015811872848845103,"4":-0.04982938078413195,"5":0.051405278976817,"6":0.2733807389077224,"7":0.08641342253331827,"8":0.009076909550974033,"9":0.04531865170604138,"10":0.166069720454788,"11":0.03396610674281871,"12":-0.22163826394335667,"13":0.0713802623464497,"14":-0.058329818490544263,"15":-0.014530962961655906,"16":0.10674409560605709,"17":0.10497952159055225,"18":0.01086060388208126,"19":-0.11482494281372752,"20":0.17870377743859597,"21":0.06942609081037243,"22":-0.10767538899748025,"23":0.06443897991358503,"24":0.14448230874323575,"25":0.18340073895544612,"26":-0.011283923805344633,"27":0.03816477562496502,"28":0.1168290688663705,"29":-0.12755756555927375,"30":-0.2129459835945529,"31":-0.23852634484106075,"32":0.06273254736138335,"33":0.0965912445438112,"34":-0.0328743077934276,"35":0.127065140717663,"36":0.10829360383481167,"37":0.04172431815112649,"38":0.009497314306486686,"39":-0.04786513983205965,"40":0.16247168618424038,"41":0.06864178337864704,"42":-0.006876204062157136,"43":0.0374128475921464,"44":0.06502372410654013,"45":-0.041327900693062705,"46":0.08689290090390023,"47":-0.012001698587051239,"48":0.28924732358438715,"49":0.15400292901366008,"50":0.009183111786669031,"51":-0.033714408639885646,"52":0.16893277349539026,"53":-0.0036763842365194603,"54":0.22041968599123393,"55":0.152961704828956,"56":-0.05139711321766039,"57":0.21865101061261413,"58":-0.04161636587926376,"59":0.1455687841405932,"60":-0.03841363939332177,"61":0.10019456349054232,"62":0.0903667032388059,"63":0.14050769443812627,"64":-0.30815511570446397,"65":0.06865991816676482,"66":0.04149353898345438,"67":0.15498029848038392,"68":0.08066674372261762,"69":0.41850353115933725,"70":0.21712380715940205,"71":0.1006991806045019,"72":0.11741616139324272,"73":0.18066398678578605,"74":0.04689180479824612}},{"sx":5,"sy":5,"depth":3,"w":{"0":0.05656665012039885,"1":0.09372393074996402,"2":0.013336170513203039,"3":0.23160511673599612,"4":-0.06915999044010097,"5":0.0981492782730899,"6":0.1297324867990902,"7":0.03629520413880011,"8":-0.10083647873289137,"9":-0.20486687011893925,"10":0.1265148286790241,"11":0.0454793247666769,"12":0.2971023267114931,"13":0.057382682822830676,"14":-0.05663191703841052,"15":0.2527478722881246,"16":-0.13559632307887645,"17":-0.12754655634508646,"18":-0.20321795325328013,"19":-0.24569021310002448,"20":-0.004835766654839916,"21":0.07690346294555443,"22":-0.09057668463231985,"23":-0.05972208052285063,"24":-0.19231028248621665,"25":-0.012609292624015254,"26":0.053039428761386,"27":-0.18001896163394582,"28":0.014360964122567127,"29":0.02093565512896419,"30":-0.06009217581983514,"31":0.004946673810661615,"32":-0.01819071633939751,"33":-0.19590893637540274,"34":-0.05046171548367147,"35":0.04097973585323802,"36":0.05359083168249373,"37":-0.0873196679928966,"38":-0.03949044059720686,"39":0.13328472373687963,"40":-0.094380251716213,"41":-0.02709108643755785,"42":0.09855050343181618,"43":-0.07454962175735698,"44":-0.13770582108054638,"45":0.04747685286222746,"46":-0.10013881225610728,"47":0.06485493545803807,"48":-0.33559920974730695,"49":0.22012520061781818,"50":0.016763151149909485,"51":-0.016020195303965555,"52":-0.13476896181552517,"53":0.14190863392497308,"54":-0.1071846698097648,"55":-0.0051199622397732885,"56":0.035173540997838315,"57":-0.22565215255566984,"58":-0.00493921666665591,"59":0.01150890634710325,"60":-0.26332116630293534,"61":-0.041260557532632365,"62":0.15517368866395648,"63":-0.12655325072687923,"64":-0.02605100055150041,"65":0.009750179944954737,"66":-0.029079136992161532,"67":-0.1211754832078462,"68":-0.06696396354558694,"69":-0.11249109782456837,"70":-0.11698876899584157,"71":0.016628301617171173,"72":-0.08410587298042911,"73":-0.022876043055362588,"74":-0.10982310138113768}},{"sx":5,"sy":5,"depth":3,"w":{"0":-0.08302575249337854,"1":-0.001623434171337124,"2":0.04525363915964818,"3":-0.2678624158929677,"4":0.048268051517538796,"5":-0.3730609580366028,"6":-0.0904222006229103,"7":0.049946142979672606,"8":-0.021319444502324512,"9":-0.028616155430405063,"10":0.08280262383870914,"11":0.24784728964983907,"12":0.1386298763293564,"13":0.490460656134784,"14":-0.10384769792935739,"15":-0.028616114560862063,"16":0.1475105318654111,"17":-0.13755455975046482,"18":-0.09643989863030424,"19":-0.051630813042402725,"20":0.08721936119238335,"21":0.21548291508960857,"22":0.03954522439742313,"23":-0.03147796435358187,"24":0.035181609630570376,"25":0.057032485657784585,"26":0.12430291141632818,"27":0.028412406220374106,"28":0.03364288798980399,"29":0.05349616676340238,"30":-0.15791846922295075,"31":-0.2155680077549718,"32":-0.07582333685404548,"33":-0.052255161228447485,"34":0.10007569699945176,"35":-0.19507005301775515,"36":0.026754728591784016,"37":0.06655546700257241,"38":0.06425301123416516,"39":-0.11634562957609096,"40":-0.0503776882064139,"41":-0.05868693703246769,"42":-0.13722502683092924,"43":-0.112779414460021,"44":0.05131427661609069,"45":-0.043689619477696666,"46":0.0684546109002613,"47":-0.06114681732507666,"48":-0.17386209928518676,"49":0.052174888656582964,"50":-0.19616791486575144,"51":0.14257774144802413,"52":0.028479967422115664,"53":-0.08813400386439257,"54":0.0502171945172411,"55":0.155771966192309,"56":0.08749598555625751,"57":0.03146728284148039,"58":0.0925556282465561,"59":0.22598371446827795,"60":0.0177760939538476,"61":-0.19397654080530527,"62":0.10833856894473752,"63":-0.14975239015142763,"64":0.07471258797263353,"65":-0.29559652003252107,"66":-0.13218763357651817,"67":-0.014005407173307803,"68":-0.02800877836666558,"69":-0.12466996893442951,"70":0.09026802425305298,"71":-0.014676194868106516,"72":0.2018048767762418,"73":0.1500503079686389,"74":0.22653106750237822}},{"sx":5,"sy":5,"depth":3,"w":{"0":0.041331920031152325,"1":-0.07108907728272036,"2":-0.18322007842470706,"3":-0.12389372693743582,"4":-0.08136581407449096,"5":0.11809961773049195,"6":0.03036401405292556,"7":0.022049156868048387,"8":0.07423754333293639,"9":0.19434134614114876,"10":0.03831245966199461,"11":0.14390179583369303,"12":0.0544005519918992,"13":-0.038919463854089814,"14":0.1936983912720761,"15":-0.05945458685919535,"16":-0.029295688289547105,"17":-0.014471893530659957,"18":-0.09593906527336676,"19":-0.13006192640056663,"20":-0.1279772072096172,"21":0.041196968346765575,"22":0.01172299926696408,"23":-0.14370891901351093,"24":0.04008959092167517,"25":0.041003620710095584,"26":0.1127484032709788,"27":0.12510941277456522,"28":0.14433450915143797,"29":0.25745336848767936,"30":0.10515038252811756,"31":0.02497247470557955,"32":0.00414297448295432,"33":-0.08861820004976688,"34":-0.07918303742055041,"35":0.14426473195232242,"36":0.03627673111822669,"37":-0.11890133449610579,"38":-0.08019278277972966,"39":0.0558706435842629,"40":0.17856527754750331,"41":-0.020484347013309766,"42":0.03664259992504119,"43":0.1481669800209709,"44":0.1530106417856667,"45":0.004361661648955581,"46":0.04017478622716441,"47":-0.004862204989781418,"48":-0.028587274721570546,"49":-0.13410563565049977,"50":-0.047739366659514997,"51":-0.2090661225808799,"52":-0.039828403078369816,"53":0.11376495510124372,"54":-0.18315242458254222,"55":-0.05240440630722767,"56":-0.03255309326315265,"57":0.060521484759140216,"58":0.11960048542711084,"59":0.017170921812086404,"60":-0.13724114724833142,"61":-0.21864650115962572,"62":0.08734932353129385,"63":-0.1250269565982183,"64":-0.034619979191809404,"65":-0.05290533768786557,"66":-0.1259173211501434,"67":0.0861177740715394,"68":-0.03372660298474543,"69":0.0412403054212557,"70":-0.03244992246834758,"71":-0.2475899969563044,"72":-0.06722290623746055,"73":0.039633056802211665,"74":0.1924653379177941}},{"sx":5,"sy":5,"depth":3,"w":{"0":0.07902283954375806,"1":-0.0379430855910205,"2":-0.21959970065105405,"3":0.02129869416927232,"4":-0.03500558738060171,"5":-0.11639630903450744,"6":0.15030646673485393,"7":0.08775757156385006,"8":-0.11593321035680304,"9":-0.0690046070400901,"10":0.10404242943544718,"11":-0.16624113246989414,"12":0.013419779708242386,"13":0.09988190389318637,"14":0.049529802476959456,"15":0.2842505489760325,"16":0.06021112002246518,"17":0.20068638730544527,"18":-0.11354274310698001,"19":-0.19070923506298498,"20":0.051617290816085834,"21":-0.06617834954370658,"22":-0.10881256823341891,"23":-0.017781945963851232,"24":-0.03540059361627152,"25":-0.17655795755414777,"26":-0.11323142901999371,"27":-0.06496056592568683,"28":-0.14573228057045548,"29":-0.12464407334010451,"30":0.053574204816832685,"31":-0.10518765804396152,"32":-0.012035338396448183,"33":-0.00533731465675975,"34":0.06961182748791069,"35":-0.12294167683950157,"36":-0.022853652239360037,"37":0.09699740201876508,"38":0.14541776158717298,"39":0.009511029411409383,"40":0.21833259010822828,"41":0.013504383297757532,"42":-0.027463165074997388,"43":0.10362927787190612,"44":-0.14095319827052205,"45":0.1281465763628086,"46":0.06119957132917506,"47":-0.13138848944753367,"48":-0.1326272267758612,"49":0.10930344058760387,"50":0.22612113381235643,"51":-0.048397458700491926,"52":-0.06564165927197746,"53":0.011442728138424733,"54":-0.013321048135668383,"55":-0.10503010810490829,"56":0.03535481165217582,"57":0.19865889569818548,"58":0.05883994992874694,"59":0.024311351267704496,"60":0.20129881279543616,"61":0.03503548377257375,"62":-0.01052991214015681,"63":-0.02457860045257677,"64":-0.14684814322998854,"65":0.10901803545682015,"66":0.02551136028016032,"67":0.11634534239375831,"68":-0.12277372488207412,"69":0.04077397648181795,"70":0.1810098170565508,"71":0.019732358027632537,"72":-0.12630873862925313,"73":-0.013972371012681154,"74":-0.06001428848716019}},{"sx":5,"sy":5,"depth":3,"w":{"0":-0.11962489988204567,"1":-0.30117437267564423,"2":-0.28396758668177124,"3":-0.10957967323343067,"4":0.2165038980441314,"5":-0.02197952049799712,"6":0.039376089198770954,"7":-0.009218190441544889,"8":-0.014366012145581648,"9":-0.19568706667431884,"10":-0.26843188575147375,"11":-0.22608922784869043,"12":-0.24246037054880773,"13":0.052693120560854345,"14":-0.24464870191433133,"15":0.2153300265776449,"16":0.12515774227963983,"17":0.15120136974422252,"18":0.1710913526642503,"19":0.12062632089787337,"20":-0.043512302380749775,"21":-0.056778040339391225,"22":-0.05535035897623246,"23":-0.18435203198844194,"24":-0.05254389406902157,"25":-0.17423370535748398,"26":0.04688562211527409,"27":0.01774705609019844,"28":0.0038225025765826538,"29":-0.011246837147293466,"30":0.06382503855362606,"31":0.04540711462409401,"32":0.0789727883882122,"33":-0.046022989863890376,"34":-0.0057865281842125514,"35":0.27882924323551733,"36":-0.0026938303550532662,"37":0.2466683749911891,"38":0.12585220470521488,"39":-0.03189899399852685,"40":-0.02502662489233209,"41":0.025562621040713548,"42":0.09723009545095808,"43":-0.04476725064660782,"44":-0.04746413717866762,"45":0.08759084866826701,"46":-0.06494569388355076,"47":0.08946387196519179,"48":-0.22849973700379744,"49":0.2575784146083906,"50":0.03166772832541371,"51":0.22686886074043497,"52":-0.08902659072282935,"53":-0.029558535503035065,"54":0.11726483009459637,"55":-0.05638665397791137,"56":0.0060240084834583055,"57":0.08067716471021445,"58":0.10225598300887029,"59":0.002536661951449955,"60":0.03659888013761272,"61":0.078420107503137,"62":-0.23318863074283191,"63":0.038342589496698797,"64":0.1555041187366948,"65":0.20894505020005016,"66":-0.1357020678261141,"67":0.1627515527817891,"68":0.034062805721430424,"69":0.14086451453129806,"70":-0.31908708350157844,"71":0.2572936635125066,"72":0.030975663781557087,"73":0.04714506828653402,"74":-0.15777981500846716}},{"sx":5,"sy":5,"depth":3,"w":{"0":-0.11630845796529127,"1":-0.023355753337566756,"2":-0.05746645142443041,"3":-0.18487906823313477,"4":-0.006613455616392201,"5":-0.14356297980648128,"6":-0.17801087850770253,"7":-0.23446839820705254,"8":0.08435096108857651,"9":0.11128696885381606,"10":-0.21349293255936358,"11":-0.09093605984586535,"12":-0.29814454435298565,"13":0.09809146528372037,"14":-0.17300814042261412,"15":0.12381090400741486,"16":-0.3154448050390587,"17":-0.03066280283919834,"18":0.020115901213274535,"19":-0.13376662674706571,"20":-0.1352619104460864,"21":-0.060224418539204565,"22":-0.17330445490994795,"23":-0.2594429129968459,"24":-0.028269951749931393,"25":0.022989366347497684,"26":-0.11696146839390681,"27":0.023546936152598247,"28":-0.09266708928823823,"29":-0.0788552087807168,"30":0.043188240089096,"31":-0.03285718464781164,"32":-0.1986032624871663,"33":-0.01726222848648638,"34":0.05653928475732876,"35":-0.29847360080387575,"36":-0.08600138370300989,"37":-0.1674551110881116,"38":-0.1417718584974247,"39":-0.1539058688766311,"40":0.14560008849559747,"41":0.11848927149353186,"42":-0.09391375116992454,"43":-0.13900876353603478,"44":0.15645824528157548,"45":-0.0373824910295246,"46":-0.08429378583361483,"47":-0.04138308940951261,"48":-0.14364980128035673,"49":0.04634356965702073,"50":-0.03452656474886315,"51":-0.0937296742760779,"52":0.12413909785226598,"53":0.054366447975661036,"54":-0.0426584874773987,"55":0.0006826426944085955,"56":-0.07065007354960827,"57":-0.09069765883097342,"58":-0.167854508220609,"59":0.08930264358564903,"60":0.04072288752177372,"61":-0.010660655432603318,"62":0.022254489785906655,"63":-0.07773436728400779,"64":-0.032758828643191074,"65":-0.19671976278208736,"66":0.027938633061214132,"67":0.1256751353968433,"68":-0.10696485925405959,"69":-0.07352609211686861,"70":-0.129955311429728,"71":-0.2774223012016282,"72":0.339604998351138,"73":-0.15694543472199876,"74":0.057156362684788}},{"sx":5,"sy":5,"depth":3,"w":{"0":-0.03268237747796813,"1":0.03662907929892748,"2":0.01757687868108206,"3":-0.034256032132149596,"4":-0.21896371647243207,"5":0.01800816607086348,"6":-0.056370078087009064,"7":-0.3505978738736162,"8":-0.17378535512368135,"9":-0.19281528516477606,"10":-0.1747529032915749,"11":-0.03906546484292955,"12":-0.028333155092252958,"13":0.09860644794484615,"14":0.1475052181089955,"15":-0.02494405901497473,"16":0.06754511681197753,"17":-0.08865414279690963,"18":0.03775668704680371,"19":-0.052341029150027966,"20":-0.12096234091406541,"21":0.009234789010195324,"22":-0.2471498150966648,"23":-0.124292690313753,"24":-0.1548677771755012,"25":-0.17194206717635274,"26":0.1158204121116004,"27":0.0528225957530072,"28":-0.08455975276055917,"29":-0.10554523813339187,"30":0.10555669962862833,"31":-0.1128264550805925,"32":-0.074970498789981,"33":-0.013638189356809669,"34":0.25651853436816086,"35":-0.07831981797864618,"36":-0.16010995904314873,"37":-0.11622177705485465,"38":-0.027580879192554704,"39":0.08817287003555582,"40":-0.1938402557961763,"41":0.024172324063838815,"42":-0.1140343046674169,"43":-0.09999643920155743,"44":-0.04541036987862342,"45":-0.2124110116121418,"46":-0.31408177480541377,"47":0.010609918000946655,"48":-0.04972211493065706,"49":0.007724155203424787,"50":-0.13229027890867445,"51":0.09827028496856617,"52":0.2268563778730799,"53":0.05950667699646374,"54":-0.07759355343456086,"55":0.02401810495252672,"56":-0.09741817726060988,"57":0.19163061650808108,"58":-0.060849577223545254,"59":0.11254151558500004,"60":0.053930893123364194,"61":0.08825280453574526,"62":0.11131022648597069,"63":0.12727136152746926,"64":-0.057656768731499046,"65":0.2926602662131429,"66":-0.1400832953447764,"67":0.06633769749176284,"68":-0.014349146357962148,"69":-0.07330340902346107,"70":0.016404351371675476,"71":-0.19364257967379878,"72":0.02754957680210672,"73":0.10853271755205887,"74":0.03701507141264179}},{"sx":5,"sy":5,"depth":3,"w":{"0":-0.027126496683939624,"1":0.07453867921735592,"2":0.08056478039066439,"3":0.01090192285050033,"4":0.10942230363500573,"5":0.10100559349860899,"6":0.14766603100757436,"7":-0.012995311223748213,"8":-0.05167339513425339,"9":0.03797065449703827,"10":0.06224194519834301,"11":-0.06792236909510119,"12":-0.1568219359310861,"13":0.0424258047539167,"14":0.2256317481649169,"15":-0.1818961812081477,"16":-0.09291978278269843,"17":-0.1666814744841453,"18":-0.07932304034632329,"19":-0.03849808534687057,"20":-0.2031427982152648,"21":0.0508587139451607,"22":0.0445967011592921,"23":0.08082060960825332,"24":0.26629486276660286,"25":0.19727331689347283,"26":0.04392286462330816,"27":-0.1298270248602517,"28":0.28756375576814974,"29":-0.06628160233838598,"30":-0.10316017545822316,"31":-0.4124575944582715,"32":-0.019804758545422477,"33":-0.06186691992686969,"34":0.058635316528583586,"35":0.13300535783628142,"36":-0.17639703321961867,"37":0.011321274238122849,"38":-0.24187558730811926,"39":0.05017730106364715,"40":-0.12578622766756753,"41":-0.07684017719018532,"42":0.05048649236877983,"43":-0.06141839478346454,"44":0.011942962594079922,"45":-0.026715410427523074,"46":-0.11792016886304438,"47":-0.18361565796047447,"48":-0.019190146788808246,"49":0.03308433743631928,"50":-0.056269813277277064,"51":0.028480111154656932,"52":0.17518293128573914,"53":0.0984222155095687,"54":0.30385741792575954,"55":0.16219526427070952,"56":-0.1825147349360032,"57":0.193409475512827,"58":-0.00011549932421855576,"59":0.1753013031800889,"60":-0.1133179008965294,"61":-0.0885258357225559,"62":0.1571852940777688,"63":0.11997948021996302,"64":0.16772516212839655,"65":0.03635904452838024,"66":-0.034083373565122047,"67":0.12816632349447715,"68":0.04103125703544084,"69":0.025720113498035244,"70":0.033227412461662574,"71":0.1797044561570644,"72":0.12923105746042224,"73":-0.08161101763491886,"74":0.00646635994708378}},{"sx":5,"sy":5,"depth":3,"w":{"0":0.03670033104157655,"1":0.11322688141320886,"2":-0.12893039628539546,"3":-0.09588643615197097,"4":-0.11473724178555342,"5":-0.17462899131261675,"6":-0.09679717999611911,"7":-0.15945516366646165,"8":-0.07734187551764231,"9":-0.1110634816455998,"10":0.0704903611001042,"11":-0.02672863157816156,"12":0.08621220223761566,"13":0.23578750559569267,"14":0.06261380059231744,"15":0.04060238250692196,"16":-0.0577195136989703,"17":0.11554179436951946,"18":0.1451791485007873,"19":-0.23797686687584046,"20":-0.11127141047189845,"21":-0.007327197043345481,"22":-0.034132597304796654,"23":-0.237631656863824,"24":-0.19141485220860632,"25":-0.2790306590509858,"26":-0.22801548461997798,"27":-0.09019990665743186,"28":0.053383721335479827,"29":0.1398991334500517,"30":0.023960081647367678,"31":0.043451206487710815,"32":0.05058715395929111,"33":0.21011521859403848,"34":0.007299902939617695,"35":0.1495661332756262,"36":-0.11675822098594449,"37":-0.11151852959497993,"38":0.02072183856984391,"39":-0.032222090638076996,"40":-0.18515123895735147,"41":-0.006128856387716581,"42":-0.03576727213725747,"43":-0.08021398199073054,"44":0.10250708420666146,"45":-0.021818097015868187,"46":0.025908973909228163,"47":0.09473801525849045,"48":0.18741838454901805,"49":-0.019021888082170056,"50":-0.003756232773706962,"51":0.21813839169649726,"52":0.07207474486801745,"53":-0.1344791689433447,"54":0.13943556890217507,"55":-0.24500346652397464,"56":-0.07981728297017784,"57":0.16824342332745965,"58":0.1498856230696578,"59":0.04300944972055458,"60":0.04299359115756019,"61":0.06503493765284447,"62":-0.07877001559391222,"63":0.01667727630140709,"64":0.10836615215329552,"65":-0.05435751040339411,"66":0.1356899432357839,"67":0.06776425683178593,"68":-0.06547753321540907,"69":0.2409089524523106,"70":-0.013088402046204548,"71":0.017120494127109365,"72":0.32021732929110874,"73":-0.027755543738756567,"74":0.07957691855902341}},{"sx":5,"sy":5,"depth":3,"w":{"0":-0.03638683532811443,"1":0.09295411845290939,"2":-0.05474090073818852,"3":0.16228517835095174,"4":-0.1266877660519589,"5":-0.08338381601648069,"6":0.15838312967900692,"7":-0.1399246731829868,"8":-0.082399877053849,"9":-0.13614075841255308,"10":-0.4457328107205537,"11":-0.18790030547187858,"12":-0.14858802591181872,"13":0.12017379778034855,"14":-0.21689282688735884,"15":0.003975419399460983,"16":-0.04626031974929055,"17":-0.16517479215878733,"18":0.00921774189915965,"19":0.17858776998756737,"20":0.03302556117894853,"21":0.16941523302820402,"22":-0.021038059345912002,"23":0.13012298949464496,"24":-0.1157953036693029,"25":-0.051400756945634965,"26":-0.2549955507865648,"27":0.05764917400666565,"28":-0.08258336111073727,"29":-0.35005719669302204,"30":-0.022405781345606727,"31":0.12527646689174865,"32":0.37693487820206445,"33":-0.10736961744947468,"34":0.10746665319236748,"35":0.033197097422238524,"36":-0.061632887326716616,"37":0.03365602259457703,"38":0.04848132645281742,"39":-0.08400708045057043,"40":0.21659075921000817,"41":0.25462184328761583,"42":-0.07381790044464467,"43":0.07794904005590424,"44":-0.1678641227571918,"45":-0.046062061936861666,"46":0.08597537804779037,"47":0.054592488690472625,"48":-0.10331363127053765,"49":0.32900077958383467,"50":0.07131225885554653,"51":0.10238345100660387,"52":0.06857961609147414,"53":-0.06418380976008131,"54":0.0671602043014931,"55":-0.2098416938771986,"56":0.146718006882697,"57":0.035815529325138755,"58":-0.03382097073933774,"59":0.12884825465546568,"60":-0.10914215937640412,"61":0.030070372549714477,"62":-0.1359884987538415,"63":-0.23846587389668727,"64":0.05655656681331136,"65":0.18645394564889733,"66":0.0019102409025050894,"67":0.005586236663700813,"68":0.14824340636475603,"69":0.11502823244493719,"70":0.08999939902919117,"71":0.0459719386387564,"72":0.10531025355706994,"73":0.01180283890573838,"74":0.12262234062422353}},{"sx":5,"sy":5,"depth":3,"w":{"0":0.03071100083595555,"1":0.014622361297939358,"2":-0.03801388453272741,"3":0.14770577214368052,"4":-0.15631010422409092,"5":-0.1969059231834126,"6":-0.14189039152727043,"7":-0.1670382715431768,"8":0.09796238772090715,"9":-0.03537599055205095,"10":-0.0468416553313417,"11":-0.0007646456335973799,"12":-0.13645614506913742,"13":-0.05918567655552469,"14":-0.21800431236942377,"15":0.009069229431355836,"16":-0.26614463919786513,"17":-0.05330066428326798,"18":-0.016391619936421974,"19":-0.12073515821035885,"20":-0.09798213771309068,"21":-0.15717855399380723,"22":-0.1569292434930223,"23":-0.0029275043043396577,"24":-0.034509376837726355,"25":-0.09704127820899626,"26":-0.08472674779421144,"27":0.027828618680215685,"28":-0.4092851850172359,"29":0.0777891032837265,"30":-0.004608708812584286,"31":0.010750746254353193,"32":-0.099097463709157,"33":-0.16729498822523328,"34":-0.15919300403688466,"35":-0.08291890181397671,"36":0.07391166048152198,"37":0.20803491771264582,"38":-0.15506746851609834,"39":0.22498354548009963,"40":-0.06286790375088877,"41":-0.17606966920991718,"42":0.09126900743042629,"43":-0.24278435958918393,"44":0.03130439649107068,"45":0.05290521931827315,"46":-0.258633865733835,"47":-0.13515428422923134,"48":-0.029113583094480765,"49":0.034484081787505096,"50":-0.003966493325075062,"51":0.008931680878304949,"52":-0.09069308147092325,"53":-0.08630259536027231,"54":0.10349077559160166,"55":-0.051774725999474115,"56":0.03074556182768474,"57":-0.008550150595758381,"58":-0.08954469604547227,"59":0.02912075551418906,"60":-0.03046965465574892,"61":-0.15338625095939032,"62":0.09651914999834856,"63":-0.10190677892205835,"64":-0.0017453672718574093,"65":-0.15057977858816643,"66":-0.15496076770908263,"67":-0.09796425931591714,"68":0.17559876527529522,"69":0.046487909498430784,"70":-0.16145300922858585,"71":-0.1773022816576749,"72":0.01617235874026162,"73":-0.12820085095838576,"74":-0.01893923807279139}},{"sx":5,"sy":5,"depth":3,"w":{"0":-0.04683593091050357,"1":0.15323133720194107,"2":-0.06821107736264363,"3":0.09499911277483807,"4":-0.05398778376482932,"5":0.05902016228623037,"6":-0.0744760817474621,"7":-0.057343603731711094,"8":-0.01528626432347649,"9":0.09500760208680512,"10":0.15059309866491638,"11":0.1708720781332702,"12":0.03967828548766636,"13":0.0642031256411476,"14":0.07274496259101931,"15":-0.012498770978942019,"16":0.3141146553250533,"17":-0.10123057838791631,"18":-0.12508597317426984,"19":0.06338162176607774,"20":0.04229580990521388,"21":0.10881457205943317,"22":0.17905918105890034,"23":0.09629784474674238,"24":0.04565083173982902,"25":-0.09179322466523178,"26":-0.02351170647744978,"27":-0.13394590529256786,"28":-0.08369648353147013,"29":-0.19536908320494992,"30":0.01751682844734628,"31":0.33849356470950226,"32":0.1360591390951775,"33":-0.13917830140606247,"34":0.044095246367492305,"35":-0.018036640999683655,"36":-0.19149252513300238,"37":0.07631832126182041,"38":0.017858273175297208,"39":0.18060338163244286,"40":-0.16750398571825556,"41":0.03703857371377371,"42":-0.058381665962085626,"43":0.0579728303282636,"44":0.01480050261846238,"45":0.03635159220398942,"46":0.08354708622476943,"47":0.04695642947824331,"48":-0.014672257740301656,"49":-0.18753895023766184,"50":0.07406203623590463,"51":0.013608021848265607,"52":-0.15418114889155823,"53":-0.005460073177334165,"54":0.03701339162687369,"55":-0.1289380044420611,"56":0.06636489157750096,"57":0.11904470401684292,"58":-0.05376128237455544,"59":-0.051405455162955256,"60":-0.09822912758586122,"61":-0.11191164050190831,"62":0.04835564907490086,"63":-0.0041853300179791565,"64":-0.08080683071720336,"65":-0.018217041382979502,"66":-0.002401617902399194,"67":-0.13529322700793847,"68":0.06174994785573129,"69":-0.015081479506474673,"70":-0.13662252424168506,"71":0.005053631142157965,"72":0.07195455500513225,"73":-0.05316767846088528,"74":-0.06058238826451327}},{"sx":5,"sy":5,"depth":3,"w":{"0":0.19427029595049397,"1":0.022765879335335353,"2":0.20258498175455955,"3":-0.137563821385048,"4":-0.07098482482426632,"5":0.085853314198723,"6":-0.03833341564282655,"7":-0.04916400726760044,"8":0.03028131062033759,"9":0.265726883090669,"10":-0.1322085454599789,"11":-0.16643437732411176,"12":-0.12362459324212037,"13":0.010047082397669703,"14":0.18677614892884362,"15":-0.045717110031157006,"16":-0.016454053259917154,"17":0.10100131159929392,"18":-0.11606897601720408,"19":-0.2122974912926255,"20":-0.0779499046414563,"21":0.1553963598242681,"22":-0.16685557618404487,"23":-0.06589361987595849,"24":-0.2379595166255781,"25":-0.19256767450712847,"26":0.10252738852735975,"27":0.3065471044147379,"28":0.015882775362298113,"29":-0.08339025843088131,"30":0.08367657051562848,"31":0.16954211925455287,"32":-0.057984811557589076,"33":-0.16735773681279392,"34":0.08301397732005798,"35":-0.0013628618054026438,"36":-0.20010822417446855,"37":0.0029306282410590306,"38":-0.22137769453997605,"39":-0.12232934422616382,"40":0.15331810382732275,"41":-0.10450936483449008,"42":0.1320870535035605,"43":0.15265932355235767,"44":0.17249226683910965,"45":0.006439549499141844,"46":0.1383963955324733,"47":0.15622875304714628,"48":-0.0010308040646457134,"49":0.21550847336417842,"50":-0.0074949686670801536,"51":-0.09697264270341127,"52":0.06571638000084405,"53":-0.1603110343121754,"54":0.04958208336787342,"55":-0.17143132845660786,"56":0.07478357023367464,"57":0.08584496226836642,"58":0.10551804750836125,"59":-0.13554646276777207,"60":-0.04566498515369926,"61":0.027418006282333367,"62":0.014658789293307072,"63":-0.07285237084870967,"64":0.13454818744607017,"65":-0.20852200093632525,"66":-0.20260395943353,"67":-0.010241144970941035,"68":-0.15571351141842912,"69":0.047680969339973324,"70":-0.042665863206515865,"71":0.10835976846306107,"72":-0.06765336298896442,"73":0.16133609853595324,"74":-0.045423875526362206}},{"sx":5,"sy":5,"depth":3,"w":{"0":-0.046288822274892956,"1":-0.045404511825966574,"2":-0.036512149180394214,"3":0.05393760133327303,"4":0.13567736231524535,"5":0.059008762688114835,"6":0.1095190456023209,"7":0.1711128878516264,"8":0.05638570353778779,"9":-0.04659300612270849,"10":-0.21044200028600663,"11":-0.0028089948282870266,"12":-0.200268657577879,"13":0.12266774113455142,"14":0.13952327644506132,"15":-0.2515443990330326,"16":-0.02710101886191812,"17":-0.03495956174036896,"18":-0.07658215369111143,"19":0.22444747078904265,"20":0.056373470471198034,"21":-0.014153833022382656,"22":0.10913999719088585,"23":-0.0552147274367717,"24":-0.02463381611981146,"25":0.06148482025127166,"26":0.008803723468607283,"27":-0.10511147367784703,"28":-0.35718159399633215,"29":0.03515223003431169,"30":-0.2653923586424836,"31":-0.09455396357676735,"32":-0.21008461620271884,"33":0.15050964663024963,"34":0.17347835548321328,"35":0.07181917704340988,"36":0.0006557426483788883,"37":0.3212758371071408,"38":-0.20230989016129353,"39":-0.0870966083696495,"40":0.06966213384352217,"41":-0.023285065304320066,"42":0.012306303517098861,"43":-0.004985889307355721,"44":0.26446539618794995,"45":-0.16840792062373078,"46":-0.08944316224408096,"47":-0.19640203864935346,"48":0.14285240983292427,"49":0.02615805472550811,"50":-0.12796701128442023,"51":-0.041635290486373495,"52":0.0880971174428903,"53":-0.13559599060944189,"54":0.33882390972821014,"55":-0.09937554010866681,"56":0.010031180894668685,"57":-0.03941703489236396,"58":-0.16046618181923808,"59":-0.0028783048762623985,"60":0.188527660848056,"61":0.09728710344160281,"62":-0.15639862522475537,"63":0.06325696655160017,"64":0.05770511446031664,"65":-0.13477350258790494,"66":0.18428737154012384,"67":0.14587137289643473,"68":-0.14427511769234186,"69":0.07219985576554727,"70":0.08175235178411328,"71":0.0008174446291050026,"72":0.016929051704350842,"73":0.06466216202036423,"74":0.09961206110448872}},{"sx":5,"sy":5,"depth":3,"w":{"0":-0.07625997025229249,"1":-0.10622184355064739,"2":0.1843916352216008,"3":0.03207202216177924,"4":-0.023819438658464805,"5":-0.21419436832552358,"6":0.02102224962386483,"7":0.09702002528279513,"8":0.09990617274383752,"9":0.09727110180859111,"10":-0.12862238914945592,"11":-0.20016453078640467,"12":0.06618117723672978,"13":-0.01964339787092928,"14":-0.00818996402708854,"15":0.07685020016628939,"16":0.1231999967534588,"17":-0.17089127293591364,"18":0.005085638106033849,"19":-0.05841521858684549,"20":-0.014193137985130354,"21":0.07129785363477742,"22":0.13710360804897379,"23":0.07275860555115561,"24":0.05140259584660763,"25":0.05223794192300619,"26":-0.06481193997754847,"27":0.14179560997146215,"28":0.13456482117875537,"29":0.13970100300813257,"30":-0.08144537445527252,"31":0.08584178198207545,"32":-0.09797009262617815,"33":0.03653385696953766,"34":-0.18566784092046498,"35":-0.3159327339908486,"36":-0.254601330397372,"37":-0.17161007612219029,"38":-0.33162191669713514,"39":0.04701133974826176,"40":-0.06977982770060359,"41":-0.17313233774625342,"42":-0.01696082711407883,"43":-0.12304277885516782,"44":0.11156885639539259,"45":-0.10387132447662223,"46":0.007066187260697138,"47":-0.010511927438412047,"48":0.09378047849930754,"49":-0.19754249693033527,"50":-0.28124659318643297,"51":0.08021023448733816,"52":-0.008702700767903087,"53":-0.24234546572627516,"54":0.057082598324762555,"55":-0.11981966111159836,"56":-0.3227998690444724,"57":-0.07500955505732972,"58":-0.15037756409361697,"59":-0.03593950938888075,"60":-0.30300835676493876,"61":0.12797136213839977,"62":0.06377459023794019,"63":-0.21321476799565162,"64":0.11007491618819354,"65":-0.15322570184909257,"66":0.02269837463171381,"67":0.17656828517764786,"68":-0.04266755080699456,"69":0.09869042412173187,"70":-0.12172736142198597,"71":0.18181199295230582,"72":0.030515096494830835,"73":0.025440410902013266,"74":0.1799473116662559}},{"sx":5,"sy":5,"depth":3,"w":{"0":0.16582918835147203,"1":-0.12826723375789992,"2":-0.12929574822458023,"3":-0.21637059155034527,"4":-0.10623133913966663,"5":0.003571716270953542,"6":0.2586081143269756,"7":0.2014671388481837,"8":0.04006909959031835,"9":0.08219689813890971,"10":-0.027861615212831706,"11":0.16081744338189152,"12":0.036379055985097025,"13":0.04743889495517715,"14":0.335992201156814,"15":-0.0693818835810483,"16":0.14282875639883846,"17":-0.06081511621241083,"18":0.06302690535074638,"19":0.12589134327325266,"20":-0.1268211182208903,"21":-0.0892616201165258,"22":-0.07824077125095477,"23":-0.07567449994862373,"24":0.004709551435858654,"25":0.18163543700852025,"26":-0.054447661887144956,"27":0.05139916146248876,"28":-0.06413480388550925,"29":0.031468964384048996,"30":0.06505432792437682,"31":0.10809743969695658,"32":0.06752057114176896,"33":-0.26853138815540534,"34":0.009838995237646616,"35":0.05018641178785338,"36":0.002448303830540025,"37":-0.22838918667251284,"38":-0.2628895678910205,"39":0.01812433724341022,"40":-0.14864784521356256,"41":-0.21047976818141387,"42":-0.07335561114502147,"43":-0.10786491631393211,"44":-0.20261779631534602,"45":0.15657966544302102,"46":-0.00927090050408817,"47":-0.06790029868241892,"48":0.08670552777674835,"49":-0.04702938647608372,"50":0.04907085707524789,"51":0.024172655903930428,"52":-0.0960641258602599,"53":-0.02950386001463173,"54":0.25398598216049334,"55":-0.04926228708147143,"56":-0.09809777234991772,"57":0.0905048895477643,"58":-0.1726719459500338,"59":-0.04671553739290257,"60":-0.02220722001779108,"61":-0.145038641033573,"62":-0.07595817800486061,"63":0.3143925928426486,"64":0.1529414889876005,"65":0.059493225580726485,"66":0.043983832747489696,"67":0.2605259845997809,"68":0.05703572105037238,"69":0.10029827361897474,"70":-0.10959933399011214,"71":0.06654999734859063,"72":-0.11946135328332837,"73":0.0532985285527563,"74":-0.15687172720381495}},{"sx":5,"sy":5,"depth":3,"w":{"0":0.0999000034430781,"1":0.15450671036267297,"2":0.10590342760873088,"3":-0.02553944214263606,"4":0.05003520245348614,"5":0.14028881682527822,"6":0.1792019142651452,"7":-0.07242810638858707,"8":-0.024522680599449887,"9":0.012951947051358893,"10":-0.12323945454263739,"11":0.09659847100262452,"12":-0.1156030660878385,"13":-0.13485801394697058,"14":-0.0681151238673461,"15":0.1620354802399745,"16":-0.12303932734747088,"17":-0.006869755045685026,"18":-0.12952668018370128,"19":-0.16738341361919565,"20":-0.054267701541934554,"21":-0.2122500103309708,"22":0.0602599719555064,"23":-0.3990320062824749,"24":-0.11036181261644383,"25":0.0008560128820477861,"26":0.01688801459559488,"27":0.04420018192872878,"28":-0.08721169150448378,"29":0.1374606953686207,"30":-0.05644633403091546,"31":0.03822308289342161,"32":-0.3124952894245945,"33":-0.02337659354831875,"34":0.0541997674628456,"35":-0.060372272737062235,"36":0.01303876046989519,"37":-0.027009144469780904,"38":-0.13099653746938028,"39":0.13491922430548045,"40":0.06665103666180068,"41":-0.022193055481167075,"42":-0.17034300363009885,"43":-0.18796850566548756,"44":0.08402893483634313,"45":-0.01024664593211012,"46":-0.22187286356873345,"47":-0.11223784327505798,"48":0.17430265712790932,"49":-0.171993966713171,"50":0.08057769150495052,"51":-0.15359614788943587,"52":-0.09862805078786743,"53":-0.20713864697586962,"54":0.024057045007628064,"55":0.015675377441454932,"56":-0.13630398778223848,"57":-0.12420255880654313,"58":0.1129227019661164,"59":0.05470127225168879,"60":0.0709314096016193,"61":0.16848536307751977,"62":0.09426381724655535,"63":-0.12642403805060362,"64":-0.0828852568766111,"65":0.19626335314017845,"66":-0.230465360693417,"67":0.020149262122348657,"68":-0.15204707647251872,"69":-0.04523873983475936,"70":-0.02376766018982124,"71":-0.28264679565684464,"72":0.08757113218422741,"73":-0.05361338352052441,"74":0.020822783588374236}},{"sx":5,"sy":5,"depth":3,"w":{"0":-0.16399760585420783,"1":0.14252861151203708,"2":0.12007490893339003,"3":-0.1292562376289425,"4":-0.023967357040844097,"5":-0.16644342567687742,"6":-0.14178298627115024,"7":-0.04325146556232619,"8":0.2864341911987607,"9":0.015732600461948396,"10":0.05553373171525476,"11":0.1993990685746538,"12":0.03779560454689816,"13":-0.0373231074129984,"14":0.16498449315111244,"15":-0.14804269637565598,"16":0.05623699119684431,"17":-0.14943075390787125,"18":-0.04717937266277863,"19":0.0769182926208463,"20":0.1367620091360873,"21":-0.0737035171398587,"22":0.02075077838811932,"23":-0.006368975775260814,"24":0.019703830567343778,"25":0.062352717914617016,"26":0.08060517008695532,"27":-0.08870738711668791,"28":0.10981892936820427,"29":-0.0261663891685333,"30":-0.08170290500369758,"31":-0.03631574266719684,"32":-0.004597741480055214,"33":0.11866946680182097,"34":0.04018526874660202,"35":0.19699565432232954,"36":-0.011053876939276392,"37":0.27925238027554666,"38":-0.02376705745629622,"39":-0.08473363968690016,"40":0.001670910196835542,"41":-0.09452466502993659,"42":-0.14939615938622305,"43":0.035287110873964224,"44":-0.12403915755656619,"45":0.03434759659639783,"46":0.017630104099085435,"47":-0.08302867658959584,"48":0.27499690580312064,"49":0.12375495056705757,"50":0.16811633934443254,"51":0.09897736097124413,"52":-0.02007753923259841,"53":0.1762547513779625,"54":-0.18205539198751147,"55":-0.09050666035336945,"56":0.04874605267730038,"57":-0.01857995497915261,"58":-0.21242707767302085,"59":-0.09341324884838799,"60":-0.030625182493350566,"61":-0.07582173937322928,"62":-0.11204667052073913,"63":-0.17967528864652837,"64":-0.06778321409544164,"65":0.0539467668374129,"66":-0.06941647175064379,"67":0.06666611641842693,"68":-0.19161781528941058,"69":0.19978133658983435,"70":0.0029304195267169965,"71":0.015202568460371926,"72":-0.07362300629394017,"73":0.17119253350625319,"74":0.06278457937302442}}],"biases":{"sx":1,"sy":1,"depth":32,"w":{"0":0.09207566987976355,"1":0.08663709594324334,"2":0.11310643940407042,"3":0.11995626452087763,"4":0.08189492038151908,"5":0.08245813197202408,"6":0.08755343238943405,"7":0.08159525868589493,"8":0.13783913963351818,"9":0.0870994275167138,"10":0.07404075203949309,"11":0.06451032260254325,"12":0.08051526681134318,"13":0.1438649203056451,"14":0.13105542337343978,"15":0.07130767809076997,"16":0.11212952710728681,"17":0.09789621301063503,"18":0.08015160127568664,"19":0.06673277710999773,"20":0.10038589809199713,"21":0.12459217087309181,"22":0.06202396552764771,"23":0.08173142237655344,"24":0.09958625165445156,"25":0.1463525237645109,"26":0.0752701143282355,"27":0.04374934344557564,"28":0.06434651096565382,"29":0.06841037550567314,"30":0.053866857428702494,"31":0.13925503363358205}}},{"out_depth":32,"out_sx":64,"out_sy":64,"layer_type":"relu"},{"sx":2,"sy":2,"stride":2,"in_depth":32,"out_depth":32,"out_sx":32,"out_sy":32,"layer_type":"pool","pad":0},{"sx":5,"sy":5,"stride":1,"in_depth":32,"out_depth":40,"out_sx":32,"out_sy":32,"layer_type":"conv","l1_decay_mul":0,"l2_decay_mul":1,"pad":2,"filters":[{"sx":5,"sy":5,"depth":32,"w":{"0":-0.011610617200108649,"1":0.028986586354060234,"2":0.028208523313148357,"3":0.060553339543274715,"4":-0.0984580870445871,"5":0.09313195331142557,"6":0.09620649389730385,"7":-0.033121679577601724,"8":-0.02337865716439813,"9":0.08412468730227379,"10":0.08146385489346743,"11":0.07402616714693261,"12":0.029083272213321517,"13":-0.09173775505415044,"14":0.08687247083856713,"15":0.019281282552670247,"16":0.07199019977408526,"17":0.03449527147447183,"18":-0.04479011017101836,"19":0.01654917445836008,"20":0.010811528305977742,"21":-0.011910736013111671,"22":-0.02697090664994228,"23":-0.047564480094120544,"24":0.06209183316616056,"25":0.02535480282981161,"26":0.03022743476787592,"27":-0.028454574119092173,"28":0.0350739282716365,"29":0.04868996537273372,"30":0.024507079260078345,"31":-0.055505136339721706,"32":-0.07128381407164061,"33":0.03280832072843059,"34":0.048299683189568156,"35":0.026535381687278755,"36":0.08107290491913358,"37":0.022611484857459244,"38":0.030417045764294857,"39":-0.03434095401562101,"40":-0.027515944635460438,"41":0.025959412899413066,"42":0.051164548487199556,"43":0.03816991657236354,"44":0.019094904229303888,"45":-0.01037520270062496,"46":-0.021553715159763537,"47":0.09644878478290929,"48":0.12993072646226325,"49":-0.10246770403942208,"50":-0.031960073788704135,"51":0.038122039537360375,"52":-0.02350264652473911,"53":0.12650041552757949,"54":0.03456448942968174,"55":0.03785443186284603,"56":-0.04877502915573741,"57":0.039298495985588745,"58":0.03616439384389224,"59":0.1013925851832345,"60":0.07281081727332953,"61":0.011029574791544434,"62":0.045990669779382876,"63":0.024785077217594646,"64":-0.01569045897733967,"65":0.0063332332577391084,"66":0.059890510827390775,"67":0.03707813492194377,"68":0.003747048337663129,"69":-0.01667669759316497,"70":-0.0052118019648154205,"71":-0.03257068930728695,"72":-0.0019013425206711211,"73":-0.029856630554396715,"74":0.00019788947509692724,"75":-0.03245920888816795,"76":-0.01684713873555978,"77":0.04740239943605863,"78":0.028690364445041694,"79":0.03655059749187047,"80":0.0017308872990483505,"81":-0.019240036084705727,"82":0.13307622427210697,"83":-0.06476745168574187,"84":0.0018762531037485432,"85":-0.011770120166810723,"86":0.0015938363247479741,"87":0.11154231684899595,"88":0.048514919289769476,"89":0.06270846076943587,"90":0.0350406230826614,"91":0.11265473946076605,"92":0.0035752479702357985,"93":-0.004933542062587732,"94":-0.04998861104474091,"95":0.05940178515179133,"96":0.009342975100549152,"97":-0.043209545062019884,"98":-0.008576401211188394,"99":-0.0004729935108060942,"100":0.044019553982497246,"101":0.0021107990925888446,"102":-0.014511912676447572,"103":0.025513401562683096,"104":0.02760458012007128,"105":0.017866388210624303,"106":-0.06147555687987756,"107":0.02076281433904506,"108":0.0002680476469527146,"109":-0.04768712605548081,"110":-0.02828028149218468,"111":0.008803454598319861,"112":-0.004431062131906029,"113":-0.020561991745416654,"114":0.019594286898714286,"115":-0.009363287836502632,"116":-0.03125006921290532,"117":-0.036475644888957895,"118":-0.04889000636352968,"119":-0.008025472447794627,"120":-0.03234384966339961,"121":-0.0588093906413853,"122":0.03944578749032582,"123":0.02452752585295493,"124":-0.08113781516344798,"125":0.012790387696165955,"126":0.0048651321325542006,"127":0.012713287776943612,"128":-0.02149699596638135,"129":-0.034364164797253086,"130":-0.0009505502413203078,"131":0.07785909943676539,"132":-0.005691987941700771,"133":-0.07927392931092221,"134":0.00258503228908491,"135":-0.012502188004853879,"136":0.022345045920696107,"137":-0.010090196189199421,"138":-0.06220856569741202,"139":0.06771020803970156,"140":-0.07991046615814415,"141":-0.04416846237439098,"142":0.0359308051076778,"143":-0.02662791568811904,"144":-0.01243254313057488,"145":-0.028781438621137374,"146":-0.022058842576252298,"147":-0.015984410571773668,"148":-0.044928145045730714,"149":-0.02057506570805617,"150":-0.03900000154841729,"151":-0.009925080883970799,"152":-0.012606474509539453,"153":-0.009305024226754603,"154":0.007849760836532355,"155":-0.0819457798109498,"156":-0.062314508853326886,"157":0.0004275132825927339,"158":-0.015282173928534579,"159":0.04234630679847755,"160":0.0787937957046958,"161":0.07205039969839871,"162":-0.02296421621318884,"163":0.05748030970777718,"164":0.09514232001775991,"165":0.03964704972446659,"166":0.027179665636630553,"167":0.008681352838278936,"168":-0.04938221556032513,"169":0.058336539953175996,"170":0.03814438035589445,"171":0.022092861708791697,"172":-0.007905668938017963,"173":0.010409549765595435,"174":-0.006627072356348864,"175":-0.003375859707713808,"176":-0.07575630790694744,"177":0.030334574605545287,"178":-0.07498732142965195,"179":0.03564992579973229,"180":0.014941915642331369,"181":0.047335355440243795,"182":0.0629725678897687,"183":0.09668328555630186,"184":-0.04640981578010076,"185":0.04440306590203375,"186":0.017611891388680242,"187":0.02600688208821802,"188":0.07513071201339253,"189":0.11779740786020342,"190":0.023597265103137758,"191":0.09638429554882219,"192":0.018289119363189416,"193":0.037445313211285705,"194":-0.0002314294784657671,"195":-0.055804722420886584,"196":-0.007916614049100676,"197":-0.017714745262111285,"198":0.02201895569096261,"199":-0.026306449904182704,"200":-0.030464461773315667,"201":0.01913546574242317,"202":0.13776823714657868,"203":0.060871218589654094,"204":0.007763295637090734,"205":-0.009771570533040919,"206":-0.0012028976944109108,"207":0.0428709969594629,"208":0.10106566228963927,"209":-0.006073622653260855,"210":-0.028975757515165283,"211":0.018103537862548216,"212":0.028486676526684566,"213":0.07478604495702024,"214":0.09972292389905844,"215":-0.011662948351537014,"216":-0.0735878616562445,"217":-0.023342400823170267,"218":0.019303880910384038,"219":0.11871804053851275,"220":0.011650826592382332,"221":0.09510575755251584,"222":0.025106832847648627,"223":0.019583645337886722,"224":0.02102203270656833,"225":0.05527976693236506,"226":0.06535145804129755,"227":-0.04313676864140314,"228":-0.016750619429140332,"229":0.006588604556027247,"230":-0.03149924132556463,"231":-0.07614098862234749,"232":-0.0065859485800796366,"233":-0.0031772263195344783,"234":0.09785083750086199,"235":0.02846168895586945,"236":-0.07280940773990559,"237":-0.11523406165447436,"238":-0.011335324232650273,"239":0.09709584085257335,"240":0.06409939664510694,"241":-0.054056574406778586,"242":0.009291743298043996,"243":0.0021872172597381927,"244":-0.009753129090902498,"245":0.06483201706977587,"246":-0.05813020351780939,"247":-0.01987672720976542,"248":-0.07817025484633994,"249":0.00434729187051315,"250":-0.013462893155628547,"251":0.10252374178096141,"252":0.040138293546068377,"253":0.023317902934556472,"254":-0.008427276258831235,"255":0.01426231522886894,"256":-0.06264927144711177,"257":0.014987057080575074,"258":-0.005741401444136345,"259":-0.017089764412322923,"260":0.0029851340608616577,"261":0.03032370656120351,"262":-0.0003508556258758038,"263":-0.06775108762446504,"264":-0.02724543626122171,"265":-0.046327686218033653,"266":-0.06593848177009051,"267":0.017815960401762226,"268":-0.028034373959647398,"269":-0.07226227235099227,"270":-0.0010786458798671657,"271":-0.04107471595233519,"272":-0.03521011073237309,"273":-0.03872962970731688,"274":0.033574742650862834,"275":-0.017865101958332977,"276":0.0025201648225236526,"277":-0.06340283638314514,"278":-0.033996984534654905,"279":0.011624361919733995,"280":-0.014334880654671256,"281":0.0029268344604654237,"282":-0.020981614083838956,"283":0.04006355036050838,"284":0.005301225298520383,"285":-0.08764444330351823,"286":-0.02587138846468249,"287":0.06476546393119946,"288":0.0039683364700408424,"289":-0.05844431725594779,"290":-0.0066703486512186974,"291":0.08143760165171554,"292":0.00653156816083524,"293":-0.011012146853588931,"294":-0.05741126280898164,"295":-0.005351456076469272,"296":0.029612880192707778,"297":-0.008997119432684917,"298":-0.038672445632619436,"299":-0.06380091832587906,"300":-0.05743647061773717,"301":-0.02963500831941148,"302":-0.0493882359301666,"303":-0.02482243306736657,"304":-0.057002331788590814,"305":-0.019802811832793414,"306":0.009147203474678588,"307":-0.060698673639551864,"308":-0.020304682064597773,"309":-0.03453151721830818,"310":-0.025267950300768033,"311":-0.060664527825592805,"312":-0.03906464481039885,"313":-0.02228484315846789,"314":-0.039028103127754045,"315":0.020246668852166392,"316":-0.0005930291685910369,"317":-0.06902842534469963,"318":-0.0699658176980556,"319":-0.0418764992919215,"320":-0.031141606970107847,"321":-0.041228256634464465,"322":0.022381665152651498,"323":-0.04531581149602875,"324":0.007736413228443799,"325":0.040001670817084556,"326":-0.00032059914077278066,"327":0.008202319201830535,"328":-0.007343065077282079,"329":0.03403057167192887,"330":-0.007410243009432341,"331":-0.02731750615748392,"332":0.09997510403671206,"333":0.002540191593647063,"334":-0.044810928398478576,"335":-0.00234437495377515,"336":-0.047345067628748023,"337":-0.014456936835322107,"338":-0.07762642145000735,"339":0.014919396631781259,"340":0.037697642098715914,"341":-0.031206486913057503,"342":0.08767688236479602,"343":0.06792434180203899,"344":0.005215767521403073,"345":-0.008731980650908865,"346":-0.005992798317012024,"347":0.02886565176881386,"348":0.05044649829471532,"349":0.016226753001760665,"350":-0.02662129475210796,"351":-0.049257144968739244,"352":0.08870371524392827,"353":0.04614712504001622,"354":-0.001380488029300764,"355":0.049495426084490445,"356":0.03751706392974803,"357":-0.021744841622782105,"358":0.024728179901467886,"359":0.018078918431467954,"360":-0.039504674579340586,"361":0.05497420614762683,"362":0.10648691141923687,"363":0.04172323552343113,"364":-0.03934270916871324,"365":-0.11160761139623282,"366":0.044704010285119236,"367":0.08707211737801474,"368":0.06288925181123775,"369":0.04415132795569619,"370":0.056304083211287215,"371":-0.00484805886766448,"372":0.04234605914651975,"373":0.023401264568532244,"374":0.10896050392402651,"375":0.0601397956701271,"376":0.03229573422604061,"377":0.10212115784301457,"378":0.040321452206250906,"379":0.02041987840197694,"380":-0.01670692884064679,"381":0.024949016441185305,"382":-0.036632080147048475,"383":-0.0381449748841769,"384":-0.0046577857047068304,"385":0.042238319753991053,"386":-0.01696868754165272,"387":0.06493242332622726,"388":-0.012175256202034048,"389":0.05224847289440063,"390":0.00867362752416689,"391":-0.0058587387872097935,"392":0.002833966256422491,"393":0.04604888131137587,"394":-0.011378234076609997,"395":-0.04447574340689513,"396":-0.012634245007603276,"397":-0.014585298922918542,"398":0.017008559902721612,"399":0.046832602845982604,"400":-0.014102203765171042,"401":-0.017049086916187742,"402":0.01207412813884635,"403":0.027044054712312,"404":0.0007038605150042979,"405":0.051505257389552514,"406":-0.018577906527114385,"407":-0.0310770630798934,"408":-0.01982215860111044,"409":0.008890719339584496,"410":0.018464237671453748,"411":0.026098675617749065,"412":0.05904850314750367,"413":0.01663741277228475,"414":-0.025751190884670296,"415":-0.04306056206950714,"416":-0.04848947865764416,"417":-0.0055311288510075576,"418":0.024308571854470266,"419":-0.002899788108809278,"420":0.0002834456158447252,"421":0.06627057360737701,"422":-0.03464654865079562,"423":0.01659383429358346,"424":0.014103489667702052,"425":-0.05947470457585812,"426":0.034254460035967,"427":-0.0072077040851882155,"428":-0.021015942790681932,"429":-0.04647204135731449,"430":-0.07634945686396351,"431":0.004636102856609252,"432":-0.04585051769451526,"433":0.0046207112753117235,"434":-0.036134930390905276,"435":-0.029629396846480378,"436":0.03004093460453534,"437":0.02111427326931282,"438":-0.026603102852334116,"439":-0.08679360252475736,"440":-0.08326092155810086,"441":0.05736217557229619,"442":0.02564685031112101,"443":-0.0017808849479521648,"444":-0.00005521312417048035,"445":0.014182476205719935,"446":0.03854913912075813,"447":0.037643154097157856,"448":-0.0202379070108117,"449":0.005795760505300818,"450":-0.07431333755007985,"451":0.04920632792412663,"452":-0.11417496433792404,"453":0.047133211490386163,"454":-0.04582656807947548,"455":0.011786041077618615,"456":-0.08536448129281272,"457":-0.05592494052128093,"458":-0.014749308987470637,"459":-0.024962327560232103,"460":0.0135754250230637,"461":-0.036193331204792116,"462":0.012518297931746974,"463":-0.021949530141837325,"464":-0.04520332058489161,"465":-0.061907723191633325,"466":-0.03088025007231534,"467":0.031440210554317685,"468":0.012515848153911269,"469":-0.07763104705558703,"470":-0.02660042399897451,"471":0.07514694463766212,"472":0.015871546797506214,"473":-0.009341343484146123,"474":-0.007567106259270277,"475":-0.07723393290052762,"476":-0.06159623413229106,"477":-0.02948444423011705,"478":-0.01998518083002899,"479":-0.014360713285606584,"480":-0.06985872830427299,"481":-0.05373207678095016,"482":-0.0527311669390049,"483":0.06789976994615513,"484":0.016578855847858773,"485":0.010523628603720263,"486":-0.034578066772588435,"487":-0.023485637573628926,"488":-0.04168902639391979,"489":0.0489949033140763,"490":0.03730804581757588,"491":-0.008191160589883081,"492":0.009680353574857633,"493":-0.03249083125942801,"494":-0.048497115089060204,"495":0.030031241247323093,"496":0.04610018413416648,"497":0.014511627448142427,"498":0.022137820954876108,"499":0.014089849558113468,"500":-0.0521439773157965,"501":0.03311673662042592,"502":0.006985067123121023,"503":-0.041085149471973365,"504":-0.029189050394046134,"505":0.04167815292895349,"506":-0.03694638277130365,"507":-0.008501610237754463,"508":-0.010372753932336781,"509":0.0004598653478226581,"510":0.021224518283449345,"511":-0.013126211785067085,"512":-0.01063933325528228,"513":0.025803268489077495,"514":-0.0068351600110922355,"515":-0.0059525300072328455,"516":0.008940815981633394,"517":0.023085216543166566,"518":-0.029811560055126102,"519":0.034286284180345565,"520":-0.02476288294302226,"521":0.014869820635137664,"522":0.06094605455992187,"523":0.04205860217926482,"524":-0.009942119416187292,"525":-0.057707821035266775,"526":0.03318549967787558,"527":-0.01634140782432479,"528":-0.0005119054047879989,"529":-0.03870095819609466,"530":-0.002527049331657047,"531":-0.021094553853057477,"532":-0.07587105113164926,"533":-0.04134908778993846,"534":0.002254809904467483,"535":0.025561755780816056,"536":0.0043331514532615545,"537":-0.08544854878160243,"538":-0.011361879300469105,"539":-0.004739832365542134,"540":-0.10520397097252059,"541":-0.03535298832970895,"542":0.02141841460790661,"543":0.0030016690023274973,"544":-0.016433733987428936,"545":0.058704224551195845,"546":-0.004940152248840012,"547":0.055757671948518,"548":0.039431552116766265,"549":-0.03266461769246931,"550":0.034270414022486075,"551":-0.01759576292398984,"552":-0.0027900491079257063,"553":0.0034899182599232802,"554":0.05297414570766358,"555":0.011172750571260758,"556":-0.021537072934960676,"557":-0.02062414695032452,"558":0.04047630679487433,"559":-0.01053148625780741,"560":-0.003811462496075197,"561":0.03870275804286579,"562":0.032459042896463286,"563":0.04978226147630295,"564":-0.004826895184941378,"565":-0.024842899068066734,"566":-0.04304719163208737,"567":0.03489167373847889,"568":-0.013709531986546161,"569":0.05273297951482817,"570":0.02560468577551614,"571":0.04787035120293027,"572":0.029894085418640276,"573":-0.047431156191488355,"574":0.02402311984721862,"575":0.05398070496608554,"576":0.026776868684916667,"577":-0.023384768405333222,"578":0.02041469078960358,"579":0.02555282580829624,"580":0.09172263883470784,"581":-0.016261271563001518,"582":0.006817577640555423,"583":-0.13726703129493995,"584":-0.02453824822665981,"585":-0.08958230050646566,"586":0.0008100707102968104,"587":0.016816943911137333,"588":0.01003822184418276,"589":0.00879953536663671,"590":0.10725571485675946,"591":-0.026216121123035244,"592":-0.0144099211522431,"593":0.031459147131556335,"594":-0.04539807916019973,"595":0.022978021644691704,"596":-0.04839256809243307,"597":0.0008051045993345488,"598":-0.08465146098873423,"599":0.012953470121190375,"600":-0.01135136016022847,"601":-0.010025824243893436,"602":0.008705496708082959,"603":0.026750904043319503,"604":0.005519068484572051,"605":0.00020783477100753793,"606":0.028193006089792378,"607":-0.04664083974260452,"608":-0.012332705448163244,"609":-0.04964648506971847,"610":-0.023389097760548733,"611":0.10974708034085205,"612":-0.07299158605213985,"613":0.013417553674346293,"614":-0.08139540585153836,"615":-0.017022725272668352,"616":-0.02994377549139501,"617":0.008900161208800966,"618":0.005079029816988721,"619":0.04254668139630903,"620":0.04078958249454551,"621":-0.049226220533016236,"622":0.09595132970306505,"623":-0.05966202936092315,"624":0.047380931876276546,"625":-0.008868895255747765,"626":0.044473107524254235,"627":-0.019492902563379023,"628":-0.035427730446254975,"629":-0.03986546469375236,"630":-0.09506532776534042,"631":-0.03525980076730375,"632":0.021284011915558506,"633":-0.027413077956815093,"634":-0.05095013948988092,"635":-0.038044592151459306,"636":-0.05810875579029284,"637":-0.02597403127098546,"638":-0.007545034350910626,"639":-0.04873603993288734,"640":-0.028747885629859755,"641":0.0531105584119668,"642":-0.06671974590613823,"643":0.006458149935902763,"644":0.019492178385962546,"645":0.0010961697983755492,"646":-0.02331385484959684,"647":-0.052189389515056375,"648":-0.031524382450559184,"649":-0.023182035556747638,"650":0.003990056343550084,"651":0.061821420647006416,"652":-0.05532997111833237,"653":-0.021930098662677578,"654":0.04629607922301699,"655":0.04923361983860155,"656":-0.033513651774069585,"657":-0.012817014413498369,"658":0.005543358060779786,"659":-0.0028853894579496837,"660":0.06758046038902085,"661":-0.08533529637536781,"662":0.05357867621920281,"663":0.048512885656083804,"664":-0.021693097053676866,"665":-0.01621221312278966,"666":0.002443066715197015,"667":-0.030816193415894318,"668":0.01010909568156035,"669":-0.02159458936309185,"670":0.037728848967172754,"671":0.07762988786027077,"672":-0.003818120774080222,"673":0.03212919201897498,"674":0.008274366643228318,"675":0.057183765535681136,"676":-0.019356518350216487,"677":0.06411458298736197,"678":0.015488160384849408,"679":0.007706518853093019,"680":-0.06300596726550718,"681":0.0031097811001995182,"682":-0.01384827297288331,"683":-0.05776923941356104,"684":-0.03677558777013642,"685":-0.08051076180782872,"686":-0.03076261523087601,"687":-0.02806710717235381,"688":-0.03441905622479081,"689":0.040211862040289016,"690":0.017523836559172043,"691":-0.025135122888101942,"692":-0.0026792054955876504,"693":0.01763689465793423,"694":0.06396138607761492,"695":-0.061630508027859084,"696":0.03392114344503518,"697":0.01458447621953518,"698":0.03323000722244155,"699":0.04050631336100134,"700":-0.01754235784490456,"701":0.02215357525597083,"702":-0.052580913038556096,"703":-0.01455226270880417,"704":0.03207491697668151,"705":0.009020570586470433,"706":-0.0018367435453130255,"707":0.08649076779388244,"708":-0.0035969724352528003,"709":0.017839307384740023,"710":-0.02152804480370809,"711":-0.02445176040152602,"712":0.007816228602154446,"713":-0.029195009610530665,"714":0.014450412856984089,"715":0.032163519038845685,"716":-0.06747405567714074,"717":0.07349075463293281,"718":-0.035452700633544755,"719":0.02688525242177273,"720":-0.0433773265344665,"721":0.027619405171564984,"722":0.0024467733095890334,"723":0.019443115517953687,"724":0.020491728099935273,"725":-0.02751327856300994,"726":-0.01144013315375801,"727":-0.022286644960413236,"728":0.03158109935126633,"729":0.0019284776061133627,"730":0.027465717909320744,"731":-0.02357075591014381,"732":-0.03936807974061927,"733":0.055521396138132735,"734":0.02721785076181422,"735":-0.022280814029932712,"736":-0.034618113846058535,"737":0.03259469880816209,"738":0.013158970897591264,"739":0.04202798548805685,"740":-0.013167029377908758,"741":0.0023191530501818942,"742":-0.03900974773090448,"743":-0.027996953376323158,"744":-0.034125934820723645,"745":0.021886738163905434,"746":-0.022128891185221947,"747":-0.01463704896783893,"748":0.012168534391424712,"749":-0.040377811733666655,"750":0.0019882139970278886,"751":-0.017533859768211167,"752":0.05040262118733688,"753":-0.04204118984619757,"754":-0.041930475318457644,"755":0.01636234134048443,"756":0.031930647252027454,"757":0.05458053002024745,"758":-0.10122813627585274,"759":-0.03891519894139976,"760":-0.00007682476890879953,"761":-0.017232409464157234,"762":-0.01796497350135175,"763":0.02836207536228527,"764":-0.021644047019797236,"765":-0.0886367472227339,"766":0.03158285574000284,"767":0.004385234509823458,"768":-0.003994791256096334,"769":-0.0003999332775942472,"770":-0.09295773842570325,"771":-0.00032688841177391955,"772":-0.04637898998747609,"773":-0.013757262586145381,"774":-0.015008523750164721,"775":-0.009610667284710927,"776":-0.08226342099762886,"777":0.02909187694293446,"778":-0.06373990821883675,"779":0.00605170936159788,"780":-0.009388913957500255,"781":-0.058696854235982684,"782":-0.022383134947607648,"783":-0.09867565663562988,"784":-0.0028560049254800273,"785":-0.06115210638915713,"786":-0.014798944740286089,"787":-0.044203159063848654,"788":0.03711680466047153,"789":-0.02274492681501517,"790":-0.03237422924418202,"791":0.025001433728131666,"792":-0.03854315209304655,"793":-0.010395486971669579,"794":-0.029835200989128407,"795":0.00691067896277903,"796":0.004039410840649642,"797":-0.031236254736683768,"798":0.04762894900478428,"799":0.02915821048122478}},{"sx":5,"sy":5,"depth":32,"w":{"0":0.07594285723277423,"1":-0.04845313287718969,"2":-0.09112103794374032,"3":-0.036086209648776145,"4":0.017238341347572295,"5":-0.12437073295562819,"6":-0.00791425876071716,"7":0.05884649073552839,"8":-0.02839946390738455,"9":-0.00272649213729114,"10":-0.09845795636646494,"11":-0.07101839057843655,"12":0.02750582666740598,"13":-0.05589266175114061,"14":-0.009515815532360607,"15":-0.0039511752129607215,"16":-0.057447443380932474,"17":0.04913568736228953,"18":0.054540325310461005,"19":0.04475143459780351,"20":0.08020679546248163,"21":-0.06046640157395233,"22":0.06555099063316153,"23":0.04268758886417736,"24":0.05928645120420898,"25":0.006235959264896187,"26":0.05824805747710999,"27":-0.018292978750758644,"28":-0.052153191145907635,"29":-0.03404384011212254,"30":0.005904964978742555,"31":0.04140008474857673,"32":0.010417336061757192,"33":-0.027787530254522977,"34":-0.0504174679562168,"35":-0.06290275989354426,"36":-0.021363812639124413,"37":-0.0655461705051245,"38":-0.007430420412890227,"39":0.00346517207956175,"40":0.049957046563532365,"41":0.005378365801464882,"42":-0.04798789320934863,"43":-0.016306354289573364,"44":0.07029550007159799,"45":-0.023498816340671257,"46":0.02364554889608109,"47":-0.05900465968010824,"48":-0.027994330856925858,"49":0.02176075026021576,"50":0.013933153697374903,"51":0.02042679250840869,"52":0.01571417850456623,"53":-0.03371356460787227,"54":0.06066275024990321,"55":0.08828796448103539,"56":0.02108120969843082,"57":-0.07889675314035464,"58":-0.0782878919136337,"59":0.018620276433897312,"60":0.010033641157997155,"61":-0.09644066865689051,"62":0.03836089476822212,"63":-0.013724065831896922,"64":0.04262599819234698,"65":0.04364988505325974,"66":-0.07017366907631832,"67":0.008810896769009703,"68":-0.04799671402099392,"69":-0.1143754675918361,"70":-0.02791957310328384,"71":0.06351542138387303,"72":0.025267915046845554,"73":-0.0035415080330209597,"74":-0.053900369670070745,"75":-0.08061145362825371,"76":0.06046510080100368,"77":0.0044470197938964555,"78":0.02361252297942196,"79":0.01758246913689381,"80":0.04511497057729986,"81":0.06492226085257251,"82":-0.026532854168182334,"83":0.10193188879187619,"84":0.053350150235268415,"85":-0.0010017160821064776,"86":0.006748467105225991,"87":-0.07567770139914264,"88":0.08721478903414777,"89":-0.07909550000045586,"90":0.0007639696228653183,"91":-0.022972707556089544,"92":0.020269502731907214,"93":-0.10965061888529556,"94":0.04879304195247135,"95":0.01430000906319164,"96":-0.033520104266520176,"97":-0.06708395094550185,"98":-0.04262399299023547,"99":-0.032876839196805153,"100":-0.023349210291073695,"101":-0.010867352640477525,"102":-0.07103492800639594,"103":-0.0077375834569885565,"104":-0.018790771884782405,"105":-0.0235279260840436,"106":0.0054780441873151925,"107":-0.05903671489927507,"108":0.07376394370373916,"109":-0.08560211396362902,"110":0.02641274897419519,"111":0.06419678994738541,"112":0.057655879209028836,"113":-0.08242307993127003,"114":-0.03639244008065496,"115":0.03953348482162972,"116":0.051228485650320635,"117":-0.03051711599070425,"118":0.004970429090726003,"119":-0.022176238376835675,"120":0.02213867069863737,"121":-0.08927618160932001,"122":-0.007272120906976086,"123":-0.06634838244555989,"124":0.04692460008214409,"125":-0.0392939220906159,"126":-0.03304194293065053,"127":0.01970806645326287,"128":-0.00036114467067741376,"129":-0.03505943938465715,"130":-0.026976422712714377,"131":-0.04763405016996161,"132":0.000784990811531461,"133":-0.04643241889612791,"134":-0.05380044682231249,"135":-0.05125712730840127,"136":-0.02643542170103632,"137":-0.028026216733083455,"138":-0.09128086306802648,"139":-0.05205031982258536,"140":0.002372470498521249,"141":0.02303041404194057,"142":0.03990893805170921,"143":0.10002805699697305,"144":-0.03193615268900441,"145":-0.06640889814842264,"146":-0.05245511288571698,"147":-0.004880109228364368,"148":0.0014525626381990532,"149":-0.004348292741868409,"150":-0.02730276419922326,"151":-0.031509130332509606,"152":-0.017447817622052875,"153":0.03155568679300131,"154":-0.08106117228434262,"155":-0.061255222651741464,"156":0.026926549341665627,"157":-0.034825891760500764,"158":-0.02233015157014373,"159":-0.00896376522883202,"160":0.03854983083990374,"161":-0.09307235906964503,"162":-0.008800984711872089,"163":-0.01601642543247808,"164":0.001742916969325351,"165":-0.11855710700659347,"166":-0.0031115420828979504,"167":0.08836928193693087,"168":-0.01804761094635878,"169":0.03395020341846171,"170":-0.026280497673755378,"171":0.008363095198394373,"172":0.014511939765196191,"173":-0.024467770482249136,"174":0.08768646694211013,"175":-0.06743041967104843,"176":0.03784627952509904,"177":0.02596778524528311,"178":-0.022117157633984457,"179":0.01703217633422916,"180":0.00494305463676258,"181":-0.031007589567607477,"182":-0.03503081025154134,"183":0.02550995229410359,"184":-0.02261494527063029,"185":-0.059137638189254244,"186":-0.03112299497421575,"187":0.009688854027501201,"188":-0.06406540013348411,"189":-0.0453247246567787,"190":0.02519595674009871,"191":-0.05653557756019961,"192":0.09915954225413202,"193":-0.030796659928407858,"194":-0.01552326872627947,"195":-0.03037242211738838,"196":0.09565243033604735,"197":-0.02536910306991504,"198":-0.0026759501628848157,"199":0.022123537948477504,"200":-0.04293526593004923,"201":-0.009824639210749449,"202":-0.09918315953016256,"203":0.013733182046372793,"204":-0.0493087930319092,"205":0.001476912535679765,"206":0.0018212053676798022,"207":0.05068738972460773,"208":-0.0574461149277164,"209":-0.020617999375124665,"210":-0.0180534341759213,"211":-0.06358932717823078,"212":0.05849412872825235,"213":0.0077536240761823414,"214":-0.04056954932062374,"215":0.054834342137831345,"216":0.037022419107558054,"217":-0.008446847467159641,"218":-0.030305186666328844,"219":-0.08257293820239471,"220":0.016690323394614636,"221":-0.09576414189885199,"222":0.09195160980118332,"223":0.05817159289798626,"224":-0.003011789919740119,"225":-0.10175948399372539,"226":-0.039380126265009634,"227":-0.005603588025838082,"228":0.03445031805690202,"229":-0.06181725721114581,"230":0.039697276939538555,"231":0.015188008566346736,"232":0.00970802926766798,"233":0.0331280365594095,"234":-0.09139257868329471,"235":-0.04231682223195161,"236":0.009424999884989845,"237":-0.0067511836371321075,"238":0.03432734090199795,"239":-0.00720404134914489,"240":0.05841490724201032,"241":-0.06131926711311467,"242":-0.029016794543599,"243":-0.008062128308874983,"244":0.001735876028251204,"245":-0.06427024013898917,"246":0.056703260756778076,"247":0.0278603434741915,"248":0.06279649868410155,"249":-0.04120304734950477,"250":-0.030376483595279724,"251":-0.013231353744751675,"252":0.03771144967958291,"253":-0.07570288594016564,"254":0.0480854430774825,"255":-0.012457088783805468,"256":-0.049706157352986446,"257":-0.08097079704259212,"258":0.038282515238864265,"259":-0.08923669937027584,"260":-0.026325115141247715,"261":-0.01424895805059594,"262":-0.015969736012045453,"263":-0.013654224573099161,"264":-0.01784491072461593,"265":-0.07813365017792141,"266":-0.10585178481210682,"267":-0.08220819237192456,"268":-0.0441087499210309,"269":0.012996086353367199,"270":0.022271817558595957,"271":0.05825144103781426,"272":-0.09414510617405825,"273":-0.06516958781426165,"274":-0.03181518656275111,"275":0.030981282679806318,"276":0.03582666640929785,"277":0.004434463297113672,"278":-0.044112539381573085,"279":-0.025514791401200585,"280":0.00016128764781877294,"281":-0.044800780286358755,"282":-0.046845936023913425,"283":-0.024011161990137815,"284":-0.0423849842365336,"285":-0.054699196656319005,"286":0.03253204796158714,"287":-0.02951866464896678,"288":-0.018480210599113187,"289":-0.047558621737241354,"290":-0.02498826189762638,"291":-0.051280646107168586,"292":0.04583065069875136,"293":-0.0023253649957154553,"294":-0.08077044923647335,"295":-0.06274081079026507,"296":-0.0177776533218602,"297":-0.03889211494504723,"298":-0.05203767908122041,"299":-0.05368193695124088,"300":0.03927945595417289,"301":-0.006240898925012718,"302":0.015506684456759528,"303":0.01635309241092233,"304":-0.01220649497719538,"305":-0.04750767667743836,"306":-0.002288050258239952,"307":0.05463232144332774,"308":0.020495424058647505,"309":0.020091601191232242,"310":-0.038486067796503994,"311":-0.004298160567415832,"312":-0.050692037527316734,"313":-0.04257197771135564,"314":-0.02752099178796234,"315":-0.06752163410837554,"316":0.03375922466756623,"317":-0.00988165213902462,"318":-0.06874592659213559,"319":0.06038264546330961,"320":-0.008198715638484264,"321":-0.09477428959822251,"322":-0.05178102219795449,"323":0.007443839494458123,"324":0.03745563385568661,"325":-0.012215534779183683,"326":-0.06985021188878165,"327":0.09467037313657246,"328":-0.000710942823675623,"329":-0.04797612842223532,"330":0.01895179834209264,"331":-0.0665788432009556,"332":0.015146553747055484,"333":-0.0016323439178847524,"334":0.0012514712450679226,"335":0.00206123014612533,"336":0.011856971080443732,"337":0.027899389734935814,"338":0.0718239302598076,"339":-0.0693709101719192,"340":-0.0037262563775581916,"341":0.06171157386715772,"342":0.013434498572028003,"343":0.04157572968602574,"344":0.03141815010141296,"345":0.00394485731546691,"346":-0.03580022089905846,"347":-0.029192126676903928,"348":0.008258365517196718,"349":-0.020415544714295374,"350":-0.003238033603426668,"351":-0.0025456226137545264,"352":0.008038455446589137,"353":-0.10464153974236284,"354":0.0009356919275914173,"355":-0.04419546581498532,"356":0.03387044239835198,"357":-0.055371300688104724,"358":-0.04099797170436721,"359":0.04326230839994564,"360":0.031159648681333252,"361":0.0241738167821386,"362":-0.06030442391289878,"363":0.06803336882464794,"364":0.053250993493147096,"365":-0.024232090688392098,"366":0.008815597384563058,"367":0.00628431309864214,"368":0.09112505652450514,"369":0.025684284706244294,"370":0.07638975839025318,"371":0.0127189472028215,"372":0.008657481001232143,"373":-0.0648533975342705,"374":-0.004167980863517358,"375":-0.004612471993331882,"376":-0.07095303701167298,"377":0.011955751105452257,"378":0.0005638272360806902,"379":0.005521206462258194,"380":-0.01959291643283926,"381":-0.00572902566384643,"382":-0.017352026717502484,"383":-0.020025178984793512,"384":-0.0010767518844551284,"385":-0.079231910647785,"386":-0.08796254118581333,"387":-0.03715607369834588,"388":0.03249689091826061,"389":-0.028128688032250302,"390":-0.06023529976287441,"391":-0.003735868823971294,"392":-0.037054534721502455,"393":0.06622644727001946,"394":0.028731170500565728,"395":-0.017860437457799604,"396":0.014594080288790091,"397":-0.011500925235112806,"398":-0.07057951338418367,"399":0.056895901443713516,"400":-0.05275536867199974,"401":-0.010174536684821121,"402":-0.023376210004064698,"403":0.035996492194902675,"404":0.03499211241114774,"405":-0.014987800673251808,"406":-0.051715829266729574,"407":0.029316805767511438,"408":-0.03920425452212635,"409":-0.03223108431888301,"410":0.019454603076884566,"411":-0.007963081729879163,"412":0.05086128201230023,"413":-0.07309329239203302,"414":0.03042929113011936,"415":-0.05362465877920148,"416":-0.09452301669498601,"417":-0.06970541610280216,"418":-0.005628801673856003,"419":-0.07577988238293358,"420":0.02071832379150477,"421":-0.08078341583215816,"422":-0.0806544903077975,"423":-0.059553154229791405,"424":-0.05651323810473214,"425":-0.026803055433780643,"426":-0.016116972205769978,"427":-0.07197883239672498,"428":-0.027362982490782867,"429":-0.026887584936868,"430":-0.0576705099690014,"431":-0.021276326894301093,"432":-0.005089223854876711,"433":0.005374001685237345,"434":-0.08315365154496325,"435":0.05042404464351685,"436":0.044706977323548225,"437":0.0012492390673690154,"438":-0.04187611965989453,"439":-0.03279142420690488,"440":-0.005661838483200881,"441":-0.04240778676976511,"442":-0.011053936804585253,"443":-0.03347047210684334,"444":-0.0031083036539853817,"445":-0.04858837076414914,"446":-0.03446219620395572,"447":0.040706986121523195,"448":-0.07748499134871736,"449":-0.10157182228375328,"450":0.03078109277697865,"451":-0.059162751901866706,"452":0.06328206657530365,"453":-0.043758251159269373,"454":-0.05903680447214283,"455":0.04586621506236815,"456":-0.005986804838110754,"457":0.001954489523663037,"458":-0.0873056776498116,"459":-0.028562444221516884,"460":-0.035846071289735576,"461":-0.015143916111952775,"462":-0.0026816863339774984,"463":0.056511633762886586,"464":0.11807176758065491,"465":-0.005614648604744228,"466":-0.03588001991550132,"467":-0.04197508334820373,"468":-0.06798019343227661,"469":0.047960530612005066,"470":-0.043990783310625725,"471":-0.050800554792077846,"472":0.016707774889306862,"473":-0.0467545210534148,"474":-0.0197754158994599,"475":-0.04473094260555781,"476":0.008567462002354203,"477":-0.01480461259192801,"478":-0.03510004719589869,"479":0.0010960541524421626,"480":0.07067185736300174,"481":-0.021333791305190922,"482":0.013588929576800989,"483":0.013234511345231476,"484":-0.03264451648457409,"485":0.0535536494945411,"486":-0.04811297821280627,"487":-0.04212634846378984,"488":0.07916168179907718,"489":0.03808299625343787,"490":-0.02840021353394459,"491":-0.03225954555449091,"492":0.0472199877691908,"493":0.026201280822402643,"494":-0.018641256529834123,"495":0.0033000886524754388,"496":0.005766154241112628,"497":0.02043634297711099,"498":0.06227326074711918,"499":0.028352645950489058,"500":0.013748362238148076,"501":0.04038223206054441,"502":-0.0602787466751555,"503":0.10704342202215261,"504":-0.05763758344843215,"505":0.004598354591294642,"506":0.02215680886591185,"507":0.011707028717836467,"508":0.0008050336667487935,"509":-0.06194288914325737,"510":-0.051530500764417224,"511":0.062285336541498454,"512":0.05515262717608753,"513":0.015046511428051858,"514":-0.047789923359720946,"515":0.03811025146015502,"516":0.037869357241213895,"517":-0.03244251139478561,"518":0.012805452070045928,"519":0.13002380285837842,"520":0.03256792066686402,"521":0.02758745055867984,"522":0.0457295522021181,"523":-0.0312591081513821,"524":-0.021205180584516214,"525":-0.0019975290826034675,"526":-0.009334891693251258,"527":-0.09333146085527388,"528":-0.021006144692134326,"529":0.049169322314008675,"530":0.042552425652750206,"531":0.036735386542284566,"532":0.04931847387162971,"533":-0.0008783952190375306,"534":-0.01465464848970539,"535":0.05387979526108897,"536":-0.035530265885289083,"537":-0.019657421942681916,"538":0.025752608078096588,"539":-0.03218630320154821,"540":-0.10462050525825231,"541":0.0013609680111412398,"542":-0.059162672008824385,"543":0.0028342352598695972,"544":0.0007551695010876776,"545":0.05788250751083334,"546":-0.034284442000619586,"547":0.08018508029518966,"548":0.06806545097952303,"549":-0.019975301342402243,"550":-0.016127077043250424,"551":0.061877464454034636,"552":-0.03683949049780351,"553":0.058817385428083964,"554":-0.02028373154714825,"555":0.054713196887161766,"556":-0.0015958850656000237,"557":-0.011631535214333213,